{"learner":{"attributes":{},"feature_names":[],"feature_types":[],"gradient_booster":{"model":{"cats":{"enc":[],"feature_segments":[],"sorted_idx":[]},"gbtree_model_param":{"num_parallel_tree":"1","num_trees":"200"},"iteration_indptr":[0,1,2,3,4,5,6,7,8,9,10,11,12,13,14,15,16,17,18,19,20,21,22,23,24,25,26,27,28,29,30,31,32,33,34,35,36,37,38,39,40,41,42,43,44,45,46,47,48,49,50,51,52,53,54,55,56,57,58,59,60,61,62,63,64,65,66,67,68,69,70,71,72,73,74,75,76,77,78,79,80,81,82,83,84,85,86,87,88,89,90,91,92,93,94,95,96,97,98,99,100,101,102,103,104,105,106,107,108,109,110,111,112,113,114,115,116,117,118,119,120,121,122,123,124,125,126,127,128,129,130,131,132,133,134,135,136,137,138,139,140,141,142,143,144,145,146,147,148,149,150,151,152,153,154,155,156,157,158,159,160,161,162,163,164,165,166,167,168,169,170,171,172,173,174,175,176,177,178,179,180,181,182,183,184,185,186,187,188,189,190,191,192,193,194,195,196,197,198,199,200],"tree_info":[0,0,0,0,0,0,0,0,0,0,0,0,0,0,0,0,0,0,0,0,0,0,0,0,0,0,0,0,0,0,0,0,0,0,0,0,0,0,0,0,0,0,0,0,0,0,0,0,0,0,0,0,0,0,0,0,0,0,0,0,0,0,0,0,0,0,0,0,0,0,0,0,0,0,0,0,0,0,0,0,0,0,0,0,0,0,0,0,0,0,0,0,0,0,0,0,0,0,0,0,0,0,0,0,0,0,0,0,0,0,0,0,0,0,0,0,0,0,0,0,0,0,0,0,0,0,0,0,0,0,0,0,0,0,0,0,0,0,0,0,0,0,0,0,0,0,0,0,0,0,0,0,0,0,0,0,0,0,0,0,0,0,0,0,0,0,0,0,0,0,0,0,0,0,0,0,0,0,0,0,0,0,0,0,0,0,0,0,0,0,0,0,0,0,0,0,0,0,0,0],"trees":[{"base_weights":[-9.9163735E-3,1.1338414E0,-1.3949022E0,1.4413846E0,3.4890717E-1,-7.3181605E-1,-1.7886466E0,8.232035E-1,1.6370794E0,-6.621757E-1,7.3753536E-1,-1.465712E-3,-1.1531954E0,-9.2340827E-1,-1.8343543E0,1.2588699E-1,2.522457E-2,1.7049085E-1,1.18138984E-1,-9.682129E-2,1.5739972E-2,1.15754426E-1,1.3700696E-2,-9.178279E-2,3.87221E-2,-1.5132141E-1,-7.116028E-2,-1.5171757E-1,2.3447279E-2,-1.8752973E-1,-1.1278885E-1],"categories":[],"categories_nodes":[],"categories_segments":[],"categories_sizes":[],"default_left":[0,0,0,0,0,0,0,0,0,0,0,0,0,0,0,0,0,0,0,0,0,0,0,0,0,0,0,0,0,0,0],"id":0,"left_children":[1,3,5,7,9,11,13,15,17,19,21,23,25,27,29,-1,-1,-1,-1,-1,-1,-1,-1,-1,-1,-1,-1,-1,-1,-1,-1],"loss_changes":[8.418091E3,7.0210767E2,6.2623926E2,2.5159668E2,3.2295807E2,2.761174E2,5.792041E1,1.2524011E2,4.7041992E1,5.743596E1,1.4948376E2,1.1763004E2,8.937518E1,5.3740417E1,3.926953E1,0E0,0E0,0E0,0E0,0E0,0E0,0E0,0E0,0E0,0E0,0E0,0E0,0E0,0E0,0E0,0E0],"parents":[2147483647,0,0,1,1,2,2,3,3,4,4,5,5,6,6,7,7,8,8,9,9,10,10,11,11,12,12,13,13,14,14],"right_children":[2,4,6,8,10,12,14,16,18,20,22,24,26,28,30,-1,-1,-1,-1,-1,-1,-1,-1,-1,-1,-1,-1,-1,-1,-1,-1],"split_conditions":[-4.3562043E-1,-8.460773E-1,-3.991887E-2,-7.498664E-1,-6.080046E-1,-2.0149983E-1,-3.039676E-1,-4.2266098E-1,6.430472E-2,-3.199859E-1,-3.6361882E-1,-5.905628E-1,2.078345E-1,1.355835E-1,1.2221123E0,1.2588699E-1,2.522457E-2,1.7049085E-1,1.18138984E-1,-9.682129E-2,1.5739972E-2,1.15754426E-1,1.3700696E-2,-9.178279E-2,3.87221E-2,-1.5132141E-1,-7.116028E-2,-1.5171757E-1,2.3447279E-2,-1.8752973E-1,-1.1278885E-1],"split_indices":[26,26,61,58,58,22,26,2,2,18,61,58,38,0,23,0,0,0,0,0,0,0,0,0,0,0,0,0,0,0,0],"split_type":[0,0,0,0,0,0,0,0,0,0,0,0,0,0,0,0,0,0,0,0,0,0,0,0,0,0,0,0,0,0,0],"sum_hessian":[5.3121562E3,2.9095525E3,2.4026038E3,2.089884E3,8.196686E2,8.962054E2,1.5063984E3,5.0376016E2,1.5861238E3,2.2738463E2,5.9228394E2,3.282587E2,5.6794666E2,7.664909E1,1.4297494E3,2.8504965E2,2.1871051E2,1.3782332E3,2.0789062E2,1.6543011E2,6.195451E1,3.4797977E2,2.4430418E2,9.736084E1,2.3089786E2,3.1153433E2,2.5641232E2,5.0461746E1,2.6187346E1,1.3498641E3,7.988524E1],"tree_param":{"num_deleted":"0","num_feature":"64","num_nodes":"31","size_leaf_vector":"1"}},{"base_weights":[3.2603762E-3,1.0220978E0,-1.2828777E0,1.3236322E0,2.9207703E-1,-6.9715106E-1,-1.6327258E0,5.764729E-1,1.459452E0,-4.8986244E-1,7.1147776E-1,-3.3473974E-1,-1.4439808E0,-9.1150165E-1,-1.6661072E0,9.375148E-2,-1.5911397E-2,1.5557733E-1,1.007694E-1,-7.774223E-2,1.4267631E-2,8.618649E-2,-6.820476E-2,-6.499568E-2,5.3992238E-2,-1.5493412E-1,-2.6246661E-2,-1.3668282E-1,2.4682345E-2,-1.6983584E-1,-8.754306E-2],"categories":[],"categories_nodes":[],"categories_segments":[],"categories_sizes":[],"default_left":[0,0,0,0,0,0,0,0,0,0,0,0,0,0,0,0,0,0,0,0,0,0,0,0,0,0,0,0,0,0,0],"id":1,"left_children":[1,3,5,7,9,11,13,15,17,19,21,23,25,27,29,-1,-1,-1,-1,-1,-1,-1,-1,-1,-1,-1,-1,-1,-1,-1,-1],"loss_changes":[6.9702065E3,6.5296436E2,4.8066113E2,2.1228394E2,2.8529468E2,2.3795581E2,3.3902588E1,8.638325E1,7.57334E1,5.539322E1,1.19193756E2,1.6424075E2,3.538568E1,3.5828144E1,3.4339844E1,0E0,0E0,0E0,0E0,0E0,0E0,0E0,0E0,0E0,0E0,0E0,0E0,0E0,0E0,0E0,0E0],"parents":[2147483647,0,0,1,1,2,2,3,3,4,4,5,5,6,6,7,7,8,8,9,9,10,10,11,11,12,12,13,13,14,14],"right_children":[2,4,6,8,10,12,14,16,18,20,22,24,26,28,30,-1,-1,-1,-1,-1,-1,-1,-1,-1,-1,-1,-1,-1,-1,-1,-1],"split_conditions":[-4.123612E-1,-8.460773E-1,-3.991887E-2,-9.494164E-1,-4.7127798E-1,3.3091864E-1,-2.9404482E-1,-1.5813082E-1,-7.089175E-2,-3.3098426E-1,2.645083E-1,6.5165234E-1,1.8471884E0,2.8861415E-1,1.5243846E0,9.375148E-2,-1.5911397E-2,1.5557733E-1,1.007694E-1,-7.774223E-2,1.4267631E-2,8.618649E-2,-6.820476E-2,-6.499568E-2,5.3992238E-2,-1.5493412E-1,-2.6246661E-2,-1.3668282E-1,2.4682345E-2,-1.6983584E-1,-8.754306E-2],"split_indices":[26,26,61,58,58,26,26,2,36,18,61,7,43,60,55,0,0,0,0,0,0,0,0,0,0,0,0,0,0,0,0],"split_type":[0,0,0,0,0,0,0,0,0,0,0,0,0,0,0,0,0,0,0,0,0,0,0,0,0,0,0,0,0,0,0],"sum_hessian":[5.317283E3,2.9670703E3,2.350213E3,2.099189E3,8.678815E2,8.79956E2,1.470257E3,3.2370383E2,1.7754851E3,3.0292804E2,5.649534E2,5.9343176E2,2.8652426E2,6.629181E1,1.4039651E3,2.1694704E2,1.06756805E2,1.4614414E3,3.1404376E2,2.0809602E2,9.483202E1,5.1026764E2,5.46858E1,4.3641153E2,1.5702022E2,2.6277982E2,2.3744446E1,4.745694E1,1.8834871E1,1.3478398E3,5.6125313E1],"tree_param":{"num_deleted":"0","num_feature":"64","num_nodes":"31","size_leaf_vector":"1"}},{"base_weights":[2.047123E-3,8.9617306E-1,-1.1630008E0,1.1602527E0,2.1103035E-1,-6.182592E-1,-1.5232887E0,3.918971E-1,1.3038844E0,6.752357E-1,-5.122324E-1,-2.3051746E-1,-1.109494E0,-1.3138325E0,-1.6205913E0,-8.034156E-2,5.6255262E-2,1.4040475E-1,9.623112E-2,3.372216E-2,1.3417767E-1,-1.2438828E-1,-2.437544E-2,-5.8196932E-2,3.5874166E-2,-1.3845834E-1,-5.253283E-2,-1.357537E-1,1.2425275E-1,-5.9901336E-3,-1.6273016E-1],"categories":[],"categories_nodes":[],"categories_segments":[],"categories_sizes":[],"default_left":[0,0,0,0,0,0,0,0,0,0,0,0,0,0,0,0,0,0,0,0,0,0,0,0,0,0,0,0,0,0,0],"id":2,"left_children":[1,3,5,7,9,11,13,15,17,19,21,23,25,27,29,-1,-1,-1,-1,-1,-1,-1,-1,-1,-1,-1,-1,-1,-1,-1,-1],"loss_changes":[5.438889E3,5.3423804E2,4.4401123E2,2.3477686E2,2.7668152E2,1.7197128E2,2.5667725E1,6.923717E1,6.0088135E1,1.12589615E2,6.3010544E1,1.0512366E2,6.3328552E1,5.0611816E1,9.61084E0,0E0,0E0,0E0,0E0,0E0,0E0,0E0,0E0,0E0,0E0,0E0,0E0,0E0,0E0,0E0,0E0],"parents":[2147483647,0,0,1,1,2,2,3,3,4,4,5,5,6,6,7,7,8,8,9,9,10,10,11,11,12,12,13,13,14,14],"right_children":[2,4,6,8,10,12,14,16,18,20,22,24,26,28,30,-1,-1,-1,-1,-1,-1,-1,-1,-1,-1,-1,-1,-1,-1,-1,-1],"split_conditions":[-3.7778607E-1,-7.3891574E-1,1.2871115E-1,-9.494164E-1,-1.9991511E-1,1.8907456E-1,3.2645652E-1,-1.4515846E0,-1.799827E-1,6.350042E-1,-6.002088E-1,3.7700132E-1,5.3447913E-3,1.6666943E0,-1.3462732E0,-8.034156E-2,5.6255262E-2,1.4040475E-1,9.623112E-2,3.372216E-2,1.3417767E-1,-1.2438828E-1,-2.437544E-2,-5.8196932E-2,3.5874166E-2,-1.3845834E-1,-5.253283E-2,-1.357537E-1,1.2425275E-1,-5.9901336E-3,-1.6273016E-1],"split_indices":[22,22,56,58,56,22,14,58,36,46,9,43,25,46,46,0,0,0,0,0,0,0,0,0,0,0,0,0,0,0,0],"split_type":[0,0,0,0,0,0,0,0,0,0,0,0,0,0,0,0,0,0,0,0,0,0,0,0,0,0,0,0,0,0,0],"sum_hessian":[5.219168E3,2.953053E3,2.266115E3,2.1309946E3,8.220583E2,9.032107E2,1.3629042E3,3.362043E2,1.7947904E3,5.007395E2,3.213188E2,5.055997E2,3.9761102E2,4.369074E2,9.259968E2,4.154003E1,2.9466428E2,1.385419E3,4.0937146E2,3.3324918E2,1.6749033E2,8.528069E1,2.360381E2,3.1671417E2,1.8888551E2,2.6938486E2,1.2822617E2,4.3002448E2,6.8829136E0,4.00685E0,9.219899E2],"tree_param":{"num_deleted":"0","num_feature":"64","num_nodes":"31","size_leaf_vector":"1"}},{"base_weights":[-9.061656E-3,7.96051E-1,-1.187413E0,1.0602118E0,3.1034168E-2,-7.0996684E-1,-1.4510847E0,3.2804385E-1,1.1974764E0,-5.0252444E-1,6.043436E-1,-1.0008026E0,-7.642829E-2,-1.2424496E0,-1.5026435E0,8.4002644E-2,-2.3112237E-2,1.2778382E-1,7.601123E-2,-1.8546168E-2,-1.0730338E-1,-3.338636E-2,7.60838E-2,-6.9431156E-2,-1.3097742E-1,-4.9629252E-2,4.0402442E-2,-1.2951256E-1,-9.057309E-3,1.0696393E-3,-1.5082262E-1],"categories":[],"categories_nodes":[],"categories_segments":[],"categories_sizes":[],"default_left":[0,0,0,0,0,0,0,0,0,0,0,0,0,0,0,0,0,0,0,0,0,0,0,0,0,0,0,0,0,0,0],"id":3,"left_children":[1,3,5,7,9,11,13,15,17,19,21,23,25,27,29,-1,-1,-1,-1,-1,-1,-1,-1,-1,-1,-1,-1,-1,-1,-1,-1],"loss_changes":[4.8746924E3,6.1685535E2,2.6153442E2,2.2764722E2,2.402903E2,1.3700836E2,1.2576416E1,1.03144424E2,6.617529E1,7.34048E1,5.5847107E1,4.736969E1,4.7639122E1,1.6376587E1,9.071533E0,0E0,0E0,0E0,0E0,0E0,0E0,0E0,0E0,0E0,0E0,0E0,0E0,0E0,0E0,0E0,0E0],"parents":[2147483647,0,0,1,1,2,2,3,3,4,4,5,5,6,6,7,7,8,8,9,9,10,10,11,11,12,12,13,13,14,14],"right_children":[2,4,6,8,10,12,14,16,18,20,22,24,26,28,30,-1,-1,-1,-1,-1,-1,-1,-1,-1,-1,-1,-1,-1,-1,-1,-1],"split_conditions":[-3.039676E-1,-7.3217034E-1,1.2871115E-1,-9.494164E-1,-9.4444886E-2,3.5973948E-1,4.5890963E-1,-4.2266098E-1,-1.8281928E-1,-2.5028499E-2,-4.820463E-1,1.948646E-1,8.406838E-1,1.9313093E0,-1.5519409E0,8.4002644E-2,-2.3112237E-2,1.2778382E-1,7.601123E-2,-1.8546168E-2,-1.0730338E-1,-3.338636E-2,7.60838E-2,-6.9431156E-2,-1.3097742E-1,-4.9629252E-2,4.0402442E-2,-1.2951256E-1,-9.057309E-3,1.0696393E-3,-1.5082262E-1],"split_indices":[26,26,56,58,55,25,56,2,35,36,58,26,7,46,39,0,0,0,0,0,0,0,0,0,0,0,0,0,0,0,0],"split_type":[0,0,0,0,0,0,0,0,0,0,0,0,0,0,0,0,0,0,0,0,0,0,0,0,0,0,0,0,0,0,0],"sum_hessian":[5.1362603E3,3.051581E3,2.0846792E3,2.2680398E3,7.835413E2,7.429921E2,1.341687E3,3.5860968E2,1.90943E3,4.0590424E2,3.7763712E2,5.0882724E2,2.3416487E2,2.7083517E2,1.0708518E3,1.8694093E2,1.7166875E2,1.611424E3,2.9800616E2,2.6175693E2,1.4414731E2,5.382356E1,3.2381354E2,2.570691E2,2.5175816E2,1.2494412E2,1.0922076E2,2.5887247E2,1.1962723E1,3.9325042E0,1.0669193E3],"tree_param":{"num_deleted":"0","num_feature":"64","num_nodes":"31","size_leaf_vector":"1"}},{"base_weights":[8.774496E-3,7.111554E-1,-1.1269175E0,1.011419E0,7.962138E-2,-5.6732136E-1,-1.2957113E0,5.2991086E-1,1.1495118E0,-3.4915593E-1,6.179643E-1,-1.1012353E0,-2.3522773E-1,-1.0216749E0,-1.3883845E0,8.2788065E-2,-7.675342E-3,1.3187823E-1,9.196478E-2,-6.7848945E-3,-9.396788E-2,8.281734E-2,-2.6640896E-2,-1.6117392E-2,-1.2394434E-1,1.6395794E-2,-8.727368E-2,-1.20046936E-1,3.1832404E-2,-1.1963987E-1,-1.4679767E-1],"categories":[],"categories_nodes":[],"categories_segments":[],"categories_sizes":[],"default_left":[0,0,0,0,0,0,0,0,0,0,0,0,0,0,0,0,0,0,0,0,0,0,0,0,0,0,0,0,0,0,0],"id":4,"left_children":[1,3,5,7,9,11,13,15,17,19,21,23,25,27,29,-1,-1,-1,-1,-1,-1,-1,-1,-1,-1,-1,-1,-1,-1,-1,-1],"loss_changes":[4.0015215E3,5.876632E2,1.8032959E2,1.390664E2,2.3101387E2,7.882019E1,3.5961914E1,8.502913E1,6.2270752E1,9.249884E1,8.269774E1,2.1985718E1,7.044147E1,9.0408936E1,1.5009033E1,0E0,0E0,0E0,0E0,0E0,0E0,0E0,0E0,0E0,0E0,0E0,0E0,0E0,0E0,0E0,0E0],"parents":[2147483647,0,0,1,1,2,2,3,3,4,4,5,5,6,6,7,7,8,8,9,9,10,10,11,11,12,12,13,13,14,14],"right_children":[2,4,6,8,10,12,14,16,18,20,22,24,26,28,30,-1,-1,-1,-1,-1,-1,-1,-1,-1,-1,-1,-1,-1,-1,-1,-1],"split_conditions":[-2.492324E-1,-7.892374E-1,-3.0209374E-1,-5.0956815E-1,-2.4819537E-3,-2.1956677E-2,9.30807E-2,-5.8544195E-1,-1.1308327E0,-3.1827103E-2,4.209601E-2,-3.5648444E-1,8.556743E-1,7.634114E-1,3.0326486E-2,8.2788065E-2,-7.675342E-3,1.3187823E-1,9.196478E-2,-6.7848945E-3,-9.396788E-2,8.281734E-2,-2.6640896E-2,-1.6117392E-2,-1.2394434E-1,1.6395794E-2,-8.727368E-2,-1.20046936E-1,3.1832404E-2,-1.1963987E-1,-1.4679767E-1],"split_indices":[26,26,61,13,7,28,22,32,26,61,61,33,2,7,57,0,0,0,0,0,0,0,0,0,0,0,0,0,0,0,0],"split_type":[0,0,0,0,0,0,0,0,0,0,0,0,0,0,0,0,0,0,0,0,0,0,0,0,0,0,0,0,0,0,0],"sum_hessian":[5.0143916E3,3.0984783E3,1.9159135E3,2.0996133E3,9.988652E2,4.449956E2,1.4709178E3,4.690266E2,1.6305865E3,5.562092E2,4.4265594E2,1.6975725E2,2.7523837E2,3.747623E2,1.0961555E3,3.1429337E2,1.5473325E2,9.363369E2,6.942497E2,3.7749637E2,1.7871281E2,3.5769742E2,8.4958534E1,2.203644E1,1.4772081E2,1.6971292E2,1.05525444E2,3.3073663E2,4.4025673E1,3.259523E2,7.702032E2],"tree_param":{"num_deleted":"0","num_feature":"64","num_nodes":"31","size_leaf_vector":"1"}},{"base_weights":[-1.7330089E-3,6.574601E-1,-1.0536883E0,9.7856075E-1,1.5786394E-1,-6.3252854E-1,-1.287509E0,4.3009013E-1,1.1016078E0,-2.1592063E-1,6.4409757E-1,-1.1254537E0,-3.534043E-1,-1.1183629E0,-1.363358E0,-1.4306027E-4,1.060971E-1,1.257716E-1,8.931012E-2,-9.315353E-2,-1.5973281E-3,8.447426E-2,-1.92848E-3,-5.6472328E-2,-1.3694772E-1,-1.071798E-2,-7.626965E-2,-1.1642343E-1,1.2745993E-1,2.499833E-2,-1.3705057E-1],"categories":[],"categories_nodes":[],"categories_segments":[],"categories_sizes":[],"default_left":[0,0,0,0,0,0,0,0,0,0,0,0,0,0,0,0,0,0,0,0,0,0,0,0,0,0,0,0,0,0,0],"id":5,"left_children":[1,3,5,7,9,11,13,15,17,19,21,23,25,27,29,-1,-1,-1,-1,-1,-1,-1,-1,-1,-1,-1,-1,-1,-1,-1,-1],"loss_changes":[3.3997832E3,4.8336218E2,1.8517822E2,1.23339355E2,2.1468231E2,9.264099E1,1.4043701E1,9.1965775E1,4.7629272E1,9.5587296E1,6.8339264E1,3.261609E1,4.357483E1,4.3333923E1,9.951172E0,0E0,0E0,0E0,0E0,0E0,0E0,0E0,0E0,0E0,0E0,0E0,0E0,0E0,0E0,0E0,0E0],"parents":[2147483647,0,0,1,1,2,2,3,3,4,4,5,5,6,6,7,7,8,8,9,9,10,10,11,11,12,12,13,13,14,14],"right_children":[2,4,6,8,10,12,14,16,18,20,22,24,26,28,30,-1,-1,-1,-1,-1,-1,-1,-1,-1,-1,-1,-1,-1,-1,-1,-1],"split_conditions":[-2.492324E-1,-8.803209E-1,1.2871115E-1,-5.619757E-1,-9.163011E-2,-6.256273E-1,3.2645652E-1,5.7929654E-2,-1.1808987E0,-6.524386E-1,-1.2084491E-2,7.5037874E-2,2.4788417E-1,1.6666943E0,-1.3462732E0,-1.4306027E-4,1.060971E-1,1.257716E-1,8.931012E-2,-9.315353E-2,-1.5973281E-3,8.447426E-2,-1.92848E-3,-5.6472328E-2,-1.3694772E-1,-1.071798E-2,-7.626965E-2,-1.1642343E-1,1.2745993E-1,2.499833E-2,-1.3705057E-1],"split_indices":[26,26,56,13,62,25,14,23,26,8,61,22,14,46,46,0,0,0,0,0,0,0,0,0,0,0,0,0,0,0,0],"split_type":[0,0,0,0,0,0,0,0,0,0,0,0,0,0,0,0,0,0,0,0,0,0,0,0,0,0,0,0,0,0,0],"sum_hessian":[4.9007686E3,3.0130547E3,1.8877137E3,1.8336023E3,1.1794523E3,6.752156E2,1.2124982E3,3.36808E2,1.4967943E3,6.671483E2,5.1230396E2,2.4301904E2,4.321965E2,3.8025665E2,8.322416E2,2.0059758E2,1.3621043E2,8.5307117E2,6.4372314E2,1.4489781E2,5.222505E2,3.9312653E2,1.19177444E2,7.469498E1,1.6832407E2,2.706432E2,1.6155333E2,3.736083E2,6.648331E0,3.5209832E0,8.287206E2],"tree_param":{"num_deleted":"0","num_feature":"64","num_nodes":"31","size_leaf_vector":"1"}},{"base_weights":[-1.2340644E-2,6.931082E-1,-8.338789E-1,1.0258456E0,3.903542E-1,-2.0994805E-1,-1.1083874E0,1.123372E0,6.049911E-1,6.573732E-2,1.0076027E0,-5.7526183E-1,2.8987005E-1,-8.2969457E-1,-1.2693328E0,-1.917094E-2,1.14598624E-1,8.177503E-2,8.76059E-3,3.8755342E-2,-4.8923098E-2,1.1004551E-1,2.4149818E-3,6.897873E-2,-6.978057E-2,6.0340025E-2,-6.959173E-2,-1.08353674E-1,-4.3417733E-2,9.1850914E-2,-1.2813546E-1],"categories":[],"categories_nodes":[],"categories_segments":[],"categories_sizes":[],"default_left":[0,0,0,0,0,0,0,0,0,0,0,0,0,0,0,0,0,0,0,0,0,0,0,0,0,0,0,0,0,0,0],"id":6,"left_children":[1,3,5,7,9,11,13,15,17,19,21,23,25,27,29,-1,-1,-1,-1,-1,-1,-1,-1,-1,-1,-1,-1,-1,-1,-1,-1],"loss_changes":[2.7288699E3,2.5479639E2,3.723396E2,4.883081E1,2.6602765E2,1.21748604E2,6.66958E1,2.9309692E1,2.5148376E1,1.5581642E2,4.1762848E1,6.017077E1,8.7528885E1,5.5334564E1,2.6310791E1,0E0,0E0,0E0,0E0,0E0,0E0,0E0,0E0,0E0,0E0,0E0,0E0,0E0,0E0,0E0,0E0],"parents":[2147483647,0,0,1,1,2,2,3,3,4,4,5,5,6,6,7,7,8,8,9,9,10,10,11,11,12,12,13,13,14,14],"right_children":[2,4,6,8,10,12,14,16,18,20,22,24,26,28,30,-1,-1,-1,-1,-1,-1,-1,-1,-1,-1,-1,-1,-1,-1,-1,-1],"split_conditions":[-4.69111E-1,-8.430829E-1,-3.220017E-1,-1.5916753E-1,4.5891422E-1,3.001171E-1,3.9292213E-1,-1.3572602E0,-8.1248987E-1,-1.6042016E-1,6.445695E-1,-5.008291E-1,3.1490478E-1,-6.549936E-2,-6.1646587E-1,-1.917094E-2,1.14598624E-1,8.177503E-2,8.76059E-3,3.8755342E-2,-4.8923098E-2,1.1004551E-1,2.4149818E-3,6.897873E-2,-6.978057E-2,6.0340025E-2,-6.959173E-2,-1.08353674E-1,-4.3417733E-2,9.1850914E-2,-1.2813546E-1],"split_indices":[22,33,61,61,43,58,56,58,35,36,35,33,14,54,20,0,0,0,0,0,0,0,0,0,0,0,0,0,0,0,0],"split_type":[0,0,0,0,0,0,0,0,0,0,0,0,0,0,0,0,0,0,0,0,0,0,0,0,0,0,0,0,0,0,0],"sum_hessian":[4.706578E3,2.5322825E3,2.174296E3,1.2052649E3,1.3270175E3,6.6487195E2,1.509424E3,9.7715546E2,2.2810942E2,8.703819E2,4.5663562E2,3.8403348E2,2.808385E2,5.548324E2,9.5459155E2,1.6392748E1,9.607627E2,1.6122849E2,6.688094E1,5.511067E2,3.1927518E2,4.1713318E2,3.950245E1,3.3506725E1,3.5052673E2,2.1336542E2,6.7473076E1,3.368824E2,2.1795E2,4.8045936E0,9.49787E2],"tree_param":{"num_deleted":"0","num_feature":"64","num_nodes":"31","size_leaf_vector":"1"}},{"base_weights":[7.7583273E-3,5.7901186E-1,-9.32044E-1,8.531285E-1,1.02665246E-1,-5.141438E-1,-1.1840713E0,1.0471327E0,5.1441115E-1,-7.4173427E-1,2.9233643E-1,-8.8897187E-1,-6.671117E-2,-1.0260098E0,-1.2582691E0,-6.461683E-2,1.0673032E-1,-4.394063E-2,7.014159E-2,-1.03943326E-1,2.320136E-2,-3.4365684E-2,5.0030924E-2,-5.2277762E-2,-1.19673155E-1,-4.8371267E-2,2.6083723E-2,-1.0688477E-1,1.0864933E-3,-1.2703882E-1,-1.2186332E-2],"categories":[],"categories_nodes":[],"categories_segments":[],"categories_sizes":[],"default_left":[0,0,0,0,0,0,0,0,0,0,0,0,0,0,0,0,0,0,0,0,0,0,0,0,0,0,0,0,0,0,0],"id":7,"left_children":[1,3,5,7,9,11,13,15,17,19,21,23,25,27,29,-1,-1,-1,-1,-1,-1,-1,-1,-1,-1,-1,-1,-1,-1,-1,-1],"loss_changes":[2.4855562E3,3.7589825E2,1.8373438E2,1.19555664E2,1.688478E2,1.1066704E2,1.1504761E1,4.034485E1,1.1937302E2,5.630699E1,1.1398888E2,3.985382E1,4.138189E1,1.5733948E1,1.0010132E1,0E0,0E0,0E0,0E0,0E0,0E0,0E0,0E0,0E0,0E0,0E0,0E0,0E0,0E0,0E0,0E0],"parents":[2147483647,0,0,1,1,2,2,3,3,4,4,5,5,6,6,7,7,8,8,9,9,10,10,11,11,12,12,13,13,14,14],"right_children":[2,4,6,8,10,12,14,16,18,20,22,24,26,28,30,-1,-1,-1,-1,-1,-1,-1,-1,-1,-1,-1,-1,-1,-1,-1,-1],"split_conditions":[-2.716013E-1,-8.460773E-1,1.2871115E-1,-5.8052313E-1,-6.833198E-1,-2.7650853E-3,6.2970275E-1,-1.4515846E0,-6.1749077E-1,1.06607094E-1,-5.9945416E-1,1.8907456E-1,-3.2949936E-2,1.9789544E0,1.4232295E0,-6.461683E-2,1.0673032E-1,-4.394063E-2,7.014159E-2,-1.03943326E-1,2.320136E-2,-3.4365684E-2,5.0030924E-2,-5.2277762E-2,-1.19673155E-1,-4.8371267E-2,2.6083723E-2,-1.0688477E-1,1.0864933E-3,-1.2703882E-1,-1.2186332E-2],"split_indices":[26,26,56,2,29,25,56,58,29,9,58,22,51,58,25,0,0,0,0,0,0,0,0,0,0,0,0,0,0,0,0],"split_type":[0,0,0,0,0,0,0,0,0,0,0,0,0,0,0,0,0,0,0,0,0,0,0,0,0,0,0,0,0,0,0],"sum_hessian":[4.627751E3,2.8784722E3,1.749279E3,1.8265701E3,1.0519021E3,6.592239E2,1.0900552E3,1.1600479E3,6.6652216E2,1.9240797E2,8.5949414E2,3.581793E2,3.010446E2,3.5296707E2,7.370881E2,1.32904E1,1.1467574E3,1.09035736E2,5.5748645E2,1.4730554E2,4.5102436E1,2.116385E2,6.4785565E2,1.6479419E2,1.9338512E2,1.3222823E2,1.6881636E2,3.389334E2,1.4033664E1,7.2919385E2,7.8942246E0],"tree_param":{"num_deleted":"0","num_feature":"64","num_nodes":"31","size_leaf_vector":"1"}},{"base_weights":[-2.248122E-3,7.1103513E-1,-6.467065E-1,4.2030382E-1,9.584101E-1,-2.2897731E-1,-1.0438721E0,6.232017E-1,-8.958124E-2,9.9499106E-1,-1.4555939E-1,1.6735E-1,-6.305824E-1,-8.1339794E-1,-1.2122886E0,7.777458E-2,2.134785E-2,1.1485857E-2,-8.4310524E-2,-2.5094455E-2,1.0171498E-1,-2.018631E-1,2.5272733E-2,-1.3790657E-2,6.558188E-2,-1.05997734E-1,-3.5455972E-2,-8.907033E-2,3.299972E-2,-1.2247272E-1,-1.8275881E-2],"categories":[],"categories_nodes":[],"categories_segments":[],"categories_sizes":[],"default_left":[0,0,0,0,0,0,0,0,0,0,0,0,0,0,0,0,0,0,0,0,0,0,0,0,0,0,0,0,0,0,0],"id":8,"left_children":[1,3,5,7,9,11,13,15,17,19,21,23,25,27,29,-1,-1,-1,-1,-1,-1,-1,-1,-1,-1,-1,-1,-1,-1,-1,-1],"loss_changes":[2.0551223E3,1.5221533E2,3.894262E2,1.0116458E2,4.6414795E1,1.8250955E2,4.5736206E1,4.4110596E1,4.308851E1,3.087622E1,2.8575306E1,8.621178E1,6.711281E1,4.5483948E1,8.656311E0,0E0,0E0,0E0,0E0,0E0,0E0,0E0,0E0,0E0,0E0,0E0,0E0,0E0,0E0,0E0,0E0],"parents":[2147483647,0,0,1,1,2,2,3,3,4,4,5,5,6,6,7,7,8,8,9,9,10,10,11,11,12,12,13,13,14,14],"right_children":[2,4,6,8,10,12,14,16,18,20,22,24,26,28,30,-1,-1,-1,-1,-1,-1,-1,-1,-1,-1,-1,-1,-1,-1,-1,-1],"split_conditions":[-6.649271E-1,-1.8823321E-1,1.2871115E-1,-6.658813E-1,6.7316204E-1,-2.0149983E-1,3.2645652E-1,-1.6042016E-1,-3.1008717E-1,-8.56025E-1,5.7929654E-2,3.001171E-1,-6.5117854E-1,8.035386E-1,1.5788388E0,7.777458E-2,2.134785E-2,1.1485857E-2,-8.4310524E-2,-2.5094455E-2,1.0171498E-1,-2.018631E-1,2.5272733E-2,-1.3790657E-2,6.558188E-2,-1.05997734E-1,-3.5455972E-2,-8.907033E-2,3.299972E-2,-1.2247272E-1,-1.8275881E-2],"split_indices":[26,60,56,33,35,22,14,36,56,0,23,58,25,46,28,0,0,0,0,0,0,0,0,0,0,0,0,0,0,0,0],"split_type":[0,0,0,0,0,0,0,0,0,0,0,0,0,0,0,0,0,0,0,0,0,0,0,0,0,0,0,0,0,0,0],"sum_hessian":[4.468754E3,2.1210657E3,2.347688E3,9.763244E2,1.1447413E3,1.144991E3,1.2026971E3,6.9824884E2,2.7807553E2,1.1081216E3,3.661985E1,5.7657574E2,5.684152E2,5.1025464E2,6.9244244E2,5.0635718E2,1.918917E2,2.1939789E2,5.8677624E1,1.9182907E1,1.0889386E3,5.7079744E0,3.0911875E1,3.5527377E2,2.2130196E2,2.2130376E2,3.4711148E2,4.7814792E2,3.2106728E1,6.839891E2,8.453354E0],"tree_param":{"num_deleted":"0","num_feature":"64","num_nodes":"31","size_leaf_vector":"1"}},{"base_weights":[3.171129E-3,4.7396046E-1,-8.5811144E-1,7.057197E-1,8.626137E-3,-5.612183E-1,-1.1264799E0,-5.4870013E-2,8.159431E-1,-3.6670122E-1,3.7964156E-1,-8.1904787E-1,-1.746948E-1,3.229126E-1,-1.1403366E0,2.8605893E-2,-7.649292E-2,8.7833844E-2,1.1426839E-2,-6.625543E-2,1.0268367E-2,6.0624745E-2,-1.9636443E-3,-9.385639E-2,-3.0034939E-2,4.4276785E-2,-8.0452345E-2,2.2010677E-1,-1.1181501E-1,-1.15216374E-1,-4.2039294E-2],"categories":[],"categories_nodes":[],"categories_segments":[],"categories_sizes":[],"default_left":[0,0,0,0,0,0,0,0,0,0,0,0,0,0,0,0,0,0,0,0,0,0,0,0,0,0,0,0,0,0,0],"id":9,"left_children":[1,3,5,7,9,11,13,15,17,19,21,23,25,27,29,-1,-1,-1,-1,-1,-1,-1,-1,-1,-1,-1,-1,-1,-1,-1,-1],"loss_changes":[1.7545383E3,3.0171802E2,1.212168E2,1.566128E2,1.2980592E2,7.241249E1,1.6480408E1,5.767072E1,7.131799E1,6.442005E1,4.242501E1,2.6775482E1,1.14143814E2,2.5132275E1,6.2836914E0,0E0,0E0,0E0,0E0,0E0,0E0,0E0,0E0,0E0,0E0,0E0,0E0,0E0,0E0,0E0,0E0],"parents":[2147483647,0,0,1,1,2,2,3,3,4,4,5,5,6,6,7,7,8,8,9,9,10,10,11,11,12,12,13,13,14,14],"right_children":[2,4,6,8,10,12,14,16,18,20,22,24,26,28,30,-1,-1,-1,-1,-1,-1,-1,-1,-1,-1,-1,-1,-1,-1,-1,-1],"split_conditions":[-2.1126796E-1,-7.539494E-1,2.0462137E-1,-1.0730937E0,-3.6009234E-1,2.5893658E-1,-1.7965528E0,-1.6042016E-1,1.2802206E-1,6.2581587E-1,-3.3247328E-1,4.380145E-1,3.3091864E-1,6.35622E-1,1.4232295E0,2.8605893E-2,-7.649292E-2,8.7833844E-2,1.1426839E-2,-6.625543E-2,1.0268367E-2,6.0624745E-2,-1.9636443E-3,-9.385639E-2,-3.0034939E-2,4.4276785E-2,-8.0452345E-2,2.2010677E-1,-1.1181501E-1,-1.15216374E-1,-4.2039294E-2],"split_indices":[26,26,61,58,6,6,56,36,61,59,56,25,26,33,25,0,0,0,0,0,0,0,0,0,0,0,0,0,0,0,0],"split_type":[0,0,0,0,0,0,0,0,0,0,0,0,0,0,0,0,0,0,0,0,0,0,0,0,0,0,0,0,0,0,0],"sum_hessian":[4.3250337E3,2.7967437E3,1.5282903E3,1.8665793E3,9.3016425E2,7.270517E2,8.012385E2,2.363264E2,1.630253E3,4.6240094E2,4.677633E2,4.354601E2,2.9159158E2,7.3764358E0,7.938621E2,1.6006815E2,7.625825E1,1.4968925E3,1.3336058E2,2.83377E2,1.7902393E2,2.980755E2,1.6968782E2,3.5325525E2,8.220487E1,1.4739122E2,1.4420036E2,2.9735625E0,4.402873E0,7.8044086E2,1.3421238E1],"tree_param":{"num_deleted":"0","num_feature":"64","num_nodes":"31","size_leaf_vector":"1"}},{"base_weights":[-4.40667E-3,5.874132E-1,-6.1188596E-1,3.6923212E-1,9.402734E-1,-1.7816684E-1,-9.4722384E-1,8.258591E-1,1.3648522E-1,9.646154E-1,-5.817563E-1,-6.838488E-1,7.375379E-2,-7.416679E-1,-1.1361252E0,-2.6957264E-2,8.879816E-2,2.4424275E-2,-7.528754E-2,8.4818386E-2,1.1584125E-1,7.609736E-2,-1.6007227E-1,-8.798502E-2,1.4849528E-2,4.9417254E-2,-3.138889E-2,-8.7674804E-2,2.1401273E-2,-1.1487692E-1,-8.736391E-3],"categories":[],"categories_nodes":[],"categories_segments":[],"categories_sizes":[],"default_left":[0,0,0,0,0,0,0,0,0,0,0,0,0,0,0,0,0,0,0,0,0,0,0,0,0,0,0,0,0,0,0],"id":10,"left_children":[1,3,5,7,9,11,13,15,17,19,21,23,25,27,29,-1,-1,-1,-1,-1,-1,-1,-1,-1,-1,-1,-1,-1,-1,-1,-1],"loss_changes":[1.4978641E3,1.6212384E2,2.988537E2,1.3865384E2,3.0410645E1,1.1441043E2,4.4170776E1,3.0224548E1,8.318286E1,1.6918945E1,1.942353E1,4.88452E1,9.7954544E1,7.222577E1,7.885254E0,0E0,0E0,0E0,0E0,0E0,0E0,0E0,0E0,0E0,0E0,0E0,0E0,0E0,0E0,0E0,0E0],"parents":[2147483647,0,0,1,1,2,2,3,3,4,4,5,5,6,6,7,7,8,8,9,9,10,10,11,11,12,12,13,13,14,14],"right_children":[2,4,6,8,10,12,14,16,18,20,22,24,26,28,30,-1,-1,-1,-1,-1,-1,-1,-1,-1,-1,-1,-1,-1,-1,-1,-1],"split_conditions":[-5.830087E-1,3.2291543E-1,-9.103573E-2,-9.793566E-1,1.8136615E0,-1.1088474E-1,3.140328E-1,-1.4877142E0,4.4605005E-1,1.6182292E0,-8.831368E-1,3.7842098E-1,2.3597875E-1,8.095449E-1,2.7317324E0,-2.6957264E-2,8.879816E-2,2.4424275E-2,-7.528754E-2,8.4818386E-2,1.1584125E-1,7.609736E-2,-1.6007227E-1,-8.798502E-2,1.4849528E-2,4.9417254E-2,-3.138889E-2,-8.7674804E-2,2.1401273E-2,-1.1487692E-1,-8.736391E-3],"split_indices":[26,23,61,33,2,28,22,11,36,23,1,25,2,6,23,0,0,0,0,0,0,0,0,0,0,0,0,0,0,0,0],"split_type":[0,0,0,0,0,0,0,0,0,0,0,0,0,0,0,0,0,0,0,0,0,0,0,0,0,0,0,0,0,0,0],"sum_hessian":[4.1643086E3,2.109358E3,2.0549504E3,1.3046877E3,8.0467017E2,8.9670355E2,1.1582468E3,4.3962924E2,8.6505853E2,7.92364E2,1.2306145E1,2.9760483E2,5.9909875E2,5.5703125E2,6.0121564E2,2.3414349E1,4.162149E2,7.7221954E2,9.2839E1,4.9834137E2,2.9402267E2,5.418792E0,6.887353E0,2.4083553E2,5.67693E1,2.8726743E2,3.1183133E2,4.8812073E2,6.8910515E1,5.939595E2,7.2561646E0],"tree_param":{"num_deleted":"0","num_feature":"64","num_nodes":"31","size_leaf_vector":"1"}},{"base_weights":[-3.7311274E-3,4.1778058E-1,-7.5558066E-1,6.17327E-1,-4.2673923E-2,-4.0786046E-1,-1.0002477E0,8.239459E-1,2.9800373E-1,4.5492882E-1,-4.2118606E-1,-1.9378564E-1,-9.0827656E-1,-4.087758E-1,-1.0400558E0,9.542904E-2,5.388412E-2,-1.4559577E-2,5.562855E-2,5.7753768E-2,-2.5041232E-2,-8.979725E-2,-1.4857604E-2,-4.245593E-2,3.4295063E-2,-1.13394655E-1,-3.9267402E-2,-1.1577592E-1,3.36308E-2,4.7924284E-2,-1.0534521E-1],"categories":[],"categories_nodes":[],"categories_segments":[],"categories_sizes":[],"default_left":[0,0,0,0,0,0,0,0,0,0,0,0,0,0,0,0,0,0,0,0,0,0,0,0,0,0,0,0,0,0,0],"id":11,"left_children":[1,3,5,7,9,11,13,15,17,19,21,23,25,27,29,-1,-1,-1,-1,-1,-1,-1,-1,-1,-1,-1,-1,-1,-1,-1,-1],"loss_changes":[1.2812953E3,2.3806061E2,1.2315588E2,1.19006836E2,1.4789453E2,6.426666E1,1.9631714E1,4.0245667E1,8.161534E1,2.94861E1,5.7825462E1,5.2489586E1,2.0494904E1,3.1285503E1,1.6736023E1,0E0,0E0,0E0,0E0,0E0,0E0,0E0,0E0,0E0,0E0,0E0,0E0,0E0,0E0,0E0,0E0],"parents":[2147483647,0,0,1,1,2,2,3,3,4,4,5,5,6,6,7,7,8,8,9,9,10,10,11,11,12,12,13,13,14,14],"right_children":[2,4,6,8,10,12,14,16,18,20,22,24,26,28,30,-1,-1,-1,-1,-1,-1,-1,-1,-1,-1,-1,-1,-1,-1,-1,-1],"split_conditions":[-2.555311E-1,-1.9991511E-1,5.7726286E-2,-3.8240212E-1,-7.665834E-1,5.006799E-1,-4.4566184E-1,-3.9187562E-1,-2.50167E-1,2.706996E-1,-4.8812217E-1,6.285314E-1,1.5555366E0,7.3707156E-2,-4.388555E-1,9.542904E-2,5.388412E-2,-1.4559577E-2,5.562855E-2,5.7753768E-2,-2.5041232E-2,-8.979725E-2,-1.4857604E-2,-4.245593E-2,3.4295063E-2,-1.13394655E-1,-3.9267402E-2,-1.1577592E-1,3.36308E-2,4.7924284E-2,-1.0534521E-1],"split_indices":[22,56,56,2,33,22,20,1,43,36,9,18,7,18,33,0,0,0,0,0,0,0,0,0,0,0,0,0,0,0,0],"split_type":[0,0,0,0,0,0,0,0,0,0,0,0,0,0,0,0,0,0,0,0,0,0,0,0,0,0,0,0,0,0,0],"sum_hessian":[4.0410498E3,2.5896504E3,1.4513993E3,1.806451E3,7.831994E2,6.0055676E2,8.508426E2,1.0958186E3,7.106325E2,3.382822E2,4.449172E2,4.215904E2,1.789664E2,5.436393E1,7.9647864E2,7.504018E2,3.4541672E2,2.6166263E2,4.4896988E2,2.8834128E2,4.994092E1,1.6101427E2,2.8390295E2,2.9497342E2,1.2661695E2,1.2364843E2,5.5317974E1,2.6834808E1,2.7529121E1,6.6576133E0,7.8982104E2],"tree_param":{"num_deleted":"0","num_feature":"64","num_nodes":"31","size_leaf_vector":"1"}},{"base_weights":[8.864602E-3,4.092835E-1,-6.531379E-1,2.6804592E-2,6.790407E-1,-2.3087792E-1,-9.285753E-1,3.6284673E-1,-3.4714076E-1,7.6349974E-1,7.065331E-2,6.0136568E-2,-5.801786E-1,-9.4816995E-1,6.042908E-1,6.1435003E-2,-1.1673053E-2,-1.0246064E-2,-7.424908E-2,8.340161E-2,2.01956E-2,-2.1730257E-2,6.250456E-2,-2.0158166E-2,5.4777216E-2,-7.007765E-2,5.906806E-2,-7.8871645E-2,-1.10588565E-1,-6.701623E-2,1.1521634E-1],"categories":[],"categories_nodes":[],"categories_segments":[],"categories_sizes":[],"default_left":[0,0,0,0,0,0,0,0,0,0,0,0,0,0,0,0,0,0,0,0,0,0,0,0,0,0,0,0,0,0,0],"id":12,"left_children":[1,3,5,7,9,11,13,15,17,19,21,23,25,27,29,-1,-1,-1,-1,-1,-1,-1,-1,-1,-1,-1,-1,-1,-1,-1,-1],"loss_changes":[1.0508623E3,2.5484824E2,1.7356317E2,1.2863818E2,7.437616E1,6.0130043E1,2.772406E1,6.50991E1,4.6797092E1,5.0193665E1,2.8500414E1,4.1384647E1,3.8366608E1,2.1583374E1,9.165054E0,0E0,0E0,0E0,0E0,0E0,0E0,0E0,0E0,0E0,0E0,0E0,0E0,0E0,0E0,0E0,0E0],"parents":[2147483647,0,0,1,1,2,2,3,3,4,4,5,5,6,6,7,7,8,8,9,9,10,10,11,11,12,12,13,13,14,14],"right_children":[2,4,6,8,10,12,14,16,18,20,22,24,26,28,30,-1,-1,-1,-1,-1,-1,-1,-1,-1,-1,-1,-1,-1,-1,-1,-1],"split_conditions":[-3.4401056E-1,-4.4354644E-1,-9.103573E-2,-6.658813E-1,8.1852056E-2,-6.934669E-2,2.2003026E0,-2.3341693E-1,-1.6626101E-2,5.604827E-1,-3.9814804E-2,2.5893658E-1,1.7346593E0,6.169775E-1,-6.647812E-1,6.1435003E-2,-1.1673053E-2,-1.0246064E-2,-7.424908E-2,8.340161E-2,2.01956E-2,-2.1730257E-2,6.250456E-2,-2.0158166E-2,5.4777216E-2,-7.007765E-2,5.906806E-2,-7.8871645E-2,-1.10588565E-1,-6.701623E-2,1.1521634E-1],"split_indices":[14,58,61,33,61,33,34,36,36,2,37,6,6,14,30,0,0,0,0,0,0,0,0,0,0,0,0,0,0,0,0],"split_type":[0,0,0,0,0,0,0,0,0,0,0,0,0,0,0,0,0,0,0,0,0,0,0,0,0,0,0,0,0,0,0],"sum_hessian":[3.962338E3,2.4691995E3,1.4931384E3,1.0216866E3,1.4475128E3,5.9018774E2,9.029506E2,5.381307E2,4.835559E2,1.270835E3,1.7667789E2,3.224071E2,2.6778067E2,8.919305E2,1.102014E1,3.5282086E2,1.8530984E2,2.994728E2,1.8408308E2,1.1286221E3,1.4221292E2,1.1668091E2,5.999698E1,2.1018541E2,1.122217E2,2.4313896E2,2.4641693E1,4.4650565E2,4.4542487E2,3.2460406E0,7.774099E0],"tree_param":{"num_deleted":"0","num_feature":"64","num_nodes":"31","size_leaf_vector":"1"}},{"base_weights":[3.927296E-3,3.7606186E-1,-6.861111E-1,8.0003816E-1,1.9050021E-1,-1.7317827E-1,-8.794022E-1,-8.377728E-1,8.396623E-1,-7.560745E-2,5.120095E-1,-5.1710635E-1,3.7759912E-1,-1.0053405E0,-6.0441333E-1,-1.4371204E-1,6.2158532E-2,5.2908756E-2,9.723776E-2,1.3807142E-2,-4.7329932E-2,-1.4453158E-2,6.0055085E-2,-8.858358E-2,-1.02917645E-2,5.6773257E-2,-6.0811903E-2,-1.01997495E-1,1.2373562E-1,-8.192475E-2,-2.576079E-3],"categories":[],"categories_nodes":[],"categories_segments":[],"categories_sizes":[],"default_left":[0,0,0,0,0,0,0,0,0,0,0,0,0,0,0,0,0,0,0,0,0,0,0,0,0,0,0,0,0,0,0],"id":13,"left_children":[1,3,5,7,9,11,13,15,17,19,21,23,25,27,29,-1,-1,-1,-1,-1,-1,-1,-1,-1,-1,-1,-1,-1,-1,-1,-1],"loss_changes":[9.93043E2,1.9749973E2,1.3417761E2,5.0317596E1,1.4965865E2,7.067583E1,3.3463196E1,1.7126743E1,3.0273193E1,8.1449776E1,4.6131516E1,3.4953934E1,2.7259104E1,2.3359253E1,3.8707603E1,0E0,0E0,0E0,0E0,0E0,0E0,0E0,0E0,0E0,0E0,0E0,0E0,0E0,0E0,0E0,0E0],"parents":[2147483647,0,0,1,1,2,2,3,3,4,4,5,5,6,6,7,7,8,8,9,9,10,10,11,11,12,12,13,13,14,14],"right_children":[2,4,6,8,10,12,14,16,18,20,22,24,26,28,30,-1,-1,-1,-1,-1,-1,-1,-1,-1,-1,-1,-1,-1,-1,-1,-1],"split_conditions":[-2.6065707E-1,-1.1808987E0,-2.6488516E-1,-1.4811308E0,2.0311797E-2,-8.29764E-2,1.2288711E-2,9.4962966E-1,-4.3649295E-1,-2.0108359E-1,-4.820463E-1,9.0948405E-4,6.021898E-1,3.4270573E0,2.9474574E-1,-1.4371204E-1,6.2158532E-2,5.2908756E-2,9.723776E-2,1.3807142E-2,-4.7329932E-2,-1.4453158E-2,6.0055085E-2,-8.858358E-2,-1.02917645E-2,5.6773257E-2,-6.0811903E-2,-1.01997495E-1,1.2373562E-1,-8.192475E-2,-2.576079E-3],"split_indices":[26,26,56,58,38,16,28,28,13,61,58,54,26,38,54,0,0,0,0,0,0,0,0,0,0,0,0,0,0,0,0],"split_type":[0,0,0,0,0,0,0,0,0,0,0,0,0,0,0,0,0,0,0,0,0,0,0,0,0,0,0,0,0,0,0],"sum_hessian":[3.865179E3,2.5113008E3,1.3538782E3,7.6350726E2,1.7477935E3,3.7107086E2,9.828073E2,1.755966E1,7.459476E2,9.567078E2,7.910857E2,2.2846748E2,1.4260336E2,6.722687E2,3.105386E2,1.2458346E1,5.1013136E0,2.2481992E2,5.211277E2,6.2275555E2,3.3395224E2,9.393292E1,6.971528E2,1.2026416E2,1.0820332E2,1.19900085E2,2.2703281E1,6.6845197E2,3.816727E0,2.26158E2,8.438061E1],"tree_param":{"num_deleted":"0","num_feature":"64","num_nodes":"31","size_leaf_vector":"1"}},{"base_weights":[5.187278E-3,3.215644E-1,-6.571829E-1,5.530186E-1,-3.618217E-2,-9.146399E-1,-3.6726627E-1,6.868027E-1,1.5698178E-1,3.8740236E-1,-3.8489962E-1,-9.722445E-1,-5.1208097E-1,-6.152697E-1,1.3198465E-1,8.168014E-2,3.2597985E-2,-4.811448E-2,3.319591E-2,-2.7628252E-2,4.7396358E-2,-5.2939493E-2,2.7009536E-2,-9.8211214E-2,5.8147985E-2,-7.707025E-2,7.0189595E-2,-4.401901E-2,-1.0898423E-1,3.611365E-2,-8.902277E-2],"categories":[],"categories_nodes":[],"categories_segments":[],"categories_sizes":[],"default_left":[0,0,0,0,0,0,0,0,0,0,0,0,0,0,0,0,0,0,0,0,0,0,0,0,0,0,0,0,0,0,0],"id":14,"left_children":[1,3,5,7,9,11,13,15,17,19,21,23,25,27,29,-1,-1,-1,-1,-1,-1,-1,-1,-1,-1,-1,-1,-1,-1,-1,-1],"loss_changes":[7.80804E2,2.088078E2,8.956201E1,8.1013306E1,1.465998E2,1.4279236E1,7.042866E1,5.3402527E1,4.3472054E1,2.5878304E1,5.1656685E1,9.100891E0,2.624946E1,3.107483E1,4.4684166E1,0E0,0E0,0E0,0E0,0E0,0E0,0E0,0E0,0E0,0E0,0E0,0E0,0E0,0E0,0E0,0E0],"parents":[2147483647,0,0,1,1,2,2,3,3,4,4,5,5,6,6,7,7,8,8,9,9,10,10,11,11,12,12,13,13,14,14],"right_children":[2,4,6,8,10,12,14,16,18,20,22,24,26,28,30,-1,-1,-1,-1,-1,-1,-1,-1,-1,-1,-1,-1,-1,-1,-1,-1],"split_conditions":[-2.0149983E-1,-3.553684E-1,-1.19614415E-1,8.194755E-2,-7.5812095E-1,9.3749267E-1,2.4365947E-1,-4.6657944E-1,-2.2267614E-1,-1.1577373E0,3.8038853E-1,3.190842E0,-1.074692E-1,7.14324E-1,8.2109004E-1,8.168014E-2,3.2597985E-2,-4.811448E-2,3.319591E-2,-2.7628252E-2,4.7396358E-2,-5.2939493E-2,2.7009536E-2,-9.8211214E-2,5.8147985E-2,-7.707025E-2,7.0189595E-2,-4.401901E-2,-1.0898423E-1,3.611365E-2,-8.902277E-2],"split_indices":[22,56,28,2,33,38,54,61,54,46,7,37,53,49,3,0,0,0,0,0,0,0,0,0,0,0,0,0,0,0,0],"split_type":[0,0,0,0,0,0,0,0,0,0,0,0,0,0,0,0,0,0,0,0,0,0,0,0,0,0,0,0,0,0,0],"sum_hessian":[3.7239346E3,2.5205322E3,1.2034026E3,1.5300665E3,9.904656E2,6.3624115E2,5.671614E2,1.1431637E3,3.8690283E2,4.4717477E2,5.4329083E2,5.553566E2,8.0884514E1,3.7877304E2,1.8838834E2,8.3945685E2,3.0370682E2,8.28837E1,3.0401913E2,5.1340843E1,3.9583392E2,4.4525665E2,9.8034195E1,5.5221747E2,3.1392117E0,6.6980385E1,1.3904131E1,2.7810275E2,1.00670296E2,1.5441864E2,3.3969692E1],"tree_param":{"num_deleted":"0","num_feature":"64","num_nodes":"31","size_leaf_vector":"1"}},{"base_weights":[1.02236625E-2,4.862592E-1,-3.729697E-1,6.3042915E-1,1.0804192E-1,-1.4847493E-1,-8.818711E-1,3.2909608E-1,7.585315E-1,2.595969E-1,-7.088866E-1,-4.328992E-1,8.284563E-2,-2.1735813E-1,-9.200297E-1,6.493684E-2,5.984945E-3,7.86104E-2,-5.6162078E-2,4.515461E-2,-2.6109267E-2,7.954729E-3,-1.1322682E-1,-5.32072E-2,6.185366E-2,-3.5734646E-2,3.2039043E-2,-1.04193605E-1,4.2912107E-2,-7.5457565E-2,-1.0459491E-1],"categories":[],"categories_nodes":[],"categories_segments":[],"categories_sizes":[],"default_left":[0,0,0,0,0,0,0,0,0,0,0,0,0,0,0,0,0,0,0,0,0,0,0,0,0,0,0,0,0,0,0],"id":15,"left_children":[1,3,5,7,9,11,13,15,17,19,21,23,25,27,29,-1,-1,-1,-1,-1,-1,-1,-1,-1,-1,-1,-1,-1,-1,-1,-1],"loss_changes":[6.625248E2,8.825363E1,2.2975815E2,4.501172E1,5.5679646E1,9.1980896E1,1.5413483E1,3.0274918E1,3.0361877E1,3.79797E1,2.359377E1,6.570439E1,8.078961E1,1.897008E1,1.1336121E1,0E0,0E0,0E0,0E0,0E0,0E0,0E0,0E0,0E0,0E0,0E0,0E0,0E0,0E0,0E0,0E0],"parents":[2147483647,0,0,1,1,2,2,3,3,4,4,5,5,6,6,7,7,8,8,9,9,10,10,11,11,12,12,13,13,14,14],"right_children":[2,4,6,8,10,12,14,16,18,20,22,24,26,28,30,-1,-1,-1,-1,-1,-1,-1,-1,-1,-1,-1,-1,-1,-1,-1,-1],"split_conditions":[-7.3217034E-1,-1.6651891E-1,4.4789806E-1,-5.246856E-1,-2.1117221E-1,-2.4700323E-1,-6.4913976E-1,-9.9704486E-1,9.966602E-1,-3.729264E-1,-8.902096E-1,1.9826213E0,-1.4349718E-2,-7.7645E-1,9.731392E-2,6.493684E-2,5.984945E-3,7.86104E-2,-5.6162078E-2,4.515461E-2,-2.6109267E-2,7.954729E-3,-1.1322682E-1,-5.32072E-2,6.185366E-2,-3.5734646E-2,3.2039043E-2,-1.04193605E-1,4.2912107E-2,-7.5457565E-2,-1.0459491E-1],"split_indices":[26,2,56,29,56,16,33,33,3,32,33,43,28,37,42,0,0,0,0,0,0,0,0,0,0,0,0,0,0,0,0],"split_type":[0,0,0,0,0,0,0,0,0,0,0,0,0,0,0,0,0,0,0,0,0,0,0,0,0,0,0,0,0,0,0],"sum_hessian":[3.6299968E3,1.6187626E3,2.0112343E3,1.1715289E3,4.4723364E2,1.3964858E3,6.147484E2,3.5053656E2,8.209924E2,3.778229E2,6.941074E1,6.2595746E2,7.705284E2,3.374755E1,5.8100085E2,1.5945319E2,1.9108337E2,8.0459235E2,1.6400017E1,2.7615338E2,1.01669525E2,2.4534319E1,4.4876427E1,5.7245654E2,5.350092E1,2.6989117E2,5.0063724E2,1.4562069E1,1.9185484E1,2.541061E2,3.2689474E2],"tree_param":{"num_deleted":"0","num_feature":"64","num_nodes":"31","size_leaf_vector":"1"}},{"base_weights":[2.9334053E-3,4.4195184E-1,-3.920521E-1,1.8008237E-1,6.747845E-1,-1.8077154E-1,-8.880821E-1,4.1586927E-1,-2.482162E-1,7.430446E-1,4.8259974E-2,-5.2288946E-2,-7.702353E-1,-9.417707E-1,-4.976312E-1,-4.671881E-2,4.906417E-2,3.1343404E-2,-5.4746963E-2,8.016665E-2,2.3344286E-2,3.6210954E-2,-1.2621334E-1,-6.0811337E-2,5.822505E-3,-9.2089765E-2,-2.5547111E-2,-7.15364E-2,-1.0503644E-1,-5.794039E-2,2.1202026E-1],"categories":[],"categories_nodes":[],"categories_segments":[],"categories_sizes":[],"default_left":[0,0,0,0,0,0,0,0,0,0,0,0,0,0,0,0,0,0,0,0,0,0,0,0,0,0,0,0,0,0,0],"id":16,"left_children":[1,3,5,7,9,11,13,15,17,19,21,23,25,27,29,-1,-1,-1,-1,-1,-1,-1,-1,-1,-1,-1,-1,-1,-1,-1,-1],"loss_changes":[6.091542E2,1.0131732E2,1.936362E2,7.9316475E1,3.7612152E1,9.826988E1,1.1105103E1,3.365683E1,4.7086166E1,2.352539E1,3.6466297E1,6.5567474E1,1.7775253E1,1.1154572E1,1.5969347E1,0E0,0E0,0E0,0E0,0E0,0E0,0E0,0E0,0E0,0E0,0E0,0E0,0E0,0E0,0E0,0E0],"parents":[2147483647,0,0,1,1,2,2,3,3,4,4,5,5,6,6,7,7,8,8,9,9,10,10,11,11,12,12,13,13,14,14],"right_children":[2,4,6,8,10,12,14,16,18,20,22,24,26,28,30,-1,-1,-1,-1,-1,-1,-1,-1,-1,-1,-1,-1,-1,-1,-1,-1],"split_conditions":[-6.8673176E-1,-1.7463188E-1,4.6948949E-1,2.7294007E-1,3.8394678E-1,4.2068437E-1,6.113242E-1,-1.3623092E0,-1.2365133E0,4.209601E-2,-1.073509E-1,-7.232313E-1,8.3562297E-1,1.207608E-1,2.7616532E0,-4.671881E-2,4.906417E-2,3.1343404E-2,-5.4746963E-2,8.016665E-2,2.3344286E-2,3.6210954E-2,-1.2621334E-1,-6.0811337E-2,5.822505E-3,-9.2089765E-2,-2.5547111E-2,-7.15364E-2,-1.0503644E-1,-5.794039E-2,2.1202026E-1],"split_indices":[26,43,56,19,35,22,25,9,26,61,41,43,44,27,50,0,0,0,0,0,0,0,0,0,0,0,0,0,0,0,0],"split_type":[0,0,0,0,0,0,0,0,0,0,0,0,0,0,0,0,0,0,0,0,0,0,0,0,0,0,0,0,0,0,0],"sum_hessian":[3.5108809E3,1.662702E3,1.8481787E3,7.8338904E2,8.79313E2,1.2970667E3,5.511121E2,5.0526154E2,2.7812753E2,7.927559E2,8.655704E1,1.0658394E3,2.312272E2,4.8325116E2,6.7861E1,3.903326E1,4.6622827E2,9.666172E1,1.814658E2,7.104557E2,8.230021E1,7.04156E1,1.6141432E1,1.7602554E2,8.8981384E2,1.7826366E2,5.2963547E1,1.5911018E2,3.2414096E2,6.656053E1,1.3004664E0],"tree_param":{"num_deleted":"0","num_feature":"64","num_nodes":"31","size_leaf_vector":"1"}},{"base_weights":[1.2436639E-2,2.6101965E-1,-5.9091496E-1,6.542342E-1,1.11511506E-1,-2.809863E-1,-8.466497E-1,2.5793794E-1,8.2486904E-1,-1.8532354E-2,6.022253E-1,-6.224798E-1,7.079583E-2,-9.45203E-1,-5.6220293E-1,3.7049755E-2,-1.1656423E-1,9.701579E-2,5.8281172E-2,9.50204E-3,-4.775942E-2,6.3390724E-2,-1.7075376E-1,-1.0667347E-1,-3.0867977E-2,1.9265108E-2,-9.050705E-2,-1.792728E-2,-9.8443195E-2,-7.980075E-2,-3.3142422E-3],"categories":[],"categories_nodes":[],"categories_segments":[],"categories_sizes":[],"default_left":[0,0,0,0,0,0,0,0,0,0,0,0,0,0,0,0,0,0,0,0,0,0,0,0,0,0,0,0,0,0,0],"id":17,"left_children":[1,3,5,7,9,11,13,15,17,19,21,23,25,27,29,-1,-1,-1,-1,-1,-1,-1,-1,-1,-1,-1,-1,-1,-1,-1,-1],"loss_changes":[5.152021E2,1.4294417E2,7.920502E1,4.5091125E1,1.12565E2,5.4660545E1,1.484964E1,3.2975945E1,1.5888336E1,7.277635E1,2.8123505E1,3.1845291E1,2.6911587E1,1.2023132E1,1.789486E1,0E0,0E0,0E0,0E0,0E0,0E0,0E0,0E0,0E0,0E0,0E0,0E0,0E0,0E0,0E0,0E0],"parents":[2147483647,0,0,1,1,2,2,3,3,4,4,5,5,6,6,7,7,8,8,9,9,10,10,11,11,12,12,13,13,14,14],"right_children":[2,4,6,8,10,12,14,16,18,20,22,24,26,28,30,-1,-1,-1,-1,-1,-1,-1,-1,-1,-1,-1,-1,-1,-1,-1,-1],"split_conditions":[-1.3222028E-1,-1.1808987E0,1.4880982E-1,-1.2673036E0,7.980792E-1,-2.7650853E-3,-7.697444E-2,-7.1953446E-2,2.6505286E-1,8.1852056E-2,2.2206259E0,-6.7407197E-1,1.4656096E0,-1.3706921E0,-3.547488E-1,3.7049755E-2,-1.1656423E-1,9.701579E-2,5.8281172E-2,9.50204E-3,-4.775942E-2,6.3390724E-2,-1.7075376E-1,-1.0667347E-1,-3.0867977E-2,1.9265108E-2,-9.050705E-2,-1.792728E-2,-9.8443195E-2,-7.980075E-2,-3.3142422E-3],"split_indices":[26,26,56,27,43,25,53,49,63,61,35,59,35,59,60,0,0,0,0,0,0,0,0,0,0,0,0,0,0,0,0],"split_type":[0,0,0,0,0,0,0,0,0,0,0,0,0,0,0,0,0,0,0,0,0,0,0,0,0,0,0,0,0,0,0],"sum_hessian":[3.4330425E3,2.431729E3,1.0013136E3,6.6895776E2,1.7627712E3,4.536398E2,5.4767377E2,2.0209883E2,4.6685892E2,1.3942451E3,3.685261E2,2.297956E2,2.2384421E2,4.0502164E2,1.4265216E2,1.8797571E2,1.4123119E1,2.898661E2,1.7699283E2,1.118394E3,2.7585104E2,3.6425534E2,4.2707667E0,9.4131615E1,1.3566397E2,1.9970934E2,2.4134878E1,2.0004827E1,3.8501678E2,9.83215E1,4.433066E1],"tree_param":{"num_deleted":"0","num_feature":"64","num_nodes":"31","size_leaf_vector":"1"}},{"base_weights":[1.136691E-2,2.2027346E-1,-6.255253E-1,6.4025444E-1,8.077279E-2,-3.4670204E-1,-8.7577146E-1,2.8974822E-1,8.331334E-1,-7.192428E-2,5.2753043E-1,-8.960125E-1,-1.6907278E-1,-6.120383E-1,-9.9810094E-1,5.9619196E-2,-1.985742E-2,8.616073E-2,-8.546044E-2,-5.968268E-2,4.660831E-3,6.64547E-2,-9.352687E-4,-9.4899274E-2,9.91721E-2,1.6884817E-2,-4.6592403E-2,1.0388581E-1,-7.058106E-2,3.6972187E-2,-1.0184493E-1],"categories":[],"categories_nodes":[],"categories_segments":[],"categories_sizes":[],"default_left":[0,0,0,0,0,0,0,0,0,0,0,0,0,0,0,0,0,0,0,0,0,0,0,0,0,0,0,0,0,0,0],"id":18,"left_children":[1,3,5,7,9,11,13,15,17,19,21,23,25,27,29,-1,-1,-1,-1,-1,-1,-1,-1,-1,-1,-1,-1,-1,-1,-1,-1],"loss_changes":[4.508219E2,1.4942896E2,5.809073E1,4.2756927E1,1.3077087E2,3.8634407E1,1.3597382E1,3.4131386E1,2.042633E1,8.89442E1,3.592453E1,1.0632187E1,3.0333408E1,2.27364E1,8.705994E0,0E0,0E0,0E0,0E0,0E0,0E0,0E0,0E0,0E0,0E0,0E0,0E0,0E0,0E0,0E0,0E0],"parents":[2147483647,0,0,1,1,2,2,3,3,4,4,5,5,6,6,7,7,8,8,9,9,10,10,11,11,12,12,13,13,14,14],"right_children":[2,4,6,8,10,12,14,16,18,20,22,24,26,28,30,-1,-1,-1,-1,-1,-1,-1,-1,-1,-1,-1,-1,-1,-1,-1,-1],"split_conditions":[-1.8814595E-2,-1.1808987E0,1.4880982E-1,-4.3649295E-1,5.170347E-1,-1.2337868E0,1.5746768E-1,-7.0531666E-1,6.630504E-1,-9.9625754E-1,2.8665143E-1,1.4142941E0,-5.583092E-1,-1.111364E0,-1.0981395E0,5.9619196E-2,-1.985742E-2,8.616073E-2,-8.546044E-2,-5.968268E-2,4.660831E-3,6.64547E-2,-9.352687E-4,-9.4899274E-2,9.91721E-2,1.6884817E-2,-4.6592403E-2,1.0388581E-1,-7.058106E-2,3.6972187E-2,-1.0184493E-1],"split_indices":[22,26,56,13,43,25,57,32,61,9,2,47,56,23,12,0,0,0,0,0,0,0,0,0,0,0,0,0,0,0,0],"split_type":[0,0,0,0,0,0,0,0,0,0,0,0,0,0,0,0,0,0,0,0,0,0,0,0,0,0,0,0,0,0,0],"sum_hessian":[3.3863047E3,2.550403E3,8.359017E2,6.3502026E2,1.9153827E3,3.9650397E2,4.393977E2,2.2629375E2,4.087265E2,1.4281091E3,4.8727362E2,9.589835E1,3.006056E2,1.4113168E2,2.9826602E2,1.3890431E2,8.738944E1,4.0242664E2,6.299858E0,2.6234064E2,1.1657684E3,3.8801227E2,9.926137E1,9.37641E1,2.1342545E0,1.4077988E2,1.5982571E2,7.043835E0,1.3408786E2,4.120423E0,2.941456E2],"tree_param":{"num_deleted":"0","num_feature":"64","num_nodes":"31","size_leaf_vector":"1"}},{"base_weights":[9.0441364E-4,2.2398232E-1,-5.2527755E-1,3.607003E-1,-1.4875518E-1,-7.9316336E-1,-2.376732E-1,5.738872E-1,1.0678433E-1,-5.429721E-1,8.253478E-2,-8.482977E-1,5.0622813E-2,-7.683139E-2,-9.7731125E-1,8.184287E-3,6.376584E-2,-2.073712E-2,2.933366E-2,4.5229024E-3,-7.990773E-2,-7.456657E-2,2.553159E-2,1.754253E-1,-8.594673E-2,-8.976706E-2,6.6663496E-2,-2.6158793E-2,7.044902E-2,4.0479373E-2,-1.06133915E-1],"categories":[],"categories_nodes":[],"categories_segments":[],"categories_sizes":[],"default_left":[0,0,0,0,0,0,0,0,0,0,0,0,0,0,0,0,0,0,0,0,0,0,0,0,0,0,0,0,0,0,0],"id":19,"left_children":[1,3,5,7,9,11,13,15,17,19,21,23,25,27,29,-1,-1,-1,-1,-1,-1,-1,-1,-1,-1,-1,-1,-1,-1,-1,-1],"loss_changes":[3.8490366E2,1.1740588E2,7.503073E1,9.115767E1,5.6456787E1,2.3538727E1,5.6106037E1,2.8684174E1,4.520702E1,3.4518616E1,5.6112022E1,1.5290375E1,1.9245094E1,5.6335674E1,1.0216003E1,0E0,0E0,0E0,0E0,0E0,0E0,0E0,0E0,0E0,0E0,0E0,0E0,0E0,0E0,0E0,0E0],"parents":[2147483647,0,0,1,1,2,2,3,3,4,4,5,5,6,6,7,7,8,8,9,9,10,10,11,11,12,12,13,13,14,14],"right_children":[2,4,6,8,10,12,14,16,18,20,22,24,26,28,30,-1,-1,-1,-1,-1,-1,-1,-1,-1,-1,-1,-1,-1,-1,-1,-1],"split_conditions":[-1.7935263E-1,-1.5916753E-1,-6.73315E-2,-3.8240212E-1,-4.467062E-1,1.4434712E0,7.14324E-1,-1.0377276E0,-5.657237E-1,-9.1829455E-1,-5.8058363E-1,-7.195706E-1,-6.412604E-1,8.5841626E-1,-7.817564E-1,8.184287E-3,6.376584E-2,-2.073712E-2,2.933366E-2,4.5229024E-3,-7.990773E-2,-7.456657E-2,2.553159E-2,1.754253E-1,-8.594673E-2,-8.976706E-2,6.6663496E-2,-2.6158793E-2,7.044902E-2,4.0479373E-2,-1.06133915E-1],"split_indices":[26,61,28,2,60,0,49,7,7,2,53,22,28,16,45,0,0,0,0,0,0,0,0,0,0,0,0,0,0,0,0],"split_type":[0,0,0,0,0,0,0,0,0,0,0,0,0,0,0,0,0,0,0,0,0,0,0,0,0,0,0,0,0,0,0],"sum_hessian":[3.2771345E3,2.3018333E3,9.753013E2,1.6841345E3,6.176987E2,5.0405096E2,4.712503E2,9.148064E2,7.693282E2,2.2790451E2,3.8979422E2,4.731305E2,3.0920486E1,3.8798328E2,8.326702E1,1.0522164E2,8.095847E2,2.865925E2,4.827357E2,6.938051E1,1.58524E2,6.671072E1,3.2308353E2,1.3549867E0,4.717755E2,1.1996208E1,1.8924276E1,3.1432184E2,7.3661446E1,4.553464E0,7.8713554E1],"tree_param":{"num_deleted":"0","num_feature":"64","num_nodes":"31","size_leaf_vector":"1"}},{"base_weights":[1.3939075E-2,1.451339E-1,-6.50303E-1,-3.2364335E-3,5.144785E-1,-7.5917584E-1,-7.36481E-2,2.3759988E-1,-2.2573105E-1,5.47954E-1,-1.1355268E0,-3.0686027E-1,-8.5261846E-1,-3.8041207E-1,1.1576607E0,5.096016E-2,1.0402336E-2,-5.6281246E-2,-8.2975376E-4,4.1798048E-2,8.691084E-2,7.425461E-3,-1.423679E-1,-4.437505E-2,2.4502467E-1,-8.780549E-2,4.0003445E-2,2.7302612E-2,-9.144778E-2,1.7397064E-1,-7.4902125E-2],"categories":[],"categories_nodes":[],"categories_segments":[],"categories_sizes":[],"default_left":[0,0,0,0,0,0,0,0,0,0,0,0,0,0,0,0,0,0,0,0,0,0,0,0,0,0,0,0,0,0,0],"id":20,"left_children":[1,3,5,7,9,11,13,15,17,19,21,23,25,27,29,-1,-1,-1,-1,-1,-1,-1,-1,-1,-1,-1,-1,-1,-1,-1,-1],"loss_changes":[2.802155E2,1.4714294E2,3.32406E1,1.0275198E2,4.312607E1,1.8589447E1,3.2673485E1,3.340359E1,7.304823E1,3.114685E1,5.5533123E0,3.0498674E1,1.2111511E1,2.4353092E1,2.0465883E1,0E0,0E0,0E0,0E0,0E0,0E0,0E0,0E0,0E0,0E0,0E0,0E0,0E0,0E0,0E0,0E0],"parents":[2147483647,0,0,1,1,2,2,3,3,4,4,5,5,6,6,7,7,8,8,9,9,10,10,11,11,12,12,13,13,14,14],"right_children":[2,4,6,8,10,12,14,16,18,20,22,24,26,28,30,-1,-1,-1,-1,-1,-1,-1,-1,-1,-1,-1,-1,-1,-1,-1,-1],"split_conditions":[2.5011986E-1,4.4621432E-1,1.0414757E0,-6.3046384E-1,2.0007207E0,-3.8133612E-1,6.5179855E-1,-1.2239311E0,-3.5656744E-1,1.8875734E0,4.019694E-1,1.4560288E0,1.6734143E0,6.258887E-1,1.1196167E0,5.096016E-2,1.0402336E-2,-5.6281246E-2,-8.2975376E-4,4.1798048E-2,8.691084E-2,7.425461E-3,-1.423679E-1,-4.437505E-2,2.4502467E-1,-8.780549E-2,4.0003445E-2,2.7302612E-2,-9.144778E-2,1.7397064E-1,-7.4902125E-2],"split_indices":[22,43,0,33,35,20,54,26,8,23,29,60,34,39,22,0,0,0,0,0,0,0,0,0,0,0,0,0,0,0,0],"split_type":[0,0,0,0,0,0,0,0,0,0,0,0,0,0,0,0,0,0,0,0,0,0,0,0,0,0,0,0,0,0,0],"sum_hessian":[3.2134211E3,2.6840703E3,5.2935077E2,1.915558E3,7.685123E2,4.4501508E2,8.4335686E1,9.198312E2,9.9572687E2,7.538853E2,1.4627023E1,7.692724E1,3.6808783E2,6.806841E1,1.6267275E1,3.0201776E2,6.178134E2,3.8981638E2,6.0591046E2,5.383233E2,2.1556203E2,2.9565434E0,1.167048E1,7.408784E1,2.8394053E0,3.6105527E2,7.0325594E0,3.0832777E1,3.7235634E1,1.2529895E1,3.7373803E0],"tree_param":{"num_deleted":"0","num_feature":"64","num_nodes":"31","size_leaf_vector":"1"}},{"base_weights":[-2.5431562E-4,1.5344341E-1,-6.319113E-1,4.0146506E-1,-9.59643E-2,-1.4468926E-1,-7.7941704E-1,5.7280314E-1,1.09011166E-1,1.6503233E-1,-2.5017655E-1,-7.638372E-1,2.999288E-1,-8.531505E-1,-1.4061219E-1,3.3208515E-2,7.376996E-2,-1.3862147E-2,4.6194952E-2,3.9590605E-2,-2.094651E-2,-3.178244E-2,4.23278E-2,-1.0272341E-1,9.664769E-3,-4.4799805E-2,5.9626516E-2,-2.1153641E-1,-8.216617E-2,9.0091765E-2,-5.7416555E-2],"categories":[],"categories_nodes":[],"categories_segments":[],"categories_sizes":[],"default_left":[0,0,0,0,0,0,0,0,0,0,0,0,0,0,0,0,0,0,0,0,0,0,0,0,0,0,0,0,0,0,0],"id":21,"left_children":[1,3,5,7,9,11,13,15,17,19,21,23,25,27,29,-1,-1,-1,-1,-1,-1,-1,-1,-1,-1,-1,-1,-1,-1,-1,-1],"loss_changes":[3.041622E2,1.559118E2,4.395224E1,6.3255722E1,5.064275E1,3.9791977E1,2.2037476E1,3.1373627E1,4.0971436E1,4.050745E1,3.6155724E1,1.3777668E1,1.8965803E1,1.5016449E1,2.303946E1,0E0,0E0,0E0,0E0,0E0,0E0,0E0,0E0,0E0,0E0,0E0,0E0,0E0,0E0,0E0,0E0],"parents":[2147483647,0,0,1,1,2,2,3,3,4,4,5,5,6,6,7,7,8,8,9,9,10,10,11,11,12,12,13,13,14,14],"right_children":[2,4,6,8,10,12,14,16,18,20,22,24,26,28,30,-1,-1,-1,-1,-1,-1,-1,-1,-1,-1,-1,-1,-1,-1,-1,-1],"split_conditions":[2.2729596E-1,-3.4166124E-1,-7.9694366E-1,-7.1062285E-1,-8.734978E-1,-7.697444E-2,8.688667E-1,-5.350728E-1,-3.033071E-1,-9.0401754E-2,1.2579138E0,3.4689507E-1,-8.0363214E-1,-9.31787E-1,-3.2173595E-1,3.3208515E-2,7.376996E-2,-1.3862147E-2,4.6194952E-2,3.9590605E-2,-2.094651E-2,-3.178244E-2,4.23278E-2,-1.0272341E-1,9.664769E-3,-4.4799805E-2,5.9626516E-2,-2.1153641E-1,-8.216617E-2,9.0091765E-2,-5.7416555E-2],"split_indices":[61,2,35,22,61,53,28,37,5,33,43,5,44,22,35,0,0,0,0,0,0,0,0,0,0,0,0,0,0,0,0],"split_type":[0,0,0,0,0,0,0,0,0,0,0,0,0,0,0,0,0,0,0,0,0,0,0,0,0,0,0,0,0,0,0],"sum_hessian":[3.1309734E3,2.5188357E3,6.121378E2,1.2626215E3,1.2562142E3,1.4271642E2,4.694214E2,7.955683E2,4.6705313E2,4.66543E2,7.896712E2,5.935053E1,8.336588E1,4.2054486E2,4.8876537E1,3.2465158E2,4.7091675E2,2.748306E2,1.9222255E2,2.885796E2,1.7796342E2,7.180698E2,7.160134E1,4.529256E1,1.4057965E1,2.3511963E1,5.9853916E1,8.625309E0,4.1191956E2,1.4048849E1,3.482769E1],"tree_param":{"num_deleted":"0","num_feature":"64","num_nodes":"31","size_leaf_vector":"1"}},{"base_weights":[2.6786278E-3,2.286157E-1,-3.6649477E-1,4.3704465E-1,-2.4662597E-2,-1.0621875E-1,-6.561802E-1,5.1078284E-1,-2.5806904E-1,2.585832E-1,-2.2690345E-1,-2.3834391E-1,4.862857E-1,-7.5179183E-1,-2.9581532E-2,-5.0147902E-2,5.441919E-2,-1.2803076E-1,-3.92945E-3,3.4901172E-2,-6.8191506E-2,-9.556354E-2,-1.2256931E-2,1.9323744E-2,-3.678025E-2,5.9622277E-2,-1.2086471E-1,-7.921284E-2,5.8926057E-2,3.3289602E-1,-1.7628701E-2],"categories":[],"categories_nodes":[],"categories_segments":[],"categories_sizes":[],"default_left":[0,0,0,0,0,0,0,0,0,0,0,0,0,0,0,0,0,0,0,0,0,0,0,0,0,0,0,0,0,0,0],"id":22,"left_children":[1,3,5,7,9,11,13,15,17,19,21,23,25,27,29,-1,-1,-1,-1,-1,-1,-1,-1,-1,-1,-1,-1,-1,-1,-1,-1],"loss_changes":[2.5592032E2,1.0048948E2,8.775943E1,5.3652283E1,4.933291E1,4.824338E1,3.2994034E1,3.2210068E1,2.249427E1,3.0752674E1,3.807982E1,2.819425E1,2.1669199E1,2.6328674E1,3.7047493E1,0E0,0E0,0E0,0E0,0E0,0E0,0E0,0E0,0E0,0E0,0E0,0E0,0E0,0E0,0E0,0E0],"parents":[2147483647,0,0,1,1,2,2,3,3,4,4,5,5,6,6,7,7,8,8,9,9,10,10,11,11,12,12,13,13,14,14],"right_children":[2,4,6,8,10,12,14,16,18,20,22,24,26,28,30,-1,-1,-1,-1,-1,-1,-1,-1,-1,-1,-1,-1,-1,-1,-1,-1],"split_conditions":[-4.240565E-1,-3.8240212E-1,-3.1827103E-2,2.8447777E-1,-8.9859766E-1,9.90766E-1,1.0414757E0,-1.4031036E0,-7.8634447E-1,1.6021041E0,-1.1121337E0,-6.1140573E-1,1.8136615E0,1.5325292E0,4.4957646E-3,-5.0147902E-2,5.441919E-2,-1.2803076E-1,-3.92945E-3,3.4901172E-2,-6.8191506E-2,-9.556354E-2,-1.2256931E-2,1.9323744E-2,-3.678025E-2,5.9622277E-2,-1.2086471E-1,-7.921284E-2,5.8926057E-2,3.3289602E-1,-1.7628701E-2],"split_indices":[14,2,61,61,61,6,0,7,44,35,7,20,2,10,31,0,0,0,0,0,0,0,0,0,0,0,0,0,0,0,0],"split_type":[0,0,0,0,0,0,0,0,0,0,0,0,0,0,0,0,0,0,0,0,0,0,0,0,0,0,0,0,0,0,0],"sum_hessian":[3.0662183E3,1.9023472E3,1.163871E3,1.0431708E3,8.5917645E2,6.1377466E2,5.500964E2,9.433632E2,9.980753E1,3.5779407E2,5.013824E2,5.0235092E2,1.11423706E2,4.770971E2,7.299923E1,2.9692705E1,9.136705E2,1.6739399E1,8.306814E1,3.269836E2,3.0810444E1,6.1771812E1,4.396106E2,1.1580257E2,3.8654837E2,1.0524548E2,6.178221E0,4.6356326E2,1.3533851E1,2.14739E0,7.085184E1],"tree_param":{"num_deleted":"0","num_feature":"64","num_nodes":"31","size_leaf_vector":"1"}},{"base_weights":[-8.853648E-3,1.6174257E-1,-4.6753615E-1,5.7326156E-1,4.967083E-2,-7.0595294E-1,-2.561743E-1,1.3176137E-1,6.9007564E-1,-4.0031257E-1,1.616406E-1,-5.850041E-1,-1.0577604E0,-3.970046E-1,3.2605046E-1,-1.0351288E-1,2.6314292E-2,-3.136627E-2,7.2788514E-2,-7.686394E-2,-9.186573E-3,-2.0082012E-2,2.8811846E-2,-7.037051E-2,1.3848228E-4,8.725538E-2,-1.09150074E-1,-8.882945E-2,-2.053826E-2,-1.4993504E-2,9.010022E-2],"categories":[],"categories_nodes":[],"categories_segments":[],"categories_sizes":[],"default_left":[0,0,0,0,0,0,0,0,0,0,0,0,0,0,0,0,0,0,0,0,0,0,0,0,0,0,0,0,0,0,0],"id":23,"left_children":[1,3,5,7,9,11,13,15,17,19,21,23,25,27,29,-1,-1,-1,-1,-1,-1,-1,-1,-1,-1,-1,-1,-1,-1,-1,-1],"loss_changes":[2.3535583E2,1.01084335E2,4.09086E1,2.4106125E1,8.693899E1,1.5661255E1,3.569799E1,1.55112095E1,1.4299591E1,3.899294E1,6.3384987E1,1.9974571E1,7.246956E0,3.2743797E1,2.3407553E1,0E0,0E0,0E0,0E0,0E0,0E0,0E0,0E0,0E0,0E0,0E0,0E0,0E0,0E0,0E0,0E0],"parents":[2147483647,0,0,1,1,2,2,3,3,4,4,5,5,6,6,7,7,8,8,9,9,10,10,11,11,12,12,13,13,14,14],"right_children":[2,4,6,8,10,12,14,16,18,20,22,24,26,28,30,-1,-1,-1,-1,-1,-1,-1,-1,-1,-1,-1,-1,-1,-1,-1,-1],"split_conditions":[-1.3222028E-1,-1.2365133E0,-1.19614415E-1,-7.114705E-1,-6.847173E-1,7.044677E-1,8.811054E-1,-1.5130707E0,-6.063544E-1,-3.86152E-1,-7.215274E-1,5.098901E-1,-1.3971721E0,-3.7533534E-1,-6.063544E-1,-1.0351288E-1,2.6314292E-2,-3.136627E-2,7.2788514E-2,-7.686394E-2,-9.186573E-3,-2.0082012E-2,2.8811846E-2,-7.037051E-2,1.3848228E-4,8.725538E-2,-1.09150074E-1,-8.882945E-2,-2.053826E-2,-1.4993504E-2,9.010022E-2],"split_indices":[26,26,28,60,8,40,60,58,53,62,58,58,8,9,53,0,0,0,0,0,0,0,0,0,0,0,0,0,0,0,0],"split_type":[0,0,0,0,0,0,0,0,0,0,0,0,0,0,0,0,0,0,0,0,0,0,0,0,0,0,0,0,0,0,0],"sum_hessian":[3.005795E3,2.1914019E3,8.143932E2,4.6817676E2,1.7232251E3,3.8160345E2,4.3278973E2,9.840018E1,3.6977658E2,3.4284134E2,1.3803838E3,2.8595654E2,9.5646904E1,3.4875092E2,8.4038826E1,9.261712E0,8.9138466E1,1.3158503E1,3.5661807E2,1.5557364E2,1.8726772E2,3.5692343E2,1.0234603E3,2.3764972E2,4.8306812E1,1.216028E0,9.443088E1,9.683779E1,2.5191312E2,4.638077E1,3.765805E1],"tree_param":{"num_deleted":"0","num_feature":"64","num_nodes":"31","size_leaf_vector":"1"}},{"base_weights":[-1.9860375E-3,1.1005303E-1,-6.2238526E-1,3.2015696E-1,-7.755067E-2,-3.6889485E-1,-8.308886E-1,-1.1736505E-2,4.5845968E-1,3.1432918E-1,-2.0443106E-1,-8.604941E-1,-7.915464E-2,-8.614276E-1,1.2694817E0,-8.260237E-2,1.4661074E-2,5.049504E-2,-5.481255E-2,5.646747E-2,2.4045415E-3,-3.9473403E-2,4.9481606E-3,-9.555948E-2,4.12738E-2,5.3866576E-2,-5.8353037E-2,5.5195827E-2,-8.938744E-2,3.4823786E-2,1.6772626E-1],"categories":[],"categories_nodes":[],"categories_segments":[],"categories_sizes":[],"default_left":[0,0,0,0,0,0,0,0,0,0,0,0,0,0,0,0,0,0,0,0,0,0,0,0,0,0,0,0,0,0,0],"id":24,"left_children":[1,3,5,7,9,11,13,15,17,19,21,23,25,27,29,-1,-1,-1,-1,-1,-1,-1,-1,-1,-1,-1,-1,-1,-1,-1,-1],"loss_changes":[2.0540485E2,9.868649E1,2.3584946E1,5.421187E1,6.5853485E1,2.9246006E1,1.695137E1,4.503482E1,3.9286377E1,2.3532917E1,4.834618E1,9.623093E0,4.100762E1,1.1695953E1,8.987961E-1,0E0,0E0,0E0,0E0,0E0,0E0,0E0,0E0,0E0,0E0,0E0,0E0,0E0,0E0,0E0,0E0],"parents":[2147483647,0,0,1,1,2,2,3,3,4,4,5,5,6,6,7,7,8,8,9,9,10,10,11,11,12,12,13,13,14,14],"right_children":[2,4,6,8,10,12,14,16,18,20,22,24,26,28,30,-1,-1,-1,-1,-1,-1,-1,-1,-1,-1,-1,-1,-1,-1,-1,-1],"split_conditions":[2.5011986E-1,-5.3667086E-1,3.0326486E-2,-2.7756485E-1,-8.808083E-1,-6.5790755E-1,1.5022076E0,-9.062015E-1,1.7484813E0,-2.0634599E-1,2.3093756E-2,4.677882E-1,4.992486E-1,-1.0656579E0,4.0401414E-2,-8.260237E-2,1.4661074E-2,5.049504E-2,-5.481255E-2,5.646747E-2,2.4045415E-3,-3.9473403E-2,4.9481606E-3,-9.555948E-2,4.12738E-2,5.3866576E-2,-5.8353037E-2,5.5195827E-2,-8.938744E-2,3.4823786E-2,1.6772626E-1],"split_indices":[22,56,57,54,33,9,54,7,2,19,9,21,41,30,0,0,0,0,0,0,0,0,0,0,0,0,0,0,0,0,0],"split_type":[0,0,0,0,0,0,0,0,0,0,0,0,0,0,0,0,0,0,0,0,0,0,0,0,0,0,0,0,0,0,0],"sum_hessian":[2.9530996E3,2.5020688E3,4.5103076E2,1.1799241E3,1.3221449E3,2.0480544E2,2.4622533E2,3.4733002E2,8.3259406E2,3.2301398E2,9.9913086E2,7.521649E1,1.2958893E2,2.4327798E2,2.947347E0,5.585971E1,2.914703E2,7.963134E2,3.628063E1,1.7293056E2,1.5008342E2,5.70784E2,4.283469E2,7.0221E1,4.995496E0,5.821373E1,7.1375206E1,5.1002316E0,2.3817775E2,1.4731783E0,1.4741688E0],"tree_param":{"num_deleted":"0","num_feature":"64","num_nodes":"31","size_leaf_vector":"1"}},{"base_weights":[6.508702E-4,8.5103974E-2,-7.1072114E-1,3.5493517E-1,-4.347998E-2,-7.816826E-1,2.1423823E-1,-3.231831E-1,4.3596125E-1,-5.111244E-1,3.8980715E-2,-8.003284E-1,1.5500276E-1,1.7952923E0,-5.5946183E-1,1.8547311E-2,-1.3162147E-1,-2.0431967E-1,4.511538E-2,-5.8208097E-2,5.635473E-2,-3.2728765E-2,1.5700163E-2,-6.437472E-2,-1.0168809E-1,-5.9982367E-2,2.2643845E-1,-1.093049E-1,1.459031E-1],"categories":[],"categories_nodes":[],"categories_segments":[],"categories_sizes":[],"default_left":[0,0,0,0,0,0,0,0,0,0,0,0,0,0,0,0,0,0,0,0,0,0,0,0,0,0,0,0,0],"id":25,"left_children":[1,3,5,7,9,11,13,15,17,19,21,23,-1,25,27,-1,-1,-1,-1,-1,-1,-1,-1,-1,-1,-1,-1,-1,-1],"loss_changes":[1.7465546E2,9.0178085E1,2.0416931E1,4.6228653E1,6.7922554E1,1.3707077E1,2.8854177E1,4.5755497E1,2.9158768E1,2.0461113E1,6.4798706E1,9.013504E0,0E0,1.0029722E1,1.887997E1,0E0,0E0,0E0,0E0,0E0,0E0,0E0,0E0,0E0,0E0,0E0,0E0,0E0,0E0],"parents":[2147483647,0,0,1,1,2,2,3,3,4,4,5,5,6,6,7,7,8,8,9,9,10,10,11,11,13,13,14,14],"right_children":[2,4,6,8,10,12,14,16,18,20,22,24,-1,26,28,-1,-1,-1,-1,-1,-1,-1,-1,-1,-1,-1,-1,-1,-1],"split_conditions":[5.4049855E-1,-1.0039272E0,2.1513584E0,-1.231442E0,-9.062015E-1,4.0751586E0,6.4594245E-1,-1.7286128E-1,-1.5871296E0,8.8292736E-1,-5.8076304E-1,5.6404847E-1,1.5500276E-1,-1.3839287E-1,2.2788472E0,1.8547311E-2,-1.3162147E-1,-2.0431967E-1,4.511538E-2,-5.8208097E-2,5.635473E-2,-3.2728765E-2,1.5700163E-2,-6.437472E-2,-1.0168809E-1,-5.9982367E-2,2.2643845E-1,-1.093049E-1,1.459031E-1],"split_indices":[26,26,9,58,7,38,13,50,27,25,8,52,0,55,23,0,0,0,0,0,0,0,0,0,0,0,0,0,0],"split_type":[0,0,0,0,0,0,0,0,0,0,0,0,0,0,0,0,0,0,0,0,0,0,0,0,0,0,0,0,0],"sum_hessian":[2.905159E3,2.59765E3,3.0750906E2,8.377938E2,1.7598561E3,2.8574225E2,2.1766825E1,8.910162E1,7.486922E2,2.63023E2,1.4968331E3,2.8412695E2,1.6152875E0,6.718069E0,1.5048756E1,5.9458622E1,2.9643005E1,3.7470891E0,7.449451E2,2.4716217E2,1.5860842E1,3.6434494E2,1.1324882E3,1.6720201E2,1.1692494E2,1.0546243E0,5.6634445E0,1.2264995E1,2.7837603E0],"tree_param":{"num_deleted":"0","num_feature":"64","num_nodes":"29","size_leaf_vector":"1"}},{"base_weights":[-1.0835407E-3,1.695286E-1,-3.5341573E-1,-1.5205294E-1,2.9484463E-1,-1.957856E-1,-7.8644216E-1,-6.375659E-1,-1.2218428E-2,2.14232E-1,7.65667E-1,-4.6920907E-1,7.767239E-2,2.2468598E-1,-8.1109345E-1,-7.923232E-2,6.778469E-2,2.8925121E-3,-1.019025E-1,3.3505704E-2,-1.3017684E-2,8.232221E-2,-5.5170186E-2,-5.2872855E-2,7.886815E-2,3.2591347E-2,-3.4714665E-2,-8.700038E-2,-3.5742875E-3],"categories":[],"categories_nodes":[],"categories_segments":[],"categories_sizes":[],"default_left":[0,0,0,0,0,0,0,0,0,0,0,0,0,0,0,0,0,0,0,0,0,0,0,0,0,0,0,0,0],"id":26,"left_children":[1,3,5,7,9,11,13,15,17,19,21,23,25,-1,27,-1,-1,-1,-1,-1,-1,-1,-1,-1,-1,-1,-1,-1,-1],"loss_changes":[1.7262729E2,7.801756E1,6.3798126E1,3.687184E1,5.2691986E1,5.1493866E1,2.0494186E1,2.526044E1,1.754194E1,4.958124E1,1.586068E1,2.619207E1,3.6489845E1,0E0,1.1316132E1,0E0,0E0,0E0,0E0,0E0,0E0,0E0,0E0,0E0,0E0,0E0,0E0,0E0,0E0],"parents":[2147483647,0,0,1,1,2,2,3,3,4,4,5,5,6,6,7,7,8,8,9,9,10,10,11,11,12,12,14,14],"right_children":[2,4,6,8,10,12,14,16,18,20,22,24,26,-1,28,-1,-1,-1,-1,-1,-1,-1,-1,-1,-1,-1,-1,-1,-1],"split_conditions":[-5.8135852E-2,-2.7756485E-1,3.2645652E-1,-1.2357714E0,9.6873504E-1,5.355255E-1,-1.3462732E0,2.6692076E0,1.233494E0,-2.603844E-1,9.542618E-1,1.1806781E0,3.814547E-1,2.2468598E-1,1.0328616E0,-7.923232E-2,6.778469E-2,2.8925121E-3,-1.019025E-1,3.3505704E-2,-1.3017684E-2,8.232221E-2,-5.5170186E-2,-5.2872855E-2,7.886815E-2,3.2591347E-2,-3.4714665E-2,-8.700038E-2,-3.5742875E-3],"split_indices":[56,54,14,16,60,59,46,60,35,33,27,7,49,0,30,0,0,0,0,0,0,0,0,0,0,0,0,0,0],"split_type":[0,0,0,0,0,0,0,0,0,0,0,0,0,0,0,0,0,0,0,0,0,0,0,0,0,0,0,0,0],"sum_hessian":[2.869757E3,1.9338398E3,9.3591724E2,5.4221454E2,1.3916252E3,6.87211E2,2.4870619E2,1.2044915E2,4.217654E2,1.18943E3,2.0219518E2,3.4326926E2,3.4394177E2,1.2782174E0,2.4742798E2,1.0812589E2,1.2323262E1,4.0613962E2,1.5625786E1,8.805454E2,3.0888464E2,1.9409058E2,8.104602E0,3.2831415E2,1.4955128E1,2.1723456E2,1.267072E2,2.298427E2,1.7585276E1],"tree_param":{"num_deleted":"0","num_feature":"64","num_nodes":"29","size_leaf_vector":"1"}},{"base_weights":[-3.1731355E-3,1.0506387E-1,-4.914392E-1,2.3026626E-1,-2.2130415E-1,-5.5143684E-1,5.0664514E-1,-9.5731646E-1,2.5586554E-1,-1.4427067E-2,-4.423943E-1,-7.185199E-1,-3.2913947E-1,8.634649E-1,-9.513891E-1,-1.1623335E-1,9.207306E-2,3.4090724E-2,-3.10332E-3,7.749007E-3,-7.754626E-2,-5.368646E-2,3.4460105E-2,-9.021384E-2,-4.862533E-2,-2.4217691E-2,-1.4733998E-1,-7.997861E-2,1.1293904E-1,-1.1917632E-1,1.5259221E-2],"categories":[],"categories_nodes":[],"categories_segments":[],"categories_sizes":[],"default_left":[0,0,0,0,0,0,0,0,0,0,0,0,0,0,0,0,0,0,0,0,0,0,0,0,0,0,0,0,0,0,0],"id":27,"left_children":[1,3,5,7,9,11,13,15,17,19,21,23,25,27,29,-1,-1,-1,-1,-1,-1,-1,-1,-1,-1,-1,-1,-1,-1,-1,-1],"loss_changes":[1.4890298E2,9.429192E1,3.0894424E1,5.09348E1,2.9264418E1,1.7693436E1,1.617484E1,1.4697926E1,3.985224E1,2.3259075E1,2.3182201E1,1.1279007E1,2.0439152E1,1.1621626E1,1.8478336E0,0E0,0E0,0E0,0E0,0E0,0E0,0E0,0E0,0E0,0E0,0E0,0E0,0E0,0E0,0E0,0E0],"parents":[2147483647,0,0,1,1,2,2,3,3,4,4,5,5,6,6,7,7,8,8,9,9,10,10,11,11,12,12,13,13,14,14],"right_children":[2,4,6,8,10,12,14,16,18,20,22,24,26,28,30,-1,-1,-1,-1,-1,-1,-1,-1,-1,-1,-1,-1,-1,-1,-1,-1],"split_conditions":[2.2061564E-1,2.6450765E-1,1.1344706E0,-1.4515846E0,-5.8307314E-1,-1.7980103E-1,-3.875005E-1,1.9037963E0,1.9493827E-1,1.1433082E0,1.3611716E0,-1.074692E-1,1.8676643E0,-1.0542047E0,2.594554E0,-1.1623335E-1,9.207306E-2,3.4090724E-2,-3.10332E-3,7.749007E-3,-7.754626E-2,-5.368646E-2,3.4460105E-2,-9.021384E-2,-4.862533E-2,-2.4217691E-2,-1.4733998E-1,-7.997861E-2,1.1293904E-1,-1.1917632E-1,1.5259221E-2],"split_indices":[61,2,53,58,56,17,3,10,27,33,9,53,61,30,54,0,0,0,0,0,0,0,0,0,0,0,0,0,0,0,0],"split_type":[0,0,0,0,0,0,0,0,0,0,0,0,0,0,0,0,0,0,0,0,0,0,0,0,0,0,0,0,0,0,0],"sum_hessian":[2.8155698E3,2.3053198E3,5.102499E2,1.6663597E3,6.389601E2,4.8173874E2,2.8511175E1,3.4393784E1,1.6319661E3,3.306405E2,3.0831958E2,2.737504E2,2.0798836E2,2.3233185E1,5.2779903E0,3.1352303E1,3.0414808E0,1.2586829E3,3.732832E2,2.958109E2,3.482958E1,2.7555948E2,3.2760113E1,1.5127544E2,1.2247495E2,1.94424E2,1.3564368E1,2.9258258E0,2.030736E1,4.268976E0,1.0090145E0],"tree_param":{"num_deleted":"0","num_feature":"64","num_nodes":"31","size_leaf_vector":"1"}},{"base_weights":[-9.67677E-3,7.780026E-2,-6.032899E-1,4.551891E-1,-1.4563054E-2,-1.2987393E-1,-7.565778E-1,3.6360726E-2,6.105762E-1,-3.7339383E-1,7.791703E-2,2.2729199E-1,-5.282641E-1,2.1592312E-1,-7.785239E-1,3.1721972E-2,-6.9832586E-2,6.3666806E-2,-4.8323035E-2,-5.891296E-2,-1.4695461E-2,1.8204937E-2,-2.5794387E-2,-9.6570194E-2,4.988294E-2,9.8164834E-2,-7.317554E-2,5.7364046E-3,-8.329266E-2],"categories":[],"categories_nodes":[],"categories_segments":[],"categories_sizes":[],"default_left":[0,0,0,0,0,0,0,0,0,0,0,0,0,0,0,0,0,0,0,0,0,0,0,0,0,0,0,0,0],"id":28,"left_children":[1,3,5,7,9,11,13,15,17,19,21,23,25,-1,27,-1,-1,-1,-1,-1,-1,-1,-1,-1,-1,-1,-1,-1,-1],"loss_changes":[1.4287086E2,8.359607E1,2.5545639E1,3.0666122E1,6.399365E1,1.2590499E1,1.874945E1,2.6771038E1,1.0121719E1,1.9216991E1,5.367536E1,1.5677893E1,1.3540029E1,0E0,1.2120148E1,0E0,0E0,0E0,0E0,0E0,0E0,0E0,0E0,0E0,0E0,0E0,0E0,0E0,0E0],"parents":[2147483647,0,0,1,1,2,2,3,3,4,4,5,5,6,6,7,7,8,8,9,9,10,10,11,11,12,12,14,14],"right_children":[2,4,6,8,10,12,14,16,18,20,22,24,26,-1,28,-1,-1,-1,-1,-1,-1,-1,-1,-1,-1,-1,-1,-1,-1],"split_conditions":[5.694474E-1,-1.1808987E0,-2.2440165E-1,-5.697189E-1,-6.450183E-1,-3.935748E-1,-1.3462732E0,-4.882533E-1,1.9589727E0,-3.6009234E-1,2.6744008E-1,-5.412687E-1,-8.689896E-1,2.1592312E-1,-1.0749704E0,3.1721972E-2,-6.9832586E-2,6.3666806E-2,-4.8323035E-2,-5.891296E-2,-1.4695461E-2,1.8204937E-2,-2.5794387E-2,-9.6570194E-2,4.988294E-2,9.8164834E-2,-7.317554E-2,5.7364046E-3,-8.329266E-2],"split_indices":[49,26,36,13,8,51,46,49,20,6,3,0,37,0,3,0,0,0,0,0,0,0,0,0,0,0,0,0,0],"split_type":[0,0,0,0,0,0,0,0,0,0,0,0,0,0,0,0,0,0,0,0,0,0,0,0,0,0,0,0,0],"sum_hessian":[2.7494485E3,2.3970754E3,3.52373E2,4.7054388E2,1.9265316E3,8.6640076E1,2.657329E2,1.2766672E2,3.4287717E2,3.941516E2,1.53238E3,4.5910095E1,4.0729977E1,1.2576022E0,2.644753E2,9.2770325E1,3.4896393E1,3.3529688E2,7.580283E0,2.0102606E2,1.9312553E2,1.1700642E3,3.623158E2,8.038165E0,3.7871933E1,4.383111E0,3.6346867E1,1.6157883E1,2.4831743E2],"tree_param":{"num_deleted":"0","num_feature":"64","num_nodes":"29","size_leaf_vector":"1"}},{"base_weights":[-4.277594E-3,1.3963984E-1,-2.9507294E-1,-1.11691944E-1,3.428907E-1,1.255616E-1,-4.63756E-1,2.6647148E-1,-2.3776464E-1,2.666647E-1,7.822845E-1,-8.741042E-1,3.2371566E-1,-5.079508E-1,5.57149E-1,-9.9179156E-2,3.3778884E-2,-8.659259E-2,-1.6079849E-2,-6.264916E-2,3.1943154E-2,8.472843E-2,-5.677272E-2,-2.8850297E-2,-1.24688864E-1,1.9828198E-2,1.1089472E-1,-3.7835892E-2,-8.11184E-2,1.714658E-1,-3.8648512E-2],"categories":[],"categories_nodes":[],"categories_segments":[],"categories_sizes":[],"default_left":[0,0,0,0,0,0,0,0,0,0,0,0,0,0,0,0,0,0,0,0,0,0,0,0,0,0,0,0,0,0,0],"id":29,"left_children":[1,3,5,7,9,11,13,15,17,19,21,23,25,27,29,-1,-1,-1,-1,-1,-1,-1,-1,-1,-1,-1,-1,-1,-1,-1,-1],"loss_changes":[1.149194E2,9.38727E1,6.45609E1,3.9255684E1,3.3814888E1,5.1983196E1,2.956868E1,1.8821297E1,2.969323E1,4.1069225E1,1.3613495E1,9.124798E0,2.130607E1,2.4161942E1,3.0601242E1,0E0,0E0,0E0,0E0,0E0,0E0,0E0,0E0,0E0,0E0,0E0,0E0,0E0,0E0,0E0,0E0],"parents":[2147483647,0,0,1,1,2,2,3,3,4,4,5,5,6,6,7,7,8,8,9,9,10,10,11,11,12,12,13,13,14,14],"right_children":[2,4,6,8,10,12,14,16,18,20,22,24,26,28,30,-1,-1,-1,-1,-1,-1,-1,-1,-1,-1,-1,-1,-1,-1,-1,-1],"split_conditions":[-3.4401056E-1,-4.5371428E-1,-5.8307314E-1,-1.2365133E0,1.8114437E0,-1.4982641E0,2.1513584E0,-1.5130707E0,-1.3572602E0,-1.3256516E0,1.6546276E0,-1.2022585E0,1.1344706E0,3.7153333E-1,6.7850083E-1,-9.9179156E-2,3.3778884E-2,-8.659259E-2,-1.6079849E-2,-6.264916E-2,3.1943154E-2,8.472843E-2,-5.677272E-2,-2.8850297E-2,-1.24688864E-1,1.9828198E-2,1.1089472E-1,-3.7835892E-2,-8.11184E-2,1.714658E-1,-3.8648512E-2],"split_indices":[14,58,56,26,23,25,9,58,58,27,35,49,53,2,13,0,0,0,0,0,0,0,0,0,0,0,0,0,0,0,0],"split_type":[0,0,0,0,0,0,0,0,0,0,0,0,0,0,0,0,0,0,0,0,0,0,0,0,0,0,0,0,0,0,0],"sum_hessian":[2.7439646E3,1.8358864E3,9.080781E2,8.210544E2,1.01483203E3,2.599965E2,6.480816E2,2.050074E2,6.1604694E2,8.66175E2,1.4865706E2,4.2446625E1,2.1754988E2,6.21672E2,2.6409603E1,1.0304087E1,1.9470331E2,6.612395E1,5.4992303E2,4.7711674E1,8.184633E2,1.4218365E2,6.4734077E0,1.7200514E1,2.524611E1,1.8866487E2,2.8885004E1,4.3711243E2,1.8455962E2,1.1493733E1,1.4915871E1],"tree_param":{"num_deleted":"0","num_feature":"64","num_nodes":"31","size_leaf_vector":"1"}},{"base_weights":[5.4171514E-3,6.827668E-2,-5.4687655E-1,-4.5742273E-2,3.1733224E-1,-7.0954996E-1,1.0399621E-1,-2.1682614E-1,1.5855359E-1,-7.05941E-3,5.1947504E-1,-8.7251693E-1,-3.9453417E-1,2.3959455E0,-6.697297E-2,-5.1844127E-2,-7.013846E-3,-2.1765172E-2,2.9837996E-2,-6.0514178E-2,1.9716835E-2,3.51181E-2,7.428079E-2,-4.2598348E-2,-9.744022E-2,-6.119271E-2,5.1231056E-2,-6.3506775E-2,3.7825227E-1,7.0776716E-2,-5.868576E-2],"categories":[],"categories_nodes":[],"categories_segments":[],"categories_sizes":[],"default_left":[0,0,0,0,0,0,0,0,0,0,0,0,0,0,0,0,0,0,0,0,0,0,0,0,0,0,0,0,0,0,0],"id":30,"left_children":[1,3,5,7,9,11,13,15,17,19,21,23,25,27,29,-1,-1,-1,-1,-1,-1,-1,-1,-1,-1,-1,-1,-1,-1,-1,-1],"loss_changes":[9.390643E1,6.897502E1,2.9339294E1,5.8288147E1,5.001957E1,1.1014763E1,2.2159346E1,4.0114338E1,4.0053696E1,3.6007225E1,1.7401833E1,6.1816635E0,1.5545532E1,1.8895065E1,2.1849607E1,0E0,0E0,0E0,0E0,0E0,0E0,0E0,0E0,0E0,0E0,0E0,0E0,0E0,0E0,0E0,0E0],"parents":[2147483647,0,0,1,1,2,2,3,3,4,4,5,5,6,6,7,7,8,8,9,9,10,10,11,11,12,12,13,13,14,14],"right_children":[2,4,6,8,10,12,14,16,18,20,22,24,26,28,30,-1,-1,-1,-1,-1,-1,-1,-1,-1,-1,-1,-1,-1,-1,-1,-1],"split_conditions":[4.2068437E-1,2.2210671E-1,1.0414757E0,7.7260774E-1,-1.9307326E-1,-3.6746897E-2,4.4957646E-3,-5.604374E-1,-1.049233E0,2.5063524E-1,-1.9503093E-1,-1.8385117E-1,4.3488732E-1,1.1873772E-1,-1.3590989E-1,-5.1844127E-2,-7.013846E-3,-2.1765172E-2,2.9837996E-2,-6.0514178E-2,1.9716835E-2,3.51181E-2,7.428079E-2,-4.2598348E-2,-9.744022E-2,-6.119271E-2,5.1231056E-2,-6.3506775E-2,3.7825227E-1,7.0776716E-2,-5.868576E-2],"split_indices":[22,7,0,53,53,54,31,8,58,60,48,20,23,58,20,0,0,0,0,0,0,0,0,0,0,0,0,0,0,0,0],"split_type":[0,0,0,0,0,0,0,0,0,0,0,0,0,0,0,0,0,0,0,0,0,0,0,0,0,0,0,0,0,0,0],"sum_hessian":[2.7028423E3,2.4274387E3,2.7540353E2,1.6656924E3,7.6174646E2,2.2026285E2,5.5140694E1,9.0649945E2,7.591929E2,2.9281393E2,4.689325E2,1.4399844E2,7.6264404E1,2.9243286E0,5.2216366E1,2.9578345E2,6.10716E2,2.0556367E2,5.536292E2,7.403599E1,2.1877795E2,2.688849E2,2.000476E2,2.7714565E1,1.16283875E2,6.177954E1,1.448486E1,1.087995E0,1.8363336E0,2.082349E1,3.1392876E1],"tree_param":{"num_deleted":"0","num_feature":"64","num_nodes":"31","size_leaf_vector":"1"}},{"base_weights":[1.4565722E-2,7.0597716E-2,-5.5563295E-1,3.8760656E-1,2.8187486E-3,-6.957033E-1,-3.629249E-2,7.061325E-2,5.895171E-1,-1.0360444E-1,2.3643532E-1,1.6568658E-1,-7.24426E-1,5.9719324E-1,-5.7354933E-1,4.0740963E-2,-3.1960394E-2,1.5505063E-2,7.361489E-2,-3.3984214E-2,4.6857167E-3,4.9279016E-2,8.091337E-4,-7.9706036E-2,9.6035696E-4,1.0227271E-1,-1.1980611E-1,-8.23753E-2,3.226698E-2],"categories":[],"categories_nodes":[],"categories_segments":[],"categories_sizes":[],"default_left":[0,0,0,0,0,0,0,0,0,0,0,0,0,0,0,0,0,0,0,0,0,0,0,0,0,0,0,0,0],"id":31,"left_children":[1,3,5,7,9,11,13,15,17,19,21,-1,23,25,27,-1,-1,-1,-1,-1,-1,-1,-1,-1,-1,-1,-1,-1,-1],"loss_changes":[8.511925E1,5.2116257E1,1.7315628E1,2.7304214E1,4.9732338E1,1.3882858E1,1.7935417E1,2.2128345E1,1.6504807E1,4.8864685E1,3.6642643E1,0E0,9.930893E0,1.972126E1,6.6521244E0,0E0,0E0,0E0,0E0,0E0,0E0,0E0,0E0,0E0,0E0,0E0,0E0,0E0,0E0],"parents":[2147483647,0,0,1,1,2,2,3,3,4,4,5,5,6,6,7,7,8,8,9,9,10,10,12,12,13,13,14,14],"right_children":[2,4,6,8,10,12,14,16,18,20,22,-1,24,26,28,-1,-1,-1,-1,-1,-1,-1,-1,-1,-1,-1,-1,-1,-1],"split_conditions":[4.8989242E-1,-1.044332E0,9.095025E-1,-8.814631E-2,2.3700523E-1,-1.3683143E0,4.7000177E-2,-9.230637E-1,-4.302109E-1,3.7156484E-1,1.5900193E-1,1.6568658E-1,2.0105028E0,1.0778209E0,7.231529E-1,4.0740963E-2,-3.1960394E-2,1.5505063E-2,7.361489E-2,-3.3984214E-2,4.6857167E-3,4.9279016E-2,8.091337E-4,-7.9706036E-2,9.6035696E-4,1.0227271E-1,-1.1980611E-1,-8.23753E-2,3.226698E-2],"split_indices":[22,2,60,25,9,29,20,26,34,53,27,0,46,35,25,0,0,0,0,0,0,0,0,0,0,0,0,0,0],"split_type":[0,0,0,0,0,0,0,0,0,0,0,0,0,0,0,0,0,0,0,0,0,0,0,0,0,0,0,0,0],"sum_hessian":[2.6619639E3,2.4245823E3,2.3738147E2,4.2625018E2,1.9983322E3,1.8669003E2,5.0691437E1,1.663833E2,2.5986688E2,1.3732909E3,6.2504126E2,1.5680927E0,1.8512195E2,2.3211237E1,2.7480198E1,8.928091E1,7.710239E1,6.609281E1,1.9377408E2,5.338468E2,8.3944415E2,2.939144E2,3.3112683E2,1.683749E2,1.6747051E1,1.9111504E1,4.099734E0,2.1545929E1,5.9342685E0],"tree_param":{"num_deleted":"0","num_feature":"64","num_nodes":"29","size_leaf_vector":"1"}},{"base_weights":[-4.8632254E-3,-2.296461E-1,1.2708947E-1,1.6143452E-1,-3.2516935E-1,-6.245446E-2,3.1340426E-1,2.6330546E-1,-9.7852147E-1,-5.640897E-1,-1.5093127E-1,-6.578353E-1,6.710452E-3,3.50283E-1,-9.3060267E-1,-8.896214E-2,3.3043418E-2,4.4488166E-2,-1.3911687E-1,-4.952323E-2,-1.2623408E-1,-1.0071826E-1,-7.417032E-3,-1.6606541E-1,-3.0500678E-2,-2.0446133E-2,1.3207391E-2,2.4400884E-2,7.0904136E-2,8.8738E-2,-1.1343485E-1],"categories":[],"categories_nodes":[],"categories_segments":[],"categories_sizes":[],"default_left":[0,0,0,0,0,0,0,0,0,0,0,0,0,0,0,0,0,0,0,0,0,0,0,0,0,0,0,0,0,0,0],"id":32,"left_children":[1,3,5,7,9,11,13,15,17,19,21,23,25,27,29,-1,-1,-1,-1,-1,-1,-1,-1,-1,-1,-1,-1,-1,-1,-1,-1],"loss_changes":[7.7608475E1,3.6207752E1,5.8244354E1,2.2398428E1,3.2309128E1,3.36941E1,3.8478355E1,1.3900342E1,9.929955E0,1.513562E1,2.9591766E1,2.9624577E1,1.945729E1,3.0648598E1,9.976734E0,0E0,0E0,0E0,0E0,0E0,0E0,0E0,0E0,0E0,0E0,0E0,0E0,0E0,0E0,0E0,0E0],"parents":[2147483647,0,0,1,1,2,2,3,3,4,4,5,5,6,6,7,7,8,8,9,9,10,10,11,11,12,12,13,13,14,14],"right_children":[2,4,6,8,10,12,14,16,18,20,22,24,26,28,30,-1,-1,-1,-1,-1,-1,-1,-1,-1,-1,-1,-1,-1,-1,-1,-1],"split_conditions":[-5.7211664E-2,-9.8455137E-1,-3.1052652E-1,3.192816E-1,-1.07845195E-1,-9.152655E-1,2.1034951E0,-1.5355014E0,-1.2750282E0,1.3595307E0,-5.807488E-1,-5.619757E-1,4.074595E-1,1.2221123E0,-3.451327E-1,-8.896214E-2,3.3043418E-2,4.4488166E-2,-1.3911687E-1,-4.952323E-2,-1.2623408E-1,-1.0071826E-1,-7.417032E-3,-1.6606541E-1,-3.0500678E-2,-2.0446133E-2,1.3207391E-2,2.4400884E-2,7.0904136E-2,8.8738E-2,-1.1343485E-1],"split_indices":[54,26,55,36,25,30,35,27,63,39,45,13,10,23,37,0,0,0,0,0,0,0,0,0,0,0,0,0,0,0,0],"split_type":[0,0,0,0,0,0,0,0,0,0,0,0,0,0,0,0,0,0,0,0,0,0,0,0,0,0,0,0,0,0,0],"sum_hessian":[2.6145576E3,9.6682324E2,1.6477344E3,1.8965778E2,7.7716547E2,8.171186E2,8.3061584E2,1.748055E2,1.4852283E1,3.2680435E2,4.5036115E2,8.415863E1,7.3295996E2,8.073988E2,2.3217012E1,8.943837E0,1.6586165E2,3.320453E0,1.1531829E1,2.9902542E2,2.7778908E1,3.605497E1,4.1430618E2,2.0938883E1,6.321975E1,2.7280142E2,4.601585E2,6.241797E2,1.8321913E2,2.0016217E0,2.1215391E1],"tree_param":{"num_deleted":"0","num_feature":"64","num_nodes":"31","size_leaf_vector":"1"}},{"base_weights":[1.5219071E-2,-2.0314857E-1,1.4004776E-1,-6.905728E-1,-1.2391372E-1,8.677119E-3,3.716593E-1,-3.2264975E-1,-1.025681E0,-1.7258899E-1,6.7117375E-1,-7.5507455E-2,3.4795365E-1,4.6228832E-1,-1.6558903E-1,-1.2031126E-1,-3.6930156E-4,1.0517542E-2,-1.0784542E-1,-1.2371843E-2,-8.8198595E-2,8.780276E-2,-1.03360824E-1,8.501372E-3,-3.344829E-2,5.2615818E-2,-2.3432963E-2,6.1296802E-2,2.6704958E-2,1.5046007E-2,-8.6053535E-2],"categories":[],"categories_nodes":[],"categories_segments":[],"categories_sizes":[],"default_left":[0,0,0,0,0,0,0,0,0,0,0,0,0,0,0,0,0,0,0,0,0,0,0,0,0,0,0,0,0,0,0],"id":33,"left_children":[1,3,5,7,9,11,13,15,17,19,21,23,25,27,29,-1,-1,-1,-1,-1,-1,-1,-1,-1,-1,-1,-1,-1,-1,-1,-1],"loss_changes":[7.093991E1,3.6473587E1,5.0378517E1,1.5961697E1,3.1675383E1,3.02325E1,2.9254356E1,1.809423E1,4.213196E0,2.6558739E1,1.7568962E1,3.528681E1,2.1958153E1,1.4928589E1,1.9289217E1,0E0,0E0,0E0,0E0,0E0,0E0,0E0,0E0,0E0,0E0,0E0,0E0,0E0,0E0,0E0,0E0],"parents":[2147483647,0,0,1,1,2,2,3,3,4,4,5,5,6,6,7,7,8,8,9,9,10,10,11,11,12,12,13,13,14,14],"right_children":[2,4,6,8,10,12,14,16,18,20,22,24,26,28,30,-1,-1,-1,-1,-1,-1,-1,-1,-1,-1,-1,-1,-1,-1,-1,-1],"split_conditions":[-5.7211664E-2,-8.564572E-1,-6.1057705E-2,3.558281E-1,1.8651919E0,8.952364E-1,3.698434E-1,-3.333856E-1,-5.53705E-1,9.573124E-1,7.9611033E-1,2.084804E-2,-3.4401056E-1,-4.279173E-1,-3.1146893E-1,-1.2031126E-1,-3.6930156E-4,1.0517542E-2,-1.0784542E-1,-1.2371843E-2,-8.8198595E-2,8.780276E-2,-1.03360824E-1,8.501372E-3,-3.344829E-2,5.2615818E-2,-2.3432963E-2,6.1296802E-2,2.6704958E-2,1.5046007E-2,-8.6053535E-2],"split_indices":[54,34,60,49,6,16,3,7,61,36,40,50,14,50,61,0,0,0,0,0,0,0,0,0,0,0,0,0,0,0,0],"split_type":[0,0,0,0,0,0,0,0,0,0,0,0,0,0,0,0,0,0,0,0,0,0,0,0,0,0,0,0,0,0,0],"sum_hessian":[2.6004395E3,9.4561365E2,1.6548258E3,1.311445E2,8.144691E2,1.0565726E3,5.982532E2,6.344719E1,6.769731E1,7.6822156E2,4.62476E1,8.4714764E2,2.0942502E2,5.120196E2,8.6233604E1,1.6135098E1,4.731209E1,2.974065E0,6.472324E1,7.1980817E2,4.8413387E1,4.1675735E1,4.571864E0,5.2339966E2,3.23748E2,1.6042442E2,4.9000595E1,2.8777972E2,2.2423984E2,5.981452E1,2.6419079E1],"tree_param":{"num_deleted":"0","num_feature":"64","num_nodes":"31","size_leaf_vector":"1"}},{"base_weights":[-6.019443E-4,6.9676906E-2,-3.3429682E-1,3.8822305E-1,1.2107158E-2,9.019392E-3,-4.924694E-1,5.309714E-2,6.9115806E-1,-3.559978E-1,7.792027E-2,-7.6222524E-2,1.3222713E0,8.938768E-1,-5.304928E-1,-1.5548128E-1,1.4079556E-2,8.1246495E-2,1.9434944E-2,-1.9608712E-2,-8.951836E-2,1.0451264E-2,-8.72934E-2,3.8714719E-3,-1.3648455E-1,1.613251E-1,-2.7543543E-2,-8.510152E-2,2.1815918E-1,-7.758853E-2,-3.2931887E-2],"categories":[],"categories_nodes":[],"categories_segments":[],"categories_sizes":[],"default_left":[0,0,0,0,0,0,0,0,0,0,0,0,0,0,0,0,0,0,0,0,0,0,0,0,0,0,0,0,0,0,0],"id":34,"left_children":[1,3,5,7,9,11,13,15,17,19,21,23,25,27,29,-1,-1,-1,-1,-1,-1,-1,-1,-1,-1,-1,-1,-1,-1,-1,-1],"loss_changes":[6.0160503E1,3.8855213E1,2.423893E1,3.2888023E1,4.3530785E1,1.5967939E1,1.6580261E1,2.2083939E1,1.0102699E1,2.332309E1,3.8630558E1,1.990675E1,4.486208E0,2.1020086E1,1.4456261E1,0E0,0E0,0E0,0E0,0E0,0E0,0E0,0E0,0E0,0E0,0E0,0E0,0E0,0E0,0E0,0E0],"parents":[2147483647,0,0,1,1,2,2,3,3,4,4,5,5,6,6,7,7,8,8,9,9,10,10,11,11,12,12,13,13,14,14],"right_children":[2,4,6,8,10,12,14,16,18,20,22,24,26,28,30,-1,-1,-1,-1,-1,-1,-1,-1,-1,-1,-1,-1,-1,-1,-1,-1],"split_conditions":[2.0462137E-1,-1.0594348E0,-7.9694366E-1,-8.3943737E-1,-6.833198E-1,3.1922574E0,-1.287029E0,-1.1383592E0,2.0143658E-1,8.740381E-2,2.0007207E0,8.7766397E-1,1.2980928E0,-5.34335E-1,-1.4525695E-1,-1.5548128E-1,1.4079556E-2,8.1246495E-2,1.9434944E-2,-1.9608712E-2,-8.951836E-2,1.0451264E-2,-8.72934E-2,3.8714719E-3,-1.3648455E-1,1.613251E-1,-2.7543543E-2,-8.510152E-2,2.1815918E-1,-7.758853E-2,-3.2931887E-2],"split_indices":[61,2,35,5,29,23,29,44,11,49,35,29,5,51,5,0,0,0,0,0,0,0,0,0,0,0,0,0,0,0,0],"split_type":[0,0,0,0,0,0,0,0,0,0,0,0,0,0,0,0,0,0,0,0,0,0,0,0,0,0,0,0,0,0,0],"sum_hessian":[2.5633015E3,2.1180205E3,4.452811E2,3.2331323E2,1.7947073E3,1.4074176E2,3.0453937E2,1.5405887E2,1.6925438E2,2.7153766E2,1.5231697E3,1.3304771E2,7.69404E0,7.5287795E0,2.970106E2,7.102822E0,1.4695604E2,1.3552707E2,3.3727318E1,2.1047813E2,6.105952E1,1.4825962E3,4.0573395E1,1.2304299E2,1.0004721E1,6.500431E0,1.193609E0,3.3408952E0,4.1878843E0,1.3251347E2,1.644971E2],"tree_param":{"num_deleted":"0","num_feature":"64","num_nodes":"31","size_leaf_vector":"1"}},{"base_weights":[-4.4347E-3,-3.8576466E-1,6.2685154E-2,-6.1828834E-1,2.3898813E-1,1.3709843E-2,5.6445247E-1,-6.89524E-1,3.6667734E-1,6.139941E-1,-2.4377996E-1,3.139964E-1,-5.2288648E-2,-1.0643051E0,6.211451E-1,-8.6730905E-2,-3.236462E-2,-7.6559655E-2,1.083815E-1,-1.1374152E-1,7.065847E-2,6.178703E-3,-1.0426271E-1,-9.339123E-2,3.7155144E-2,-5.9012808E-2,2.4087702E-4,-1.8616904E-1,7.46835E-2,6.6673525E-2,-8.960078E-2],"categories":[],"categories_nodes":[],"categories_segments":[],"categories_sizes":[],"default_left":[0,0,0,0,0,0,0,0,0,0,0,0,0,0,0,0,0,0,0,0,0,0,0,0,0,0,0,0,0,0,0],"id":35,"left_children":[1,3,5,7,9,11,13,15,17,19,21,23,25,27,29,-1,-1,-1,-1,-1,-1,-1,-1,-1,-1,-1,-1,-1,-1,-1,-1],"loss_changes":[6.5761856E1,5.6011887E1,5.3683094E1,1.993599E1,1.916367E1,3.9486473E1,1.8599186E1,1.6758842E1,1.6723038E1,1.0435295E1,1.1447245E1,2.6131054E1,4.8059002E1,1.1359392E1,1.3625839E1,0E0,0E0,0E0,0E0,0E0,0E0,0E0,0E0,0E0,0E0,0E0,0E0,0E0,0E0,0E0,0E0],"parents":[2147483647,0,0,1,1,2,2,3,3,4,4,5,5,6,6,7,7,8,8,9,9,10,10,11,11,12,12,13,13,14,14],"right_children":[2,4,6,8,10,12,14,16,18,20,22,24,26,28,30,-1,-1,-1,-1,-1,-1,-1,-1,-1,-1,-1,-1,-1,-1,-1,-1],"split_conditions":[-6.063544E-1,1.3610916E0,1.0366409E0,1.6238434E0,1.6480188E-1,-9.899567E-1,-7.429079E-1,3.8256553E-1,-6.407621E-1,-6.431586E-1,4.5329288E-1,-1.2734648E0,-8.643309E-1,1.5112387E0,2.5831137E0,-8.6730905E-2,-3.236462E-2,-7.6559655E-2,1.083815E-1,-1.1374152E-1,7.065847E-2,6.178703E-3,-1.0426271E-1,-9.339123E-2,3.7155144E-2,-5.9012808E-2,2.4087702E-4,-1.8616904E-1,7.46835E-2,6.6673525E-2,-8.960078E-2],"split_indices":[53,55,62,28,24,2,45,45,16,51,63,19,30,25,40,0,0,0,0,0,0,0,0,0,0,0,0,0,0,0,0],"split_type":[0,0,0,0,0,0,0,0,0,0,0,0,0,0,0,0,0,0,0,0,0,0,0,0,0,0,0,0,0,0,0],"sum_hessian":[2.567399E3,3.8355414E2,2.1838447E3,2.7952823E2,1.0402591E2,1.9905802E3,1.9326447E2,2.6095514E2,1.857309E1,5.8394352E1,4.5631557E1,3.5799246E2,1.6325878E3,5.902909E0,1.8736156E2,1.7469698E2,8.625816E1,7.1757975E0,1.1397292E1,2.3654754E0,5.6028877E1,3.3673687E1,1.1957868E1,1.5111798E1,3.4288068E2,1.498015E2,1.4827863E3,4.0791035E0,1.8238056E0,1.8243982E2,4.9217415E0],"tree_param":{"num_deleted":"0","num_feature":"64","num_nodes":"31","size_leaf_vector":"1"}},{"base_weights":[1.7244216E-3,2.4099864E-1,-9.510117E-2,4.715338E-1,6.285231E-2,-2.9783356E-1,3.693603E-2,4.9095008E-1,-1.9851129E-1,-2.1685086E-1,2.9101267E-1,-5.256311E-1,-3.4377046E-2,-2.731001E-1,1.3213898E-1,-4.1727405E-2,5.3265095E-2,4.077337E-3,-9.416241E-2,3.6715977E-2,-3.6392268E-2,-3.6357325E-2,-9.0274E-2,-8.519847E-2,5.649626E-3,-1.0693194E-1,-1.241758E-2,4.3623984E-2,2.4148605E-3],"categories":[],"categories_nodes":[],"categories_segments":[],"categories_sizes":[],"default_left":[0,0,0,0,0,0,0,0,0,0,0,0,0,0,0,0,0,0,0,0,0,0,0,0,0,0,0,0,0],"id":36,"left_children":[1,3,5,7,9,11,13,15,-1,17,19,21,23,25,27,-1,-1,-1,-1,-1,-1,-1,-1,-1,-1,-1,-1,-1,-1],"loss_changes":[5.8884193E1,3.0041332E1,4.844639E1,1.6191437E1,2.6495388E1,4.281891E1,3.2405567E1,1.2240303E1,0E0,3.4889328E1,1.1531158E1,2.3061302E1,2.4719124E1,3.0455812E1,2.7565086E1,0E0,0E0,0E0,0E0,0E0,0E0,0E0,0E0,0E0,0E0,0E0,0E0,0E0,0E0],"parents":[2147483647,0,0,1,1,2,2,3,3,4,4,5,5,6,6,7,7,9,9,10,10,11,11,12,12,13,13,14,14],"right_children":[2,4,6,8,10,12,14,16,-1,18,20,22,24,26,28,-1,-1,-1,-1,-1,-1,-1,-1,-1,-1,-1,-1,-1,-1],"split_conditions":[-9.939026E-1,-4.5915788E-1,-6.73315E-2,2.056146E0,-1.0019386E-2,-8.020683E-2,-7.38399E-1,-1.2488338E0,-1.9851129E-1,-2.8645906E-1,6.1561394E-1,2.453048E-1,-1.0999222E0,-4.966367E-1,-6.3300157E-1,-4.1727405E-2,5.3265095E-2,4.077337E-3,-9.416241E-2,3.6715977E-2,-3.6392268E-2,-3.6357325E-2,-9.0274E-2,-8.519847E-2,5.649626E-3,-1.0693194E-1,-1.241758E-2,4.3623984E-2,2.4148605E-3],"split_indices":[26,50,28,2,59,25,9,47,0,32,32,40,39,45,20,0,0,0,0,0,0,0,0,0,0,0,0,0,0],"split_type":[0,0,0,0,0,0,0,0,0,0,0,0,0,0,0,0,0,0,0,0,0,0,0,0,0,0,0,0,0],"sum_hessian":[2.5396426E3,7.3120605E2,1.8084365E3,3.1801855E2,4.1318753E2,7.127741E2,1.0956625E3,3.1631863E2,1.699891E0,1.8564894E2,2.2753859E2,3.8172266E2,3.3105142E2,2.5696533E2,8.386971E2,1.3490736E1,3.028279E2,1.3766057E2,4.7988384E1,2.0423257E2,2.330602E1,2.6836166E2,1.1336101E2,3.2276543E1,2.9877487E2,3.9515682E1,2.1744966E2,2.1898784E2,6.197092E2],"tree_param":{"num_deleted":"0","num_feature":"64","num_nodes":"29","size_leaf_vector":"1"}},{"base_weights":[-2.0504883E-2,-2.1200445E-1,9.017928E-2,-1.5629715E-1,-8.6546946E-1,1.9948511E-1,-1.306436E-1,-2.2980024E-1,1.9830154E-1,-9.8511803E-1,5.4445124E-1,-1.0023756E-1,2.8147176E-1,-3.5657373E-1,8.836552E-2,-1.2404232E-2,-5.7585847E-2,5.260503E-2,-4.211778E-2,-1.0458708E-1,7.445489E-2,1.3979852E-1,-8.448185E-2,5.435336E-3,-1.2015642E-1,-4.099675E-2,3.15133E-2,-3.88419E-2,2.5345364E-1,1.9490695E-2,-9.7774066E-2],"categories":[],"categories_nodes":[],"categories_segments":[],"categories_sizes":[],"default_left":[0,0,0,0,0,0,0,0,0,0,0,0,0,0,0,0,0,0,0,0,0,0,0,0,0,0,0,0,0,0,0],"id":37,"left_children":[1,3,5,7,9,11,13,15,17,19,21,23,25,27,29,-1,-1,-1,-1,-1,-1,-1,-1,-1,-1,-1,-1,-1,-1,-1,-1],"loss_changes":[5.3115707E1,3.3276814E1,3.836052E1,2.2120968E1,1.2661903E1,2.6143055E1,2.6080877E1,2.5620964E1,2.9855703E1,7.7784195E0,8.6119795E0,3.9053734E1,1.9557373E1,2.4860603E1,3.064519E1,0E0,0E0,0E0,0E0,0E0,0E0,0E0,0E0,0E0,0E0,0E0,0E0,0E0,0E0,0E0,0E0],"parents":[2147483647,0,0,1,1,2,2,3,3,4,4,5,5,6,6,7,7,8,8,9,9,10,10,11,11,12,12,13,13,14,14],"right_children":[2,4,6,8,10,12,14,16,18,20,22,24,26,28,30,-1,-1,-1,-1,-1,-1,-1,-1,-1,-1,-1,-1,-1,-1,-1,-1],"split_conditions":[-5.7211664E-2,8.616978E-1,-2.5028499E-2,1.0298784E0,2.7331686E0,-5.550394E-1,-2.281717E-1,1.3599521E-1,5.694474E-1,1.1176817E0,-1.4597085E-1,5.5900866E-1,-1.3384517E0,8.5594386E-1,1.6546276E0,-1.2404232E-2,-5.7585847E-2,5.260503E-2,-4.211778E-2,-1.0458708E-1,7.445489E-2,1.3979852E-1,-8.448185E-2,5.435336E-3,-1.2015642E-1,-4.099675E-2,3.15133E-2,-3.88419E-2,2.5345364E-1,1.9490695E-2,-9.7774066E-2],"split_indices":[54,40,36,16,24,28,29,11,49,53,32,11,58,24,35,0,0,0,0,0,0,0,0,0,0,0,0,0,0,0,0],"split_type":[0,0,0,0,0,0,0,0,0,0,0,0,0,0,0,0,0,0,0,0,0,0,0,0,0,0,0,0,0,0,0],"sum_hessian":[2.5040322E3,9.168442E2,1.5871881E3,8.459656E2,7.0878624E1,1.0617338E3,5.254544E2,7.0100867E2,1.4495686E2,6.561197E1,5.2666607E0,2.2800003E2,8.337337E2,2.583313E2,2.6712308E2,5.3796204E2,1.6304668E2,9.489922E1,5.005764E1,6.376753E1,1.8444359E0,3.2584648E0,2.0081959E0,2.0076913E2,2.7230898E1,3.818534E1,7.955484E2,2.5637305E2,1.9582691E0,2.4359644E2,2.3526655E1],"tree_param":{"num_deleted":"0","num_feature":"64","num_nodes":"31","size_leaf_vector":"1"}},{"base_weights":[-2.5307871E-2,2.0649588E-2,-4.9317962E-1,-1.9491667E-1,9.6489534E-2,-1.11321E-1,-8.158988E-1,-9.008078E-3,-4.5673072E-1,1.8486341E-2,3.3740714E-1,-5.978385E-1,2.5467855E-1,7.064506E-1,-8.644386E-1,-6.2226087E-2,1.0096657E-2,-6.6722736E-2,-9.98738E-3,-5.9592437E-2,7.0067295E-3,3.7699003E-2,-8.5926555E-2,-7.821656E-2,2.161072E-1,2.2343242E-1,8.030119E-3,-7.456615E-2,2.689508E-1,5.506232E-2,-9.227799E-2],"categories":[],"categories_nodes":[],"categories_segments":[],"categories_sizes":[],"default_left":[0,0,0,0,0,0,0,0,0,0,0,0,0,0,0,0,0,0,0,0,0,0,0,0,0,0,0,0,0,0,0],"id":38,"left_children":[1,3,5,7,9,11,13,15,17,19,21,23,25,27,29,-1,-1,-1,-1,-1,-1,-1,-1,-1,-1,-1,-1,-1,-1,-1,-1],"loss_changes":[5.3231453E1,3.6880405E1,2.7195549E1,2.8573893E1,3.1350609E1,1.841744E1,9.466568E0,2.3287203E1,1.8245266E1,4.0022385E1,1.965261E1,2.4237139E1,2.0270409E1,1.4253774E1,1.0133499E1,0E0,0E0,0E0,0E0,0E0,0E0,0E0,0E0,0E0,0E0,0E0,0E0,0E0,0E0,0E0,0E0],"parents":[2147483647,0,0,1,1,2,2,3,3,4,4,5,5,6,6,7,7,8,8,9,9,10,10,11,11,12,12,13,13,14,14],"right_children":[2,4,6,8,10,12,14,16,18,20,22,24,26,28,30,-1,-1,-1,-1,-1,-1,-1,-1,-1,-1,-1,-1,-1,-1,-1,-1],"split_conditions":[6.877125E-1,-5.35023E-1,-5.749016E-2,-3.5290128E-1,7.760193E-1,-5.9239507E-2,-1.0742369E0,-1.3210603E0,1.6818525E-1,-5.935638E-1,2.1034951E0,1.1120611E0,-3.058828E-1,1.4608634E-1,-5.7164675E-1,-6.2226087E-2,1.0096657E-2,-6.6722736E-2,-9.98738E-3,-5.9592437E-2,7.0067295E-3,3.7699003E-2,-8.5926555E-2,-7.821656E-2,2.161072E-1,2.2343242E-1,8.030119E-3,-7.456615E-2,2.689508E-1,5.506232E-2,-9.227799E-2],"split_indices":[49,25,41,41,43,9,0,7,15,53,35,1,13,12,21,0,0,0,0,0,0,0,0,0,0,0,0,0,0,0,0],"split_type":[0,0,0,0,0,0,0,0,0,0,0,0,0,0,0,0,0,0,0,0,0,0,0,0,0,0,0,0,0,0,0],"sum_hessian":[2.474155E3,2.2537341E3,2.2042082E2,5.8613715E2,1.667597E3,1.0157581E2,1.18845E2,3.433594E2,2.4277779E2,1.2605414E3,4.070556E2,4.3336212E1,5.8239597E1,3.253445E0,1.1559156E2,5.1503223E1,2.9185617E2,1.5215656E2,9.0621216E1,9.681139E1,1.16373E3,3.9468536E2,1.2370217E1,4.1293804E1,2.0424082E0,3.7584188E0,5.448118E1,2.2383652E0,1.0150796E0,4.2428823E0,1.1134868E2],"tree_param":{"num_deleted":"0","num_feature":"64","num_nodes":"31","size_leaf_vector":"1"}},{"base_weights":[-1.0166388E-3,-1.804559E-1,1.00840196E-1,-5.165704E-1,-8.7005086E-2,-3.297335E-2,2.5938025E-1,2.7773175E-1,-7.032966E-1,-2.8395273E-2,-8.8382345E-1,6.402147E-1,-7.6077245E-2,3.586303E-1,-1.2719612E-1,-7.51968E-2,5.4303944E-2,-4.418481E-2,-1.296299E-1,-7.521477E-2,1.3193339E-3,-1.0512487E-1,2.4266236E-2,7.192503E-2,-1.5331154E-1,-4.0940706E-2,2.1159728E-3,3.929492E-2,-8.096751E-2,-4.0429395E-2,3.7651815E-2],"categories":[],"categories_nodes":[],"categories_segments":[],"categories_sizes":[],"default_left":[0,0,0,0,0,0,0,0,0,0,0,0,0,0,0,0,0,0,0,0,0,0,0,0,0,0,0,0,0,0,0],"id":39,"left_children":[1,3,5,7,9,11,13,15,17,19,21,23,25,27,29,-1,-1,-1,-1,-1,-1,-1,-1,-1,-1,-1,-1,-1,-1,-1,-1],"loss_changes":[4.4752357E1,2.7803698E1,3.3144768E1,2.8772709E1,3.242931E1,2.4652496E1,2.7479683E1,1.06229925E1,2.3657906E1,1.9525297E1,9.228859E0,9.88537E0,2.5866238E1,2.3140884E1,2.0644028E1,0E0,0E0,0E0,0E0,0E0,0E0,0E0,0E0,0E0,0E0,0E0,0E0,0E0,0E0,0E0,0E0],"parents":[2147483647,0,0,1,1,2,2,3,3,4,4,5,5,6,6,7,7,8,8,9,9,10,10,11,11,12,12,13,13,14,14],"right_children":[2,4,6,8,10,12,14,16,18,20,22,24,26,28,30,-1,-1,-1,-1,-1,-1,-1,-1,-1,-1,-1,-1,-1,-1,-1,-1],"split_conditions":[-5.7211664E-2,-3.8640153E-1,-4.1145924E-1,-1.0464864E0,1.1253676E0,-1.2754025E0,-1.3779275E-2,-2.7991605E-1,-6.615508E-1,-1.4569337E0,1.78701E0,1.1327729E0,-5.7991713E-1,2.1034951E0,1.0463462E0,-7.51968E-2,5.4303944E-2,-4.418481E-2,-1.296299E-1,-7.521477E-2,1.3193339E-3,-1.0512487E-1,2.4266236E-2,7.192503E-2,-1.5331154E-1,-4.0940706E-2,2.1159728E-3,3.929492E-2,-8.096751E-2,-4.0429395E-2,3.7651815E-2],"split_indices":[54,44,6,26,35,2,49,10,63,27,42,8,48,35,59,0,0,0,0,0,0,0,0,0,0,0,0,0,0,0,0],"split_type":[0,0,0,0,0,0,0,0,0,0,0,0,0,0,0,0,0,0,0,0,0,0,0,0,0,0,0,0,0,0,0],"sum_hessian":[2.4465505E3,8.8561237E2,1.5609381E3,1.9167766E2,6.939347E2,8.469086E2,7.1402954E2,3.6390625E1,1.5528703E2,6.473543E2,4.658038E1,5.0130333E1,7.967783E2,5.682171E2,1.4581241E2,7.079537E0,2.931109E1,1.0898278E2,4.6304253E1,3.4248795E1,6.131055E2,4.0611275E1,5.969104E0,4.9016838E1,1.113496E0,1.7921527E2,6.1756305E2,5.526468E2,1.55703E1,9.419322E1,5.1619183E1],"tree_param":{"num_deleted":"0","num_feature":"64","num_nodes":"31","size_leaf_vector":"1"}},{"base_weights":[-2.1445347E-2,9.205257E-2,-1.6121092E-1,2.5342903E-1,-6.7056365E-2,-8.789547E-1,-1.0968231E-1,2.7849376E-1,-8.667951E-1,-1.6695312E-1,3.845958E-1,2.187476E-1,-1.0257361E0,8.6121744E-4,-3.6809966E-1,1.8317996E-2,5.3649742E-2,-1.2752614E-2,-2.4712579E-1,-5.813697E-3,-5.7246465E-2,2.1756208E-2,1.3021776E-1,8.065861E-2,-1.173689E-1,-1.2013537E-1,1.681586E-2,-5.1582288E-2,9.695845E-3,-5.1252425E-2,2.9212663E-2],"categories":[],"categories_nodes":[],"categories_segments":[],"categories_sizes":[],"default_left":[0,0,0,0,0,0,0,0,0,0,0,0,0,0,0,0,0,0,0,0,0,0,0,0,0,0,0,0,0,0,0],"id":40,"left_children":[1,3,5,7,9,11,13,15,17,19,21,23,25,27,29,-1,-1,-1,-1,-1,-1,-1,-1,-1,-1,-1,-1,-1,-1,-1,-1],"loss_changes":[3.8588364E1,3.4489243E1,4.021976E1,1.8962242E1,3.0601458E1,1.1966213E1,2.908694E1,1.5957554E1,1.7280907E1,2.4453808E1,1.855153E1,8.65685E0,1.3716408E1,3.550871E1,2.92387E1,0E0,0E0,0E0,0E0,0E0,0E0,0E0,0E0,0E0,0E0,0E0,0E0,0E0,0E0,0E0,0E0],"parents":[2147483647,0,0,1,1,2,2,3,3,4,4,5,5,6,6,7,7,8,8,9,9,10,10,11,11,12,12,13,13,14,14],"right_children":[2,4,6,8,10,12,14,16,18,20,22,24,26,28,30,-1,-1,-1,-1,-1,-1,-1,-1,-1,-1,-1,-1,-1,-1,-1,-1],"split_conditions":[-2.5098956E-1,-7.7617615E-1,-9.152655E-1,8.8556856E-1,8.9676374E-1,-1.203931E0,6.383398E-2,8.665784E-1,-8.734978E-1,1.9368524E-2,9.490917E-1,4.1213438E-1,7.4445426E-1,-1.3735094E0,1.549115E0,1.8317996E-2,5.3649742E-2,-1.2752614E-2,-2.4712579E-1,-5.813697E-3,-5.7246465E-2,2.1756208E-2,1.3021776E-1,8.065861E-2,-1.173689E-1,-1.2013537E-1,1.681586E-2,-5.1582288E-2,9.695845E-3,-5.1252425E-2,2.9212663E-2],"split_indices":[36,26,30,3,6,2,11,25,61,33,10,61,4,27,12,0,0,0,0,0,0,0,0,0,0,0,0,0,0,0,0],"split_type":[0,0,0,0,0,0,0,0,0,0,0,0,0,0,0,0,0,0,0,0,0,0,0,0,0,0,0,0,0,0,0],"sum_hessian":[2.4306511E3,1.3415635E3,1.0890876E3,6.6574146E2,6.75822E2,7.187538E1,1.0172122E3,6.519066E2,1.383485E1,5.5393304E2,1.2188896E2,8.419556E0,6.3455822E1,7.131456E2,3.0406656E2,4.7729163E2,1.7461499E2,1.0209996E1,3.6248546E0,4.3763907E2,1.16293976E2,1.04164314E2,1.7724644E1,6.21608E0,2.2034757E0,5.53132E1,8.14262E0,1.1115154E2,6.019941E2,2.4967406E2,5.4392517E1],"tree_param":{"num_deleted":"0","num_feature":"64","num_nodes":"31","size_leaf_vector":"1"}},{"base_weights":[1.868719E-2,8.2010955E-2,-2.0099695E-1,1.9929491E-1,-8.371031E-2,-5.843117E-1,-6.7227915E-2,-3.647687E-2,2.945921E-1,3.880713E-2,-4.0862855E-1,5.817787E-1,-7.165696E-1,6.336875E-2,-5.447426E-1,-4.3399844E-2,1.6064845E-2,-1.0777592E-1,3.161148E-2,-8.555297E-2,8.197029E-3,-6.8744205E-2,-9.534569E-3,-1.4644108E-2,2.5459772E-1,-9.626934E-2,-1.8781116E-2,-8.758134E-3,4.7506526E-2,-9.376531E-2,8.943907E-3],"categories":[],"categories_nodes":[],"categories_segments":[],"categories_sizes":[],"default_left":[0,0,0,0,0,0,0,0,0,0,0,0,0,0,0,0,0,0,0,0,0,0,0,0,0,0,0,0,0,0,0],"id":41,"left_children":[1,3,5,7,9,11,13,15,17,19,21,23,25,27,29,-1,-1,-1,-1,-1,-1,-1,-1,-1,-1,-1,-1,-1,-1,-1,-1],"loss_changes":[3.391108E1,3.679104E1,2.7929596E1,2.4910774E1,3.1257526E1,2.2159504E1,2.5321058E1,2.5136726E1,2.365503E1,2.2105246E1,1.8712704E1,2.1703966E1,1.6355728E1,1.9884495E1,2.1808184E1,0E0,0E0,0E0,0E0,0E0,0E0,0E0,0E0,0E0,0E0,0E0,0E0,0E0,0E0,0E0,0E0],"parents":[2147483647,0,0,1,1,2,2,3,3,4,4,5,5,6,6,7,7,8,8,9,9,10,10,11,11,12,12,13,13,14,14],"right_children":[2,4,6,8,10,12,14,16,18,20,22,24,26,28,30,-1,-1,-1,-1,-1,-1,-1,-1,-1,-1,-1,-1,-1,-1,-1,-1],"split_conditions":[6.0183246E-2,2.193779E-1,-4.1111678E-1,-3.9395413E-1,-1.6400349E-1,-1.1465517E0,1.2026799E0,-3.939695E-1,-1.4515846E0,-1.2194347E0,-1.0019386E-2,-7.8702617E-1,2.9629996E-1,1.1936733E0,2.0105028E0,-4.3399844E-2,1.6064845E-2,-1.0777592E-1,3.161148E-2,-8.555297E-2,8.197029E-3,-6.8744205E-2,-9.534569E-3,-1.4644108E-2,2.5459772E-1,-9.626934E-2,-1.8781116E-2,-8.758134E-3,4.7506526E-2,-9.376531E-2,8.943907E-3],"split_indices":[40,19,43,28,49,55,40,45,58,6,59,38,9,5,46,0,0,0,0,0,0,0,0,0,0,0,0,0,0,0,0],"split_type":[0,0,0,0,0,0,0,0,0,0,0,0,0,0,0,0,0,0,0,0,0,0,0,0,0,0,0,0,0,0,0],"sum_hessian":[2.435492E3,1.8910308E3,5.4446124E2,1.1072249E3,7.838058E2,1.3998024E2,4.0448102E2,3.1888904E2,7.883359E2,5.698225E2,2.1398332E2,1.39130335E1,1.2606721E2,3.182966E2,8.6184425E1,1.053133E2,2.1357573E2,1.141484E1,7.76921E2,2.5368502E1,5.44454E2,1.1258834E2,1.0139498E2,1.0825107E1,3.0879264E0,8.546481E1,4.060239E1,2.334782E2,8.48184E1,5.291941E1,3.326502E1],"tree_param":{"num_deleted":"0","num_feature":"64","num_nodes":"31","size_leaf_vector":"1"}},{"base_weights":[-2.512344E-3,7.1728356E-2,-2.1445628E-1,-3.9459696E-1,1.0547148E-1,-7.3312086E-1,-1.3593328E-1,5.943171E-1,-5.617755E-1,-2.2021827E-1,1.5663049E-1,5.3491253E-2,-8.995137E-1,-4.6821916E-1,2.243986E-2,7.403009E-2,-8.857102E-2,-4.394807E-2,-1.7205177E-1,-3.186894E-2,9.557913E-2,5.812103E-3,3.3228483E-2,8.7159745E-2,-8.567375E-2,-1.3114117E-1,-5.3423613E-2,-7.213874E-2,-1.3514592E-2,-7.3033483E-3,5.5398386E-2],"categories":[],"categories_nodes":[],"categories_segments":[],"categories_sizes":[],"default_left":[0,0,0,0,0,0,0,0,0,0,0,0,0,0,0,0,0,0,0,0,0,0,0,0,0,0,0,0,0,0,0],"id":42,"left_children":[1,3,5,7,9,11,13,15,17,19,21,23,25,27,29,-1,-1,-1,-1,-1,-1,-1,-1,-1,-1,-1,-1,-1,-1,-1,-1],"loss_changes":[3.76535E1,2.7928343E1,2.5182814E1,2.0139263E1,2.7584158E1,1.0701923E1,2.8448103E1,4.503567E0,1.3838001E1,2.6346233E1,2.4717373E1,1.2032605E1,9.416351E0,1.4614254E1,1.8660645E1,0E0,0E0,0E0,0E0,0E0,0E0,0E0,0E0,0E0,0E0,0E0,0E0,0E0,0E0,0E0,0E0],"parents":[2147483647,0,0,1,1,2,2,3,3,4,4,5,5,6,6,7,7,8,8,9,9,10,10,11,11,12,12,13,13,14,14],"right_children":[2,4,6,8,10,12,14,16,18,20,22,24,26,28,30,-1,-1,-1,-1,-1,-1,-1,-1,-1,-1,-1,-1,-1,-1,-1,-1],"split_conditions":[3.0607674E-1,-1.266732E0,-5.7725763E-1,-1.1075025E0,-6.063544E-1,-3.2571098E-1,-5.7211664E-2,1.4545094E0,4.9429256E-1,2.4487708E0,4.753668E-1,-7.804361E-1,-5.3438044E-1,4.2487755E-2,1.0074778E0,7.403009E-2,-8.857102E-2,-4.394807E-2,-1.7205177E-1,-3.186894E-2,9.557913E-2,5.812103E-3,3.3228483E-2,8.7159745E-2,-8.567375E-2,-1.3114117E-1,-5.3423613E-2,-7.213874E-2,-1.3514592E-2,-7.3033483E-3,5.5398386E-2],"split_indices":[2,39,29,33,53,39,54,63,9,44,16,4,23,16,9,0,0,0,0,0,0,0,0,0,0,0,0,0,0,0,0],"split_type":[0,0,0,0,0,0,0,0,0,0,0,0,0,0,0,0,0,0,0,0,0,0,0,0,0,0,0,0,0,0,0],"sum_hessian":[2.3910203E3,1.7712428E3,6.197775E2,1.18796555E2,1.6524462E3,8.039718E1,5.393803E2,1.6809292E1,1.0198726E2,2.2387881E2,1.4285674E3,1.4155666E1,6.624151E1,1.7346774E2,3.659126E2,1.5755082E1,1.0542098E0,9.3498604E1,8.488662E0,2.072538E2,1.6625025E1,9.161233E2,5.124441E2,7.477443E0,6.6782236E0,2.9916548E1,3.6324963E1,9.789336E1,7.557439E1,3.1092786E2,5.498474E1],"tree_param":{"num_deleted":"0","num_feature":"64","num_nodes":"31","size_leaf_vector":"1"}},{"base_weights":[-8.458461E-3,2.6135975E-1,-6.0033716E-2,3.2772204E-1,-4.4674504E-1,-3.269541E-1,-3.4455587E-3,-7.407202E-1,3.6905456E-1,-1.3455541E0,9.399676E-2,-1.562169E-1,-7.224763E-1,1.564339E-2,-8.9309865E-1,7.050755E-3,-1.3026522E-1,6.607178E-2,2.5016988E-2,-1.5426132E-1,1.7405855E-2,-1.3353074E-1,4.403418E-2,-8.9817695E-2,-2.684909E-4,1.5925681E-2,-9.1545545E-2,2.4332961E-2,-4.290983E-3,-9.822445E-2,8.850438E-2],"categories":[],"categories_nodes":[],"categories_segments":[],"categories_sizes":[],"default_left":[0,0,0,0,0,0,0,0,0,0,0,0,0,0,0,0,0,0,0,0,0,0,0,0,0,0,0,0,0,0,0],"id":43,"left_children":[1,3,5,7,9,11,13,15,17,19,21,23,25,27,29,-1,-1,-1,-1,-1,-1,-1,-1,-1,-1,-1,-1,-1,-1,-1,-1],"loss_changes":[3.319269E1,1.8133455E1,3.0243097E1,1.5754166E1,1.6273182E1,2.3538754E1,2.8087654E1,6.1950455E0,1.156023E1,4.0250206E0,1.1319047E1,2.8010336E1,1.8067764E1,2.1599215E1,6.376404E0,0E0,0E0,0E0,0E0,0E0,0E0,0E0,0E0,0E0,0E0,0E0,0E0,0E0,0E0,0E0,0E0],"parents":[2147483647,0,0,1,1,2,2,3,3,4,4,5,5,6,6,7,7,8,8,9,9,10,10,11,11,12,12,13,13,14,14],"right_children":[2,4,6,8,10,12,14,16,18,20,22,24,26,28,30,-1,-1,-1,-1,-1,-1,-1,-1,-1,-1,-1,-1,-1,-1,-1,-1],"split_conditions":[-1.044332E0,9.826907E-1,-6.751549E-1,-1.3512226E0,-5.6647074E-1,1.9855163E-1,2.1034951E0,-1.0099121E0,-1.0415074E0,1.6898982E-2,-1.7028258E0,-1.142711E0,-7.863414E-1,-1.0851569E0,2.6261582E0,7.050755E-3,-1.3026522E-1,6.607178E-2,2.5016988E-2,-1.5426132E-1,1.7405855E-2,-1.3353074E-1,4.403418E-2,-8.9817695E-2,-2.684909E-4,1.5925681E-2,-9.1545545E-2,2.4332961E-2,-4.290983E-3,-9.822445E-2,8.850438E-2],"split_indices":[2,48,29,19,24,49,35,24,49,39,59,16,2,49,53,0,0,0,0,0,0,0,0,0,0,0,0,0,0,0,0],"split_type":[0,0,0,0,0,0,0,0,0,0,0,0,0,0,0,0,0,0,0,0,0,0,0,0,0,0,0,0,0,0,0],"sum_hessian":[2.3831E3,3.8177258E2,2.0013275E3,3.495505E2,3.2222057E1,3.4923676E2,1.6520908E3,1.2388469E1,3.3716205E2,1.1544574E1,2.0677483E1,2.4491005E2,1.0432669E2,1.6183489E3,3.3741882E1,5.427556E0,6.9609127E0,9.6314156E1,2.408479E2,1.0205958E1,1.3386157E0,3.4762392E0,1.7201244E1,4.1158245E1,2.037518E2,1.8764647E1,8.556204E1,3.3040436E2,1.2879446E3,3.2557247E1,1.1846327E0],"tree_param":{"num_deleted":"0","num_feature":"64","num_nodes":"31","size_leaf_vector":"1"}},{"base_weights":[-1.0699977E-2,4.353058E-2,-2.836663E-1,6.965555E-2,-6.2622833E-1,-4.2523122E-1,2.3606572E-1,2.40054E-2,4.2302024E-1,-7.272755E-1,1.9870552E0,-7.230379E-1,-1.6513948E-1,-1.6075683E0,3.7518153E-1,8.585649E-3,-2.394558E-2,4.632488E-2,-1.7307039E-1,-1.0627373E-1,-1.964081E-2,2.4620472E-1,5.4384846E-2,8.293381E-2,-7.788374E-2,-1.6718124E-1,-9.367798E-3,-2.6144463E-1,1.624003E-2,6.238671E-2,-3.7854515E-2],"categories":[],"categories_nodes":[],"categories_segments":[],"categories_sizes":[],"default_left":[0,0,0,0,0,0,0,0,0,0,0,0,0,0,0,0,0,0,0,0,0,0,0,0,0,0,0,0,0,0,0],"id":44,"left_children":[1,3,5,7,9,11,13,15,17,19,21,23,25,27,29,-1,-1,-1,-1,-1,-1,-1,-1,-1,-1,-1,-1,-1,-1,-1,-1],"loss_changes":[3.517428E1,3.4731987E1,2.9076239E1,3.0783508E1,2.1125038E1,2.3882507E1,2.2390831E1,2.7586084E1,1.9718815E1,1.2699703E1,7.4659824E-1,1.3133911E1,1.7792568E1,1.1383925E1,1.5193921E1,0E0,0E0,0E0,0E0,0E0,0E0,0E0,0E0,0E0,0E0,0E0,0E0,0E0,0E0,0E0,0E0],"parents":[2147483647,0,0,1,1,2,2,3,3,4,4,5,5,6,6,7,7,8,8,9,9,10,10,11,11,12,12,13,13,14,14],"right_children":[2,4,6,8,10,12,14,16,18,20,22,24,26,28,30,-1,-1,-1,-1,-1,-1,-1,-1,-1,-1,-1,-1,-1,-1,-1,-1],"split_conditions":[3.4495714E-1,1.3834254E0,1.3413063E0,8.584092E-1,2.917476E-1,5.060298E-1,-7.851556E-1,9.556482E-1,2.8031507E-1,8.653972E-1,3.5743487E-1,-9.1310817E-1,-8.7948084E-1,8.1087726E-1,2.3972397E0,8.585649E-3,-2.394558E-2,4.632488E-2,-1.7307039E-1,-1.0627373E-1,