{"learner":{"attributes":{},"feature_names":[],"feature_types":[],"gradient_booster":{"model":{"cats":{"enc":[],"feature_segments":[],"sorted_idx":[]},"gbtree_model_param":{"num_parallel_tree":"1","num_trees":"200"},"iteration_indptr":[0,1,2,3,4,5,6,7,8,9,10,11,12,13,14,15,16,17,18,19,20,21,22,23,24,25,26,27,28,29,30,31,32,33,34,35,36,37,38,39,40,41,42,43,44,45,46,47,48,49,50,51,52,53,54,55,56,57,58,59,60,61,62,63,64,65,66,67,68,69,70,71,72,73,74,75,76,77,78,79,80,81,82,83,84,85,86,87,88,89,90,91,92,93,94,95,96,97,98,99,100,101,102,103,104,105,106,107,108,109,110,111,112,113,114,115,116,117,118,119,120,121,122,123,124,125,126,127,128,129,130,131,132,133,134,135,136,137,138,139,140,141,142,143,144,145,146,147,148,149,150,151,152,153,154,155,156,157,158,159,160,161,162,163,164,165,166,167,168,169,170,171,172,173,174,175,176,177,178,179,180,181,182,183,184,185,186,187,188,189,190,191,192,193,194,195,196,197,198,199,200],"tree_info":[0,0,0,0,0,0,0,0,0,0,0,0,0,0,0,0,0,0,0,0,0,0,0,0,0,0,0,0,0,0,0,0,0,0,0,0,0,0,0,0,0,0,0,0,0,0,0,0,0,0,0,0,0,0,0,0,0,0,0,0,0,0,0,0,0,0,0,0,0,0,0,0,0,0,0,0,0,0,0,0,0,0,0,0,0,0,0,0,0,0,0,0,0,0,0,0,0,0,0,0,0,0,0,0,0,0,0,0,0,0,0,0,0,0,0,0,0,0,0,0,0,0,0,0,0,0,0,0,0,0,0,0,0,0,0,0,0,0,0,0,0,0,0,0,0,0,0,0,0,0,0,0,0,0,0,0,0,0,0,0,0,0,0,0,0,0,0,0,0,0,0,0,0,0,0,0,0,0,0,0,0,0,0,0,0,0,0,0,0,0,0,0,0,0,0,0,0,0,0,0],"trees":[{"base_weights":[2.8213449E-3,9.966987E-1,-1.184211E0,-3.5775092E-1,1.4018831E0,-1.5663419E0,2.1984227E-2,-8.8001806E-1,1.3670008E-1,1.6839194E0,7.7119887E-1,1.902293E-1,-1.64522E0,8.601343E-1,-4.3267742E-1,-1.1986873E-1,-2.203629E-2,6.5691195E-2,-4.272744E-2,1.332194E-1,1.8020882E-1,3.159405E-2,1.2606396E-1,-6.4646944E-2,5.8652956E-2,-1.2730251E-1,-1.8485409E-1,1.2987992E-1,4.015531E-2,-2.0315928E-2,-1.6600099E-1],"categories":[],"categories_nodes":[],"categories_segments":[],"categories_sizes":[],"default_left":[0,0,0,0,0,0,0,0,0,0,0,0,0,0,0,0,0,0,0,0,0,0,0,0,0,0,0,0,0,0,0],"id":0,"left_children":[1,3,5,7,9,11,13,15,17,19,21,23,25,27,29,-1,-1,-1,-1,-1,-1,-1,-1,-1,-1,-1,-1,-1,-1,-1,-1],"loss_changes":[6.152892E3,1.5583464E3,1.0955264E3,1.6911923E2,3.8739404E2,2.5039502E2,2.1865031E2,6.666745E1,9.916254E1,6.0322754E1,1.5047061E2,2.6396238E1,1.2837305E2,4.0068848E1,1.0445844E2,0E0,0E0,0E0,0E0,0E0,0E0,0E0,0E0,0E0,0E0,0E0,0E0,0E0,0E0,0E0,0E0],"parents":[2147483647,0,0,1,1,2,2,3,3,4,4,5,5,6,6,7,7,8,8,9,9,10,10,11,11,12,12,13,13,14,14],"right_children":[2,4,6,8,10,12,14,16,18,20,22,24,26,28,30,-1,-1,-1,-1,-1,-1,-1,-1,-1,-1,-1,-1,-1,-1,-1,-1],"split_conditions":[-3.136404E-1,-2.4419504E-1,3.2165274E-1,-6.3001287E-1,-3.6136615E-1,-4.9703914E-1,-2.2905664E-1,4.1069326E-1,-6.10943E-1,3.8554683E-1,7.124911E-1,-1.0272924E0,3.045396E-1,-4.070977E-1,1.2417624E0,-1.1986873E-1,-2.203629E-2,6.5691195E-2,-4.272744E-2,1.332194E-1,1.8020882E-1,3.159405E-2,1.2606396E-1,-6.4646944E-2,5.8652956E-2,-1.2730251E-1,-1.8485409E-1,1.2987992E-1,4.015531E-2,-2.0315928E-2,-1.6600099E-1],"split_indices":[27,19,19,19,13,13,13,28,9,19,19,46,27,13,27,0,0,0,0,0,0,0,0,0,0,0,0,0,0,0,0],"split_type":[0,0,0,0,0,0,0,0,0,0,0,0,0,0,0,0,0,0,0,0,0,0,0,0,0,0,0,0,0,0,0],"sum_hessian":[5.213356E3,2.837629E3,2.375727E3,6.5343726E2,2.1841917E3,1.8039307E3,5.7179626E2,3.174008E2,3.3603647E2,1.5081089E3,6.760827E2,7.746298E1,1.7264678E3,2.0077815E2,3.710181E2,2.1346298E2,1.03937805E2,1.7471446E2,1.6132199E2,3.8234482E2,1.125764E3,3.511253E2,3.2495737E2,2.469461E1,5.2768368E1,6.124997E2,1.113968E3,1.0168099E2,9.909716E1,3.135483E2,5.7469788E1],"tree_param":{"num_deleted":"0","num_feature":"64","num_nodes":"31","size_leaf_vector":"1"}},{"base_weights":[-7.892063E-5,8.462805E-1,-1.1266134E0,-3.114945E-1,1.2542052E0,-1.485447E0,-2.8744275E-2,-8.659135E-1,1.1520541E-1,1.4698111E0,7.386479E-1,-1.0574821E0,-1.6538093E0,2.952243E-1,-1.0833157E0,-1.1493033E-1,-2.480076E-2,3.3544227E-2,-9.913651E-2,1.2448924E-1,1.6336241E-1,1.3370677E-2,1.1689426E-1,2.0494828E-2,-1.14722624E-1,1.5899979E-1,-1.6651785E-1,-8.379452E-3,8.906006E-2,-1.4081338E-1,5.601424E-2],"categories":[],"categories_nodes":[],"categories_segments":[],"categories_sizes":[],"default_left":[0,0,0,0,0,0,0,0,0,0,0,0,0,0,0,0,0,0,0,0,0,0,0,0,0,0,0,0,0,0,0],"id":1,"left_children":[1,3,5,7,9,11,13,15,17,19,21,23,25,27,29,-1,-1,-1,-1,-1,-1,-1,-1,-1,-1,-1,-1,-1,-1,-1,-1],"loss_changes":[4.959949E3,1.4032783E3,8.7912744E2,1.8337347E2,2.4309473E2,1.1943848E2,1.8848322E2,5.8734802E1,1.0723799E2,5.499951E1,1.689831E2,5.4348633E1,4.70979E1,9.532668E1,6.999678E1,0E0,0E0,0E0,0E0,0E0,0E0,0E0,0E0,0E0,0E0,0E0,0E0,0E0,0E0,0E0,0E0],"parents":[2147483647,0,0,1,1,2,2,3,3,4,4,5,5,6,6,7,7,8,8,9,9,10,10,11,11,12,12,13,13,14,14],"right_children":[2,4,6,8,10,12,14,16,18,20,22,24,26,28,30,-1,-1,-1,-1,-1,-1,-1,-1,-1,-1,-1,-1,-1,-1,-1,-1],"split_conditions":[-2.3246303E-1,-1.8314692E-1,2.9556343E-1,-6.394282E-1,-5.158656E-1,1.4834227E-1,1.0050632E0,5.640209E-1,5.9407372E-2,7.3373324E-1,5.8252174E-1,-9.29943E-1,-1.1219745E0,1.0494488E0,2.0670118E0,-1.1493033E-1,-2.480076E-2,3.3544227E-2,-9.913651E-2,1.2448924E-1,1.6336241E-1,1.3370677E-2,1.1689426E-1,2.0494828E-2,-1.14722624E-1,1.5899979E-1,-1.6651785E-1,-8.379452E-3,8.906006E-2,-1.4081338E-1,5.601424E-2],"split_indices":[27,19,19,19,9,57,11,10,9,19,19,60,60,19,19,0,0,0,0,0,0,0,0,0,0,0,0,0,0,0,0],"split_type":[0,0,0,0,0,0,0,0,0,0,0,0,0,0,0,0,0,0,0,0,0,0,0,0,0,0,0,0,0,0,0],"sum_hessian":[5.200091E3,2.9694255E3,2.2306653E3,7.737106E2,2.1957148E3,1.6809131E3,5.4975214E2,3.3604794E2,4.3766263E2,1.5469359E3,6.48779E2,4.766313E2,1.2042817E3,4.2110654E2,1.2864557E2,2.2979654E2,1.0625142E2,3.6559616E2,7.206647E1,6.5550824E2,8.9142773E2,2.7020914E2,3.7856985E2,3.1548891E1,4.450824E2,3.7212086E0,1.2005605E3,2.5783014E2,1.6327641E2,1.0753518E2,2.1110388E1],"tree_param":{"num_deleted":"0","num_feature":"64","num_nodes":"31","size_leaf_vector":"1"}},{"base_weights":[-3.5688605E-3,9.0590674E-1,-8.962809E-1,-3.6817506E-1,1.1740968E0,-1.302276E0,8.9408726E-2,-8.270243E-1,1.1076993E-1,1.3294152E0,3.0697703E-1,-6.7727536E-1,-1.4589715E0,1.0831474E0,-2.2479232E-1,-5.399392E-2,-1.5893875E-1,4.7612466E-2,-4.550792E-2,9.052276E-2,1.4816193E-1,-3.7515175E-3,1.0362502E-1,-1.11399435E-1,-2.4845969E-2,-1.12289526E-1,-1.554082E-1,7.233131E-2,1.3102922E-1,1.5386452E-2,-8.419576E-2],"categories":[],"categories_nodes":[],"categories_segments":[],"categories_sizes":[],"default_left":[0,0,0,0,0,0,0,0,0,0,0,0,0,0,0,0,0,0,0,0,0,0,0,0,0,0,0,0,0,0,0],"id":2,"left_children":[1,3,5,7,9,11,13,15,17,19,21,23,25,27,29,-1,-1,-1,-1,-1,-1,-1,-1,-1,-1,-1,-1,-1,-1,-1,-1],"loss_changes":[4.148131E3,8.6520435E2,1.0319309E3,9.697507E1,2.8120288E2,1.7786328E2,2.3539099E2,4.8444717E1,4.499252E1,1.1313135E2,8.016559E1,6.862891E1,4.489966E1,1.385347E1,1.3404184E2,0E0,0E0,0E0,0E0,0E0,0E0,0E0,0E0,0E0,0E0,0E0,0E0,0E0,0E0,0E0,0E0],"parents":[2147483647,0,0,1,1,2,2,3,3,4,4,5,5,6,6,7,7,8,8,9,9,10,10,11,11,12,12,13,13,14,14],"right_children":[2,4,6,8,10,12,14,16,18,20,22,24,26,28,30,-1,-1,-1,-1,-1,-1,-1,-1,-1,-1,-1,-1,-1,-1,-1,-1],"split_conditions":[-4.594958E-1,-3.6510277E-1,2.056637E-1,1.1013961E-1,-1.2653013E-1,-2.2494856E-1,-3.8181522E-1,6.4267254E-1,-8.376134E-1,2.9556343E-1,1.1036495E0,-3.719474E-1,8.9787886E-2,-2.1956677E-2,4.5670933E-1,-5.399392E-2,-1.5893875E-1,4.7612466E-2,-4.550792E-2,9.052276E-2,1.4816193E-1,-3.7515175E-3,1.0362502E-1,-1.11399435E-1,-2.4845969E-2,-1.12289526E-1,-1.554082E-1,7.233131E-2,1.3102922E-1,1.5386452E-2,-8.419576E-2],"split_indices":[27,19,19,28,13,13,13,51,11,19,19,19,27,28,27,0,0,0,0,0,0,0,0,0,0,0,0,0,0,0,0],"split_type":[0,0,0,0,0,0,0,0,0,0,0,0,0,0,0,0,0,0,0,0,0,0,0,0,0,0,0,0,0,0,0],"sum_hessian":[5.1071655E3,2.5298225E3,2.577343E3,4.3985324E2,2.0899695E3,1.8252292E3,7.521137E2,2.242682E2,2.1558504E2,1.7720304E3,3.1793903E2,3.6694464E2,1.4582847E3,1.8008931E2,5.720244E2,1.6415877E2,6.0109444E1,1.3109732E2,8.448772E1,4.6976367E2,1.3022667E3,2.1658005E2,1.0135898E2,1.810054E2,1.8593925E2,3.2449112E2,1.1337936E3,7.130884E1,1.0878048E2,3.5497998E2,2.1704443E2],"tree_param":{"num_deleted":"0","num_feature":"64","num_nodes":"31","size_leaf_vector":"1"}},{"base_weights":[9.861292E-3,9.101659E-1,-7.070341E-1,-2.273584E-1,1.1661708E0,-1.069542E0,1.976324E-1,4.1585016E-1,-7.712372E-1,1.4152492E0,8.4818816E-1,-3.4094277E-1,-1.3313203E0,6.7341226E-1,-3.640325E-1,-4.933467E-3,7.786851E-2,3.689582E-2,-9.72312E-2,1.1903651E-1,1.5034704E-1,2.1514459E-2,1.0501378E-1,-8.004152E-2,1.6117377E-2,-1.3684611E-1,-3.6130514E-2,3.5623893E-2,1.058007E-1,-5.931716E-2,9.565181E-2],"categories":[],"categories_nodes":[],"categories_segments":[],"categories_sizes":[],"default_left":[0,0,0,0,0,0,0,0,0,0,0,0,0,0,0,0,0,0,0,0,0,0,0,0,0,0,0,0,0,0,0],"id":3,"left_children":[1,3,5,7,9,11,13,15,17,19,21,23,25,27,29,-1,-1,-1,-1,-1,-1,-1,-1,-1,-1,-1,-1,-1,-1,-1,-1],"loss_changes":[3.2671113E3,6.537251E2,9.24381E2,1.4482367E2,1.438877E2,3.8330054E2,2.1590262E2,3.2091156E1,5.1752228E1,1.8560303E1,1.0296008E2,1.23134514E2,5.2820557E1,5.2961746E1,1.1275308E2,0E0,0E0,0E0,0E0,0E0,0E0,0E0,0E0,0E0,0E0,0E0,0E0,0E0,0E0,0E0,0E0],"parents":[2147483647,0,0,1,1,2,2,3,3,4,4,5,5,6,6,7,7,8,8,9,9,10,10,11,11,12,12,13,13,14,14],"right_children":[2,4,6,8,10,12,14,16,18,20,22,24,26,28,30,-1,-1,-1,-1,-1,-1,-1,-1,-1,-1,-1,-1,-1,-1,-1,-1],"split_conditions":[-2.9636794E-1,-2.4419504E-1,2.9556343E-1,-8.8263017E-1,-5.478548E-1,-3.511777E-1,5.44174E-2,-5.782043E-1,-6.0699856E-1,2.3191811E-1,2.056637E-1,-4.402639E-1,1.3063254E0,3.848037E-1,2.0670118E0,-4.933467E-3,7.786851E-2,3.689582E-2,-9.72312E-2,1.1903651E-1,1.5034704E-1,2.1514459E-2,1.0501378E-1,-8.004152E-2,1.6117377E-2,-1.3684611E-1,-3.6130514E-2,3.5623893E-2,1.058007E-1,-5.931716E-2,9.565181E-2],"split_indices":[13,19,19,11,13,11,11,19,13,34,19,39,53,2,19,0,0,0,0,0,0,0,0,0,0,0,0,0,0,0,0],"split_type":[0,0,0,0,0,0,0,0,0,0,0,0,0,0,0,0,0,0,0,0,0,0,0,0,0,0,0,0,0,0,0],"sum_hessian":[5.0599624E3,2.2429324E3,2.81703E3,4.1206915E2,1.8308633E3,2.0110157E3,8.0601416E2,1.8890245E2,2.231667E2,1.0247319E3,8.0613135E2,5.3216376E2,1.478852E3,4.3626236E2,3.6975177E2,8.31549E1,1.0574754E2,3.3330585E1,1.8983612E2,2.9281375E2,7.3191815E2,1.954687E2,6.1066266E2,2.7757175E2,2.54592E2,1.423921E3,5.4931065E1,2.4014352E2,1.9611884E2,3.1554916E2,5.420259E1],"tree_param":{"num_deleted":"0","num_feature":"64","num_nodes":"31","size_leaf_vector":"1"}},{"base_weights":[7.3658265E-3,7.535718E-1,-7.3772067E-1,-2.6640975E-1,1.0259088E0,-1.0835022E0,7.028778E-2,-9.257104E-1,-2.2758132E-2,1.3217088E0,6.705034E-1,-4.904377E-1,-1.2368896E0,4.7806492E-1,-4.659452E-1,-7.4838996E-3,-1.2375617E-1,4.3023877E-2,-4.034387E-2,1.1738014E-1,1.4431721E-1,4.3939374E-2,1.1143972E-1,-6.839659E-2,7.225602E-2,-8.844405E-2,-1.3760246E-1,2.4290437E-2,9.455227E-2,-8.608088E-2,3.8702793E-2],"categories":[],"categories_nodes":[],"categories_segments":[],"categories_sizes":[],"default_left":[0,0,0,0,0,0,0,0,0,0,0,0,0,0,0,0,0,0,0,0,0,0,0,0,0,0,0,0,0,0,0],"id":4,"left_children":[1,3,5,7,9,11,13,15,17,19,21,23,25,27,29,-1,-1,-1,-1,-1,-1,-1,-1,-1,-1,-1,-1,-1,-1,-1,-1],"loss_changes":[2.735154E3,6.830182E2,6.878264E2,8.331143E1,2.0307642E2,1.5621619E2,1.6173932E2,3.7043747E1,6.566888E1,1.7310059E1,9.012628E1,8.404231E1,6.591699E1,4.5948303E1,1.07969284E2,0E0,0E0,0E0,0E0,0E0,0E0,0E0,0E0,0E0,0E0,0E0,0E0,0E0,0E0,0E0,0E0],"parents":[2147483647,0,0,1,1,2,2,3,3,4,4,5,5,6,6,7,7,8,8,9,9,10,10,11,11,12,12,13,13,14,14],"right_children":[2,4,6,8,10,12,14,16,18,20,22,24,26,28,30,-1,-1,-1,-1,-1,-1,-1,-1,-1,-1,-1,-1,-1,-1,-1,-1],"split_conditions":[-4.3727174E-1,-2.708665E-1,2.056637E-1,-4.581511E-1,-4.9111274E-1,-2.2494856E-1,3.8927084E-1,-5.0928885E-1,-8.530885E-1,8.904236E-1,1.1036495E0,3.4456366E-1,2.0550346E-1,1.0494488E0,1.2400428E0,-7.4838996E-3,-1.2375617E-1,4.3023877E-2,-4.034387E-2,1.1738014E-1,1.4431721E-1,4.3939374E-2,1.1143972E-1,-6.839659E-2,7.225602E-2,-8.844405E-2,-1.3760246E-1,2.4290437E-2,9.455227E-2,-8.608088E-2,3.8702793E-2],"split_indices":[27,19,19,28,13,13,11,60,18,19,19,39,27,19,19,0,0,0,0,0,0,0,0,0,0,0,0,0,0,0,0],"split_type":[0,0,0,0,0,0,0,0,0,0,0,0,0,0,0,0,0,0,0,0,0,0,0,0,0,0,0,0,0,0,0],"sum_hessian":[4.917448E3,2.4568726E3,2.4605754E3,5.177542E2,1.9391184E3,1.7229221E3,7.3765326E2,1.3895483E2,3.7879935E2,1.0568201E3,8.822983E2,3.5490353E2,1.3680187E3,4.190762E2,3.1857706E2,3.7601345E1,1.0135349E2,1.72911E2,2.0588837E2,4.8134433E2,5.7547577E2,5.8152295E2,3.007753E2,3.064474E2,4.845613E1,3.892781E2,9.7874054E2,2.7982587E2,1.3925034E2,2.1776073E2,1.0081633E2],"tree_param":{"num_deleted":"0","num_feature":"64","num_nodes":"31","size_leaf_vector":"1"}},{"base_weights":[3.4287816E-3,6.641986E-1,-7.473266E-1,-1.7133178E-1,9.747298E-1,-1.0712309E0,-9.587071E-3,-4.737934E-1,2.9160637E-1,1.1087261E0,2.2460638E-1,2.0900318E-1,-1.1415651E0,2.853564E-1,-7.9329073E-1,1.0521952E-2,-7.261041E-2,4.786524E-2,-4.329016E-2,1.2206303E-1,7.6035865E-2,-1.2426451E-2,7.834066E-2,-5.58774E-2,6.0763594E-2,-1.1914801E-1,-1.3888597E-2,9.635313E-3,1.0822332E-1,-9.594303E-3,-1.0462518E-1],"categories":[],"categories_nodes":[],"categories_segments":[],"categories_sizes":[],"default_left":[0,0,0,0,0,0,0,0,0,0,0,0,0,0,0,0,0,0,0,0,0,0,0,0,0,0,0,0,0,0,0],"id":5,"left_children":[1,3,5,7,9,11,13,15,17,19,21,23,25,27,29,-1,-1,-1,-1,-1,-1,-1,-1,-1,-1,-1,-1,-1,-1,-1,-1],"loss_changes":[2.4018374E3,6.683136E2,5.415873E2,9.795733E1,1.8847156E2,1.4205786E2,1.602996E2,6.1861053E1,3.770253E1,6.1162964E1,5.5816742E1,2.570188E1,7.4563354E1,7.578761E1,3.334967E1,0E0,0E0,0E0,0E0,0E0,0E0,0E0,0E0,0E0,0E0,0E0,0E0,0E0,0E0,0E0,0E0],"parents":[2147483647,0,0,1,1,2,2,3,3,4,4,5,5,6,6,7,7,8,8,9,9,10,10,11,11,12,12,13,13,14,14],"right_children":[2,4,6,8,10,12,14,16,18,20,22,24,26,28,30,-1,-1,-1,-1,-1,-1,-1,-1,-1,-1,-1,-1,-1,-1,-1,-1],"split_conditions":[-3.6046535E-1,-1.5075414E-1,2.056637E-1,5.640209E-1,-1.1852447E-1,-4.771686E-1,1.272077E-1,-1.0840896E0,-2.1335685E-1,-8.244489E-1,1.0764859E0,-9.0729403E-1,1.2192057E0,1.5248194E0,3.8927084E-1,1.0521952E-2,-7.261041E-2,4.786524E-2,-4.329016E-2,1.2206303E-1,7.6035865E-2,-1.2426451E-2,7.834066E-2,-5.58774E-2,6.0763594E-2,-1.1914801E-1,-1.3888597E-2,9.635313E-3,1.0822332E-1,-9.594303E-3,-1.0462518E-1],"split_indices":[27,19,19,10,13,13,13,11,18,27,19,0,28,19,11,0,0,0,0,0,0,0,0,0,0,0,0,0,0,0,0],"split_type":[0,0,0,0,0,0,0,0,0,0,0,0,0,0,0,0,0,0,0,0,0,0,0,0,0,0,0,0,0,0,0],"sum_hessian":[4.839667E3,2.5741606E3,2.2655063E3,6.976034E2,1.8765574E3,1.5739932E3,6.9151324E2,4.2191855E2,2.756848E2,1.5917423E3,2.8481503E2,8.186694E1,1.4921261E3,5.02889E2,1.886242E2,1.2823125E2,2.9368732E2,2.1938547E2,5.629935E1,1.2028528E3,3.888895E2,1.7582275E2,1.0899227E2,2.7841587E1,5.402536E1,1.4211888E3,7.093733E1,4.0738608E2,9.550293E1,5.0576694E1,1.380475E2],"tree_param":{"num_deleted":"0","num_feature":"64","num_nodes":"31","size_leaf_vector":"1"}},{"base_weights":[-6.2062294E-4,5.573722E-1,-7.815532E-1,9.523784E-1,7.450446E-2,-1.0114259E0,-2.3556656E-1,5.34924E-1,1.1160057E0,-2.957432E-1,5.839135E-1,-6.9269276E-1,-1.2473022E0,3.689335E-1,-8.7537247E-1,1.0417632E-1,3.0558726E-2,1.3004243E-1,9.594233E-2,-9.432822E-2,-7.577026E-3,7.211699E-2,-5.6069057E-2,-8.1884086E-2,4.1350894E-2,-2.6054716E-2,-1.2773146E-1,5.9521925E-2,-3.2545976E-2,-8.4502455E-3,-1.0837823E-1],"categories":[],"categories_nodes":[],"categories_segments":[],"categories_sizes":[],"default_left":[0,0,0,0,0,0,0,0,0,0,0,0,0,0,0,0,0,0,0,0,0,0,0,0,0,0,0,0,0,0,0],"id":6,"left_children":[1,3,5,7,9,11,13,15,17,19,21,23,25,27,29,-1,-1,-1,-1,-1,-1,-1,-1,-1,-1,-1,-1,-1,-1,-1,-1],"loss_changes":[2.0317511E3,5.1863074E2,2.4363818E2,1.0157263E2,2.3116692E2,1.0191736E2,2.2349084E2,4.886241E1,2.9755371E1,1.0104854E2,8.144296E1,8.17887E1,2.289795E1,4.692412E1,4.6161316E1,0E0,0E0,0E0,0E0,0E0,0E0,0E0,0E0,0E0,0E0,0E0,0E0,0E0,0E0,0E0,0E0],"parents":[2147483647,0,0,1,1,2,2,3,3,4,4,5,5,6,6,7,7,8,8,9,9,10,10,11,11,12,12,13,13,14,14],"right_children":[2,4,6,8,10,12,14,16,18,20,22,24,26,28,30,-1,-1,-1,-1,-1,-1,-1,-1,-1,-1,-1,-1,-1,-1,-1,-1],"split_conditions":[-2.2144379E-1,-3.9284903E-1,3.737557E-1,8.018372E-2,2.969767E-1,3.4005076E-1,7.1551435E-2,-7.024193E-1,-6.6557586E-1,-5.3801835E-1,1.3186951E0,1.4209468E0,-3.710994E-1,6.0424036E-1,-8.6095613E-1,1.0417632E-1,3.0558726E-2,1.3004243E-1,9.594233E-2,-9.432822E-2,-7.577026E-3,7.211699E-2,-5.6069057E-2,-8.1884086E-2,4.1350894E-2,-2.6054716E-2,-1.2773146E-1,5.9521925E-2,-3.2545976E-2,-8.4502455E-3,-1.0837823E-1],"split_indices":[27,13,39,34,39,27,13,13,13,63,58,63,13,57,61,0,0,0,0,0,0,0,0,0,0,0,0,0,0,0,0],"split_type":[0,0,0,0,0,0,0,0,0,0,0,0,0,0,0,0,0,0,0,0,0,0,0,0,0,0,0,0,0,0,0],"sum_hessian":[4.660602E3,2.7184783E3,1.9421239E3,1.4947432E3,1.223735E3,1.3661089E3,5.760151E2,4.2210825E2,1.0726349E3,7.0890765E2,5.1482733E2,5.826826E2,7.834263E2,2.9639713E2,2.7961795E2,1.3039342E2,2.9171484E2,4.8918292E2,5.8345197E2,1.7892224E2,5.299854E2,4.6003207E2,5.4795273E1,5.2327014E2,5.941247E1,2.3410524E1,7.6001575E2,2.2365594E2,7.274117E1,5.8610256E1,2.2100769E2],"tree_param":{"num_deleted":"0","num_feature":"64","num_nodes":"31","size_leaf_vector":"1"}},{"base_weights":[8.530644E-3,7.8552526E-1,-4.8543966E-1,1.0111622E0,3.8515022E-1,-8.769082E-2,-9.880338E-1,7.300037E-1,1.1979895E0,8.559647E-2,8.229682E-1,-2.8324592E-1,7.0789224E-1,-1.1152946E0,-3.6645007E-1,4.2564336E-2,1.12944715E-1,1.2596712E-1,9.197275E-2,-4.9853127E-2,3.552659E-2,1.0429666E-1,5.3047515E-2,1.081915E-2,-5.3742297E-2,8.240921E-2,-1.5412031E-1,-1.20946124E-1,-6.5716565E-2,3.510786E-3,-1.2756333E-1],"categories":[],"categories_nodes":[],"categories_segments":[],"categories_sizes":[],"default_left":[0,0,0,0,0,0,0,0,0,0,0,0,0,0,0,0,0,0,0,0,0,0,0,0,0,0,0,0,0,0,0],"id":7,"left_children":[1,3,5,7,9,11,13,15,17,19,21,23,25,27,29,-1,-1,-1,-1,-1,-1,-1,-1,-1,-1,-1,-1,-1,-1,-1,-1],"loss_changes":[1.7574276E3,1.6037927E2,5.5950476E2,5.8879395E1,8.426552E1,2.434846E2,9.740637E1,5.5041443E1,1.0544861E1,6.0496754E1,1.6249268E1,1.25013824E2,8.197676E1,4.3463623E1,7.730948E1,0E0,0E0,0E0,0E0,0E0,0E0,0E0,0E0,0E0,0E0,0E0,0E0,0E0,0E0,0E0,0E0],"parents":[2147483647,0,0,1,1,2,2,3,3,4,4,5,5,6,6,7,7,8,8,9,9,10,10,11,11,12,12,13,13,14,14],"right_children":[2,4,6,8,10,12,14,16,18,20,22,24,26,28,30,-1,-1,-1,-1,-1,-1,-1,-1,-1,-1,-1,-1,-1,-1,-1,-1],"split_conditions":[-3.6136615E-1,-8.244489E-1,1.6970928E-1,2.6505286E-1,1.645031E-1,5.8839077E-1,9.559466E-1,3.3842513E-1,2.0293169E-2,-8.68245E-2,-4.771686E-1,-6.6680354E-1,2.4612927E0,5.631694E-1,1.2417624E0,4.2564336E-2,1.12944715E-1,1.2596712E-1,9.197275E-2,-4.9853127E-2,3.552659E-2,1.0429666E-1,5.3047515E-2,1.081915E-2,-5.3742297E-2,8.240921E-2,-1.5412031E-1,-1.20946124E-1,-6.5716565E-2,3.510786E-3,-1.2756333E-1],"split_indices":[13,27,27,63,44,2,2,2,59,2,13,11,22,44,27,0,0,0,0,0,0,0,0,0,0,0,0,0,0,0,0],"split_type":[0,0,0,0,0,0,0,0,0,0,0,0,0,0,0,0,0,0,0,0,0,0,0,0,0,0,0,0,0,0,0],"sum_hessian":[4.5768794E3,1.77861E3,2.7982695E3,1.1365604E3,6.420496E2,1.5627201E3,1.2355493E3,4.5569202E2,6.8086835E2,3.8192987E2,2.6011978E2,1.2549067E3,3.0781335E2,1.0249172E3,2.1063208E2,2.5980008E2,1.9589195E2,5.5444006E2,1.2642826E2,1.2036341E2,2.6156644E2,1.4699316E2,1.131266E2,4.9428018E2,7.606266E2,2.9329388E2,1.451948E1,8.48808E2,1.7610928E2,1.467698E2,6.3862274E1],"tree_param":{"num_deleted":"0","num_feature":"64","num_nodes":"31","size_leaf_vector":"1"}},{"base_weights":[9.878775E-3,5.543442E-1,-6.0439885E-1,-1.082152E-1,8.7520903E-1,-7.9765964E-1,2.2566444E-1,-3.889597E-1,4.6165022E-1,9.7358894E-1,6.690615E-2,-2.9655802E-1,-1.0743417E0,4.136375E-1,-7.4608064E-1,3.335041E-2,-5.5219974E-2,-2.3797054E-2,7.00878E-2,7.824677E-2,1.1526667E-1,3.8292374E-2,-4.903626E-2,-5.8822896E-2,3.5792094E-2,-5.5278838E-2,-1.1241358E-1,1.6691016E-2,9.404449E-2,-9.730763E-2,9.965929E-2],"categories":[],"categories_nodes":[],"categories_segments":[],"categories_sizes":[],"default_left":[0,0,0,0,0,0,0,0,0,0,0,0,0,0,0,0,0,0,0,0,0,0,0,0,0,0,0,0,0,0,0],"id":8,"left_children":[1,3,5,7,9,11,13,15,17,19,21,23,25,27,29,-1,-1,-1,-1,-1,-1,-1,-1,-1,-1,-1,-1,-1,-1,-1,-1],"loss_changes":[1.4892565E3,5.019254E2,3.3582037E2,1.23540215E2,1.26410034E2,2.3501306E2,7.26278E1,6.1170662E1,4.2837284E1,4.7623657E1,3.0768301E1,1.1573581E2,2.7768677E1,4.3046238E1,2.6496159E1,0E0,0E0,0E0,0E0,0E0,0E0,0E0,0E0,0E0,0E0,0E0,0E0,0E0,0E0,0E0,0E0],"parents":[2147483647,0,0,1,1,2,2,3,3,4,4,5,5,6,6,7,7,8,8,9,9,10,10,11,11,12,12,13,13,14,14],"right_children":[2,4,6,8,10,12,14,16,18,20,22,24,26,28,30,-1,-1,-1,-1,-1,-1,-1,-1,-1,-1,-1,-1,-1,-1,-1,-1],"split_conditions":[-1.919309E-1,2.8913945E-4,6.788509E-1,4.0147534E-1,-2.7950546E-2,-1.2608202E-1,1.2585183E0,-1.1601243E0,-6.7522615E-1,9.1086483E-1,1.4729527E-1,1.645169E-1,-6.395327E-1,1.06304E0,2.7567222E0,3.335041E-2,-5.5219974E-2,-2.3797054E-2,7.00878E-2,7.824677E-2,1.1526667E-1,3.8292374E-2,-4.903626E-2,-5.8822896E-2,3.5792094E-2,-5.5278838E-2,-1.1241358E-1,1.6691016E-2,9.404449E-2,-9.730763E-2,9.965929E-2],"split_indices":[13,19,19,28,27,11,58,11,19,19,16,5,20,28,19,0,0,0,0,0,0,0,0,0,0,0,0,0,0,0,0],"split_type":[0,0,0,0,0,0,0,0,0,0,0,0,0,0,0,0,0,0,0,0,0,0,0,0,0,0,0,0,0,0,0],"sum_hessian":[4.4508115E3,2.3595342E3,2.0912773E3,7.7006866E2,1.5894656E3,1.6963589E3,3.9491833E2,5.1611957E2,2.5394913E2,1.4168177E3,1.7264774E2,6.0418506E2,1.0921738E3,3.313892E2,6.3529144E1,9.493139E1,4.2118817E2,6.4710045E1,1.8923907E2,6.879602E2,7.288576E2,1.10371056E2,6.227668E1,4.1800214E2,1.8618295E2,9.6239815E1,9.95934E2,2.2658582E2,1.0480338E2,5.6598415E1,6.93073E0],"tree_param":{"num_deleted":"0","num_feature":"64","num_nodes":"31","size_leaf_vector":"1"}},{"base_weights":[4.78371E-3,7.5135744E-1,-3.9360294E-1,3.8202393E-1,9.6702003E-1,-7.172305E-2,-8.987278E-1,7.0667636E-1,-2.529687E-1,5.6250966E-1,1.0556151E0,-5.5695343E-1,2.2787681E-1,-5.7001716E-1,-1.0896498E0,1.5329591E-2,9.817525E-2,9.736956E-3,-7.7097185E-2,9.7045034E-2,-2.7226803E-3,-1.6192572E-1,1.0623177E-1,6.581237E-4,-7.707438E-2,5.5239838E-2,-4.214333E-3,-9.338152E-2,3.129511E-3,-1.1326692E-1,1.4447537E-2],"categories":[],"categories_nodes":[],"categories_segments":[],"categories_sizes":[],"default_left":[0,0,0,0,0,0,0,0,0,0,0,0,0,0,0,0,0,0,0,0,0,0,0,0,0,0,0,0,0,0,0],"id":9,"left_children":[1,3,5,7,9,11,13,15,17,19,21,23,25,27,29,-1,-1,-1,-1,-1,-1,-1,-1,-1,-1,-1,-1,-1,-1,-1,-1],"loss_changes":[1.2842765E3,1.1930139E2,4.5771576E2,1.1470318E2,3.3376587E1,2.5028772E2,6.814685E1,5.5845505E1,3.431533E1,4.151331E1,1.5640991E1,7.918152E1,9.331243E1,8.8559525E1,3.6906128E1,0E0,0E0,0E0,0E0,0E0,0E0,0E0,0E0,0E0,0E0,0E0,0E0,0E0,0E0,0E0,0E0],"parents":[2147483647,0,0,1,1,2,2,3,3,4,4,5,5,6,6,7,7,8,8,9,9,10,10,11,11,12,12,13,13,14,14],"right_children":[2,4,6,8,10,12,14,16,18,20,22,24,26,28,30,-1,-1,-1,-1,-1,-1,-1,-1,-1,-1,-1,-1,-1,-1,-1,-1],"split_conditions":[-4.0210876E-1,-2.5194773E-1,2.5892156E-1,-8.264608E-1,-1.8090409E-1,-3.106862E-1,1.1512546E-2,2.6505286E-1,-3.8233006E-1,-7.7442473E-1,-1.5317014E0,-8.376134E-1,-3.3056465E-1,1.4452522E-1,1.0452592E0,1.5329591E-2,9.817525E-2,9.736956E-3,-7.7097185E-2,9.7045034E-2,-2.7226803E-3,-1.6192572E-1,1.0623177E-1,6.581237E-4,-7.707438E-2,5.5239838E-2,-4.214333E-3,-9.338152E-2,3.129511E-3,-1.1326692E-1,1.4447537E-2],"split_indices":[13,39,57,11,34,39,13,63,51,9,2,11,9,39,10,0,0,0,0,0,0,0,0,0,0,0,0,0,0,0,0],"split_type":[0,0,0,0,0,0,0,0,0,0,0,0,0,0,0,0,0,0,0,0,0,0,0,0,0,0,0,0,0,0,0],"sum_hessian":[4.3159897E3,1.5014316E3,2.814558E3,5.545342E2,9.4689746E2,1.7197968E3,1.0947614E3,3.6685797E2,1.8767621E2,1.7144707E2,7.754504E2,6.561846E2,1.0636122E3,4.0369852E2,6.910628E2,1.2232657E2,2.4453139E2,1.1244136E2,7.523484E1,1.0096239E2,7.048468E1,1.336923E0,7.7411346E2,1.8073924E2,4.7544537E2,4.825807E2,5.810315E2,2.5117998E2,1.5251854E2,6.6786444E2,2.31984E1],"tree_param":{"num_deleted":"0","num_feature":"64","num_nodes":"31","size_leaf_vector":"1"}},{"base_weights":[-3.500577E-3,4.5113796E-1,-5.7039076E-1,-3.8651496E-2,7.5542015E-1,-8.308454E-1,-1.9045593E-2,2.7573088E-1,-3.818896E-1,8.7679607E-1,1.4212668E-1,-4.6700564E-1,-9.9821955E-1,1.4685115E-1,-7.3677856E-1,4.7165524E-2,-7.5094126E-2,-7.528672E-2,-7.419038E-3,1.1179056E-1,7.321174E-2,-6.5296725E-3,8.944818E-2,-5.752821E-2,5.8516543E-2,7.3014505E-2,-1.01928234E-1,-2.2854853E-2,4.9537312E-2,-1.0006505E-1,4.9892273E-2],"categories":[],"categories_nodes":[],"categories_segments":[],"categories_sizes":[],"default_left":[0,0,0,0,0,0,0,0,0,0,0,0,0,0,0,0,0,0,0,0,0,0,0,0,0,0,0,0,0,0,0],"id":10,"left_children":[1,3,5,7,9,11,13,15,17,19,21,23,25,27,29,-1,-1,-1,-1,-1,-1,-1,-1,-1,-1,-1,-1,-1,-1,-1,-1],"loss_changes":[1.0764796E3,3.4547168E2,2.6692285E2,9.6050934E1,1.063031E2,7.64151E1,7.124335E1,9.3820496E1,4.8512863E1,4.080902E1,3.710637E1,4.5867744E1,3.2190796E1,6.371156E1,3.7126194E1,0E0,0E0,0E0,0E0,0E0,0E0,0E0,0E0,0E0,0E0,0E0,0E0,0E0,0E0,0E0,0E0],"parents":[2147483647,0,0,1,1,2,2,3,3,4,4,5,5,6,6,7,7,8,8,9,9,10,10,11,11,12,12,13,13,14,14],"right_children":[2,4,6,8,10,12,14,16,18,20,22,24,26,28,30,-1,-1,-1,-1,-1,-1,-1,-1,-1,-1,-1,-1,-1,-1,-1,-1],"split_conditions":[-3.136404E-1,5.3543672E-2,2.056637E-1,-6.341979E-1,-1.13420464E-1,9.492698E-2,1.0868007E0,1.0232819E0,1.1493861E-1,-6.376722E-1,2.2730317E0,1.4998347E0,-5.0956815E-1,2.8777447E-1,2.0670118E0,4.7165524E-2,-7.5094126E-2,-7.528672E-2,-7.419038E-3,1.1179056E-1,7.321174E-2,-6.5296725E-3,8.944818E-2,-5.752821E-2,5.8516543E-2,7.3014505E-2,-1.01928234E-1,-2.2854853E-2,4.9537312E-2,-1.0006505E-1,4.9892273E-2],"split_indices":[27,19,19,9,13,57,11,3,25,13,39,28,13,5,19,0,0,0,0,0,0,0,0,0,0,0,0,0,0,0,0],"split_type":[0,0,0,0,0,0,0,0,0,0,0,0,0,0,0,0,0,0,0,0,0,0,0,0,0,0,0,0,0,0,0],"sum_hessian":[4.1747725E3,2.3168738E3,1.8578984E3,8.881428E2,1.428731E3,1.2614733E3,5.964252E2,4.6365952E2,4.2448334E2,1.1923293E3,2.3640163E2,3.9865744E2,8.6281586E2,4.8509558E2,1.1132957E2,3.898108E2,7.384872E1,1.9179678E2,2.3268655E2,4.446257E2,7.477037E2,1.8602733E2,5.0374302E1,3.6187137E2,3.6786083E1,9.982852E0,8.52833E2,2.3370824E2,2.5138736E2,9.189624E1,1.9433329E1],"tree_param":{"num_deleted":"0","num_feature":"64","num_nodes":"31","size_leaf_vector":"1"}},{"base_weights":[3.5630497E-3,4.1710296E-1,-5.6045777E-1,7.593278E-1,2.9420137E-2,-2.3589028E-1,-9.015827E-1,4.7465804E-1,9.923214E-1,-3.919709E-1,5.179179E-1,-5.479186E-1,2.0084037E-1,-1.0083045E0,-3.8441268E-1,-8.910817E-4,8.1000574E-2,1.1266156E-1,7.839133E-2,-6.5631494E-2,-4.4728215E-3,6.5708004E-2,1.651168E-2,-6.7447454E-2,1.3564418E-4,3.2431047E-2,-9.014938E-2,-4.273835E-2,-1.0494103E-1,-1.8780407E-2,-1.24520235E-1],"categories":[],"categories_nodes":[],"categories_segments":[],"categories_sizes":[],"default_left":[0,0,0,0,0,0,0,0,0,0,0,0,0,0,0,0,0,0,0,0,0,0,0,0,0,0,0,0,0,0,0],"id":11,"left_children":[1,3,5,7,9,11,13,15,17,19,21,23,25,27,29,-1,-1,-1,-1,-1,-1,-1,-1,-1,-1,-1,-1,-1,-1,-1,-1],"loss_changes":[9.4696686E2,3.1076324E2,1.8994556E2,8.204773E1,2.2649818E2,1.20229095E2,4.5811096E1,9.112464E1,1.8239563E1,5.419857E1,2.490895E1,3.5759033E1,5.0387512E1,1.6105469E1,2.4271551E1,0E0,0E0,0E0,0E0,0E0,0E0,0E0,0E0,0E0,0E0,0E0,0E0,0E0,0E0,0E0,0E0],"parents":[2147483647,0,0,1,1,2,2,3,3,4,4,5,5,6,6,7,7,8,8,9,9,10,10,11,11,12,12,13,13,14,14],"right_children":[2,4,6,8,10,12,14,16,18,20,22,24,26,28,30,-1,-1,-1,-1,-1,-1,-1,-1,-1,-1,-1,-1,-1,-1,-1,-1],"split_conditions":[-1.3475229E-1,-7.577212E-1,2.0550346E-1,2.8802308E-1,-3.0215079E-2,2.969767E-1,7.7644163E-1,4.2652056E-2,-7.7442473E-1,-3.4376692E-2,3.0848226E-1,2.348143E-1,8.730257E-1,-6.442485E-1,1.3448488E0,-8.910817E-4,8.1000574E-2,1.1266156E-1,7.839133E-2,-6.5631494E-2,-4.4728215E-3,6.5708004E-2,1.651168E-2,-6.7447454E-2,1.3564418E-4,3.2431047E-2,-9.014938E-2,-4.273835E-2,-1.0494103E-1,-1.8780407E-2,-1.24520235E-1],"split_indices":[13,27,27,63,39,39,44,39,9,44,29,24,13,1,58,0,0,0,0,0,0,0,0,0,0,0,0,0,0,0,0],"split_type":[0,0,0,0,0,0,0,0,0,0,0,0,0,0,0,0,0,0,0,0,0,0,0,0,0,0,0,0,0,0,0],"sum_hessian":[4.0579617E3,2.3414626E3,1.7164993E3,1.2431342E3,1.0983285E3,8.804632E2,8.36036E2,5.608855E2,6.822486E2,5.8977264E2,5.0855582E2,5.134016E2,3.6706158E2,6.922381E2,1.4379791E2,2.3008217E2,3.3080334E2,4.1221762E2,2.7003098E2,3.3435187E2,2.5542076E2,3.6408157E2,1.4447424E2,4.1707693E2,9.632469E1,3.3072372E2,3.633787E1,4.649886E1,6.4573926E2,1.18052345E2,2.5745565E1],"tree_param":{"num_deleted":"0","num_feature":"64","num_nodes":"31","size_leaf_vector":"1"}},{"base_weights":[8.743912E-3,5.077882E-1,-4.002798E-1,-2.9769394E-1,6.8122584E-1,-6.866432E-1,7.3340535E-2,-5.525956E-1,2.7373743E-1,7.67875E-1,-1.326589E-1,-1.2015537E-1,-8.1797594E-1,3.605435E-1,-2.541192E-1,2.4015574E-2,-8.898025E-2,1.09762244E-1,2.7731785E-3,9.135022E-2,4.6554472E-2,-1.9121593E-1,-8.5930823E-4,-5.0041765E-2,3.3191618E-2,-1.0371458E-1,-6.195977E-2,1.7718172E-2,7.5656466E-2,-4.942104E-2,2.5806054E-2],"categories":[],"categories_nodes":[],"categories_segments":[],"categories_sizes":[],"default_left":[0,0,0,0,0,0,0,0,0,0,0,0,0,0,0,0,0,0,0,0,0,0,0,0,0,0,0,0,0,0,0],"id":12,"left_children":[1,3,5,7,9,11,13,15,17,19,21,23,25,27,29,-1,-1,-1,-1,-1,-1,-1,-1,-1,-1,-1,-1,-1,-1,-1,-1],"loss_changes":[8.147195E2,2.5136142E2,2.9755344E2,4.6648773E1,1.0444751E2,1.0161182E2,7.790927E1,5.931356E1,2.0063332E1,5.8456604E1,3.1603073E1,4.4597904E1,4.760266E1,3.1905521E1,4.7742172E1,0E0,0E0,0E0,0E0,0E0,0E0,0E0,0E0,0E0,0E0,0E0,0E0,0E0,0E0,0E0,0E0],"parents":[2147483647,0,0,1,1,2,2,3,3,4,4,5,5,6,6,7,7,8,8,9,9,10,10,11,11,12,12,13,13,14,14],"right_children":[2,4,6,8,10,12,14,16,18,20,22,24,26,28,30,-1,-1,-1,-1,-1,-1,-1,-1,-1,-1,-1,-1,-1,-1,-1,-1],"split_conditions":[-5.738625E-1,-4.2902064E-1,1.46454E-1,6.8007683E-4,1.096264E0,-4.347079E-1,4.970378E-2,-5.411542E-1,-1.1995615E0,-9.665163E-1,-1.1560394E0,-2.6762632E-1,-6.070722E-1,9.20067E-1,1.1036495E0,2.4015574E-2,-8.898025E-2,1.09762244E-1,2.7731785E-3,9.135022E-2,4.6554472E-2,-1.9121593E-1,-8.5930823E-4,-5.0041765E-2,3.3191618E-2,-1.0371458E-1,-6.195977E-2,1.7718172E-2,7.5656466E-2,-4.942104E-2,2.5806054E-2],"split_indices":[27,19,19,5,60,57,9,60,42,27,47,39,19,39,19,0,0,0,0,0,0,0,0,0,0,0,0,0,0,0,0],"split_type":[0,0,0,0,0,0,0,0,0,0,0,0,0,0,0,0,0,0,0,0,0,0,0,0,0,0,0,0,0,0,0],"sum_hessian":[3.9893613E3,1.7968309E3,2.1925305E3,3.1822208E2,1.4786089E3,1.3661002E3,8.264302E2,2.2008186E2,9.8140205E1,1.3363884E3,1.4222038E2,2.574661E2,1.1086342E3,4.4022443E2,3.8620578E2,6.576365E1,1.5431822E2,2.1769917E1,7.637029E1,9.005757E2,4.358128E2,8.329941E0,1.3389044E2,1.3978137E2,1.1768474E2,5.2470624E2,5.8392786E2,3.0189255E2,1.3833186E2,2.6297006E2,1.232357E2],"tree_param":{"num_deleted":"0","num_feature":"64","num_nodes":"31","size_leaf_vector":"1"}},{"base_weights":[-1.2344763E-3,-6.180067E-1,2.918301E-1,-8.7064825E-2,-8.687467E-1,5.8184415E-1,-2.2643963E-1,1.011901E-1,-6.1581385E-1,-6.9549316E-1,-1.067839E0,9.738944E-1,4.1957307E-1,-3.2077193E-1,7.3890626E-1,5.114282E-2,-1.3982298E-2,-1.13014355E-1,5.7776715E-3,-9.137095E-2,-3.412173E-2,-1.08737305E-1,3.4596056E-2,1.0821203E-1,7.230416E-2,2.5357634E-2,7.997515E-2,4.546543E-2,-4.406422E-2,8.524166E-2,-7.0424885E-2],"categories":[],"categories_nodes":[],"categories_segments":[],"categories_sizes":[],"default_left":[0,0,0,0,0,0,0,0,0,0,0,0,0,0,0,0,0,0,0,0,0,0,0,0,0,0,0,0,0,0,0],"id":13,"left_children":[1,3,5,7,9,11,13,15,17,19,21,23,25,27,29,-1,-1,-1,-1,-1,-1,-1,-1,-1,-1,-1,-1,-1,-1,-1,-1],"loss_changes":[7.0237396E2,1.6655334E2,3.960604E2,4.013698E1,2.8578186E1,1.0706177E2,8.637036E1,2.9511187E1,3.6735703E1,3.5047882E1,1.1247864E1,1.2622711E1,7.5308426E1,8.03571E1,1.4443031E1,0E0,0E0,0E0,0E0,0E0,0E0,0E0,0E0,0E0,0E0,0E0,0E0,0E0,0E0,0E0,0E0],"parents":[2147483647,0,0,1,1,2,2,3,3,4,4,5,5,6,6,7,7,8,8,9,9,10,10,11,11,12,12,13,13,14,14],"right_children":[2,4,6,8,10,12,14,16,18,20,22,24,26,28,30,-1,-1,-1,-1,-1,-1,-1,-1,-1,-1,-1,-1,-1,-1,-1,-1],"split_conditions":[-3.3336174E-1,-5.7225347E-1,-2.3690134E-1,7.110688E-1,4.349085E-1,-6.3018054E-1,1.9882098E0,-8.7122524E-1,1.11041866E-1,-3.033071E-1,1.5342273E0,-3.2949936E-2,9.739608E-1,-4.070977E-1,1.8582783E0,5.114282E-2,-1.3982298E-2,-1.13014355E-1,5.7776715E-3,-9.137095E-2,-3.412173E-2,-1.08737305E-1,3.4596056E-2,1.0821203E-1,7.230416E-2,2.5357634E-2,7.997515E-2,4.546543E-2,-4.406422E-2,8.524166E-2,-7.0424885E-2],"split_indices":[19,57,11,51,27,13,19,42,5,5,28,51,19,13,42,0,0,0,0,0,0,0,0,0,0,0,0,0,0,0,0],"split_type":[0,0,0,0,0,0,0,0,0,0,0,0,0,0,0,0,0,0,0,0,0,0,0,0,0,0,0,0,0,0,0],"sum_hessian":[3.8838005E3,1.2506412E3,2.6331594E3,4.0160016E2,8.490411E2,1.6882972E3,9.448622E2,2.9675323E2,1.0484691E2,4.5638248E2,3.9265857E2,4.92765E2,1.1955322E3,8.613591E2,8.350315E1,1.09406334E2,1.8734691E2,5.9067383E1,4.577953E1,2.814464E2,1.7493607E2,3.8753503E2,5.1235595E0,3.419312E2,1.5083379E2,8.333395E2,3.621927E2,1.149525E2,7.4640656E2,7.7793686E1,5.7094684E0],"tree_param":{"num_deleted":"0","num_feature":"64","num_nodes":"31","size_leaf_vector":"1"}},{"base_weights":[5.926867E-3,4.6083465E-1,-3.439114E-1,9.324358E-1,3.027783E-1,-6.674121E-2,-7.3715377E-1,-5.360009E-2,9.8823965E-1,-2.0644885E-2,6.15196E-1,-2.1123362E-1,5.3635836E-1,-9.5206046E-1,-3.7726405E-1,-9.6108034E-2,6.990579E-2,1.0116086E-1,-3.1881433E-2,-4.9691085E-2,3.3255123E-2,5.294617E-2,1.0430558E-1,-4.199954E-2,1.744427E-2,9.062959E-2,1.9567983E-2,-9.8906115E-2,2.6537696E-2,-4.896141E-3,-9.207327E-2],"categories":[],"categories_nodes":[],"categories_segments":[],"categories_sizes":[],"default_left":[0,0,0,0,0,0,0,0,0,0,0,0,0,0,0,0,0,0,0,0,0,0,0,0,0,0,0,0,0,0,0],"id":14,"left_children":[1,3,5,7,9,11,13,15,17,19,21,23,25,27,29,-1,-1,-1,-1,-1,-1,-1,-1,-1,-1,-1,-1,-1,-1,-1,-1],"loss_changes":[6.003168E2,1.2194928E2,2.3236522E2,2.2676117E1,1.2426297E2,1.09204575E2,6.781674E1,1.6361355E1,1.2209747E1,1.01962975E2,2.239296E1,8.144297E1,3.0351921E1,2.5094177E1,5.905302E1,0E0,0E0,0E0,0E0,0E0,0E0,0E0,0E0,0E0,0E0,0E0,0E0,0E0,0E0,0E0,0E0],"parents":[2147483647,0,0,1,1,2,2,3,3,4,4,5,5,6,6,7,7,8,8,9,9,10,10,11,11,12,12,13,13,14,14],"right_children":[2,4,6,8,10,12,14,16,18,20,22,24,26,28,30,-1,-1,-1,-1,-1,-1,-1,-1,-1,-1,-1,-1,-1,-1,-1,-1],"split_conditions":[-2.9636794E-1,-6.8359697E-1,1.6970928E-1,-7.536722E-1,-3.0215079E-2,1.2338147E0,2.7228287E-1,1.8897685E-1,1.1806749E0,3.1278577E-1,1.7155116E0,4.6905923E-1,-5.461239E-1,1.0452592E0,3.34913E-1,-9.6108034E-2,6.990579E-2,1.0116086E-1,-3.1881433E-2,-4.9691085E-2,3.3255123E-2,5.294617E-2,1.0430558E-1,-4.199954E-2,1.744427E-2,9.062959E-2,1.9567983E-2,-9.8906115E-2,2.6537696E-2,-4.896141E-3,-9.207327E-2],"split_indices":[13,13,27,34,39,10,39,14,60,63,63,28,9,10,13,0,0,0,0,0,0,0,0,0,0,0,0,0,0,0,0],"split_type":[0,0,0,0,0,0,0,0,0,0,0,0,0,0,0,0,0,0,0,0,0,0,0,0,0,0,0,0,0,0,0],"sum_hessian":[3.7701611E3,1.6388223E3,2.131339E3,4.1014658E2,1.2286757E3,1.2508607E3,8.804783E2,2.1970709E1,3.8817587E2,6.041634E2,6.2451227E2,1.00962213E3,2.4123856E2,5.50252E2,3.3022626E2,9.83533E0,1.213538E1,3.815796E2,6.5962687E0,2.5708765E2,3.4707574E2,5.2212634E2,1.0238593E2,6.549934E2,3.5462875E2,1.1485692E2,1.2638164E2,5.34204E2,1.6048054E1,2.0654503E2,1.2368121E2],"tree_param":{"num_deleted":"0","num_feature":"64","num_nodes":"31","size_leaf_vector":"1"}},{"base_weights":[-1.1119206E-2,-5.56615E-1,2.4874589E-1,-7.3524183E-1,9.2202745E-2,5.890772E-1,-1.0397342E-1,-5.040544E-1,-1.0204916E0,4.1708097E-1,-3.8844904E-1,8.3937097E-1,3.6294705E-1,2.0725863E-2,-7.911643E-1,-6.938753E-2,8.118953E-7,-1.0837712E-1,-7.757448E-2,2.3487976E-2,1.125892E-1,-6.033913E-2,6.0833033E-2,9.069974E-2,-1.7645408E-3,9.896114E-3,6.901031E-2,-1.4628691E-2,5.1055927E-2,-1.2921846E-1,-5.1510792E-2],"categories":[],"categories_nodes":[],"categories_segments":[],"categories_sizes":[],"default_left":[0,0,0,0,0,0,0,0,0,0,0,0,0,0,0,0,0,0,0,0,0,0,0,0,0,0,0,0,0,0,0],"id":15,"left_children":[1,3,5,7,9,11,13,15,17,19,21,23,25,27,29,-1,-1,-1,-1,-1,-1,-1,-1,-1,-1,-1,-1,-1,-1,-1,-1],"loss_changes":[5.1856976E2,1.3686972E2,2.97505E2,6.0530334E1,4.0091484E1,7.107895E1,1.0435749E2,4.911006E1,5.5619507E0,1.950267E1,2.2573406E1,3.466629E1,5.730838E1,8.446695E1,2.5204185E1,0E0,0E0,0E0,0E0,0E0,0E0,0E0,0E0,0E0,0E0,0E0,0E0,0E0,0E0,0E0,0E0],"parents":[2147483647,0,0,1,1,2,2,3,3,4,4,5,5,6,6,7,7,8,8,9,9,10,10,11,11,12,12,13,13,14,14],"right_children":[2,4,6,8,10,12,14,16,18,20,22,24,26,28,30,-1,-1,-1,-1,-1,-1,-1,-1,-1,-1,-1,-1,-1,-1,-1,-1],"split_conditions":[-3.2501468E-1,5.75454E-1,-5.3066486E-1,5.44174E-2,-3.3185366E-1,-8.825671E-1,3.5773778E-1,-3.3299726E-1,-1.5307745E-2,-6.1398864E-1,1.2238353E0,1.888561E0,8.4607506E-1,1.1036495E0,-3.6082754E-1,-6.938753E-2,8.118953E-7,-1.0837712E-1,-7.757448E-2,2.3487976E-2,1.125892E-1,-6.033913E-2,6.0833033E-2,9.069974E-2,-1.7645408E-3,9.896114E-3,6.901031E-2,-1.4628691E-2,5.1055927E-2,-1.2921846E-1,-5.1510792E-2],"split_indices":[19,10,11,11,42,9,13,39,63,41,5,30,63,19,48,0,0,0,0,0,0,0,0,0,0,0,0,0,0,0,0],"split_type":[0,0,0,0,0,0,0,0,0,0,0,0,0,0,0,0,0,0,0,0,0,0,0,0,0,0,0,0,0,0,0],"sum_hessian":[3.656226E3,1.1793827E3,2.4768433E3,9.2467584E2,2.5470688E2,1.2602169E3,1.2166263E3,5.122653E2,4.1241052E2,1.5206E2,1.0264689E2,5.9686285E2,6.6335406E2,1.030584E3,1.8604236E2,3.718549E2,1.4041043E2,3.2496283E2,8.744771E1,1.2202469E2,3.0035305E1,8.4763435E1,1.788345E1,5.531555E2,4.3707325E1,3.6784128E2,2.9551276E2,7.690659E2,2.6151807E2,6.478389E1,1.2125847E2],"tree_param":{"num_deleted":"0","num_feature":"64","num_nodes":"31","size_leaf_vector":"1"}},{"base_weights":[-4.7411453E-3,-3.1861168E-1,4.7165146E-1,-1.0862928E-1,-8.2808626E-1,6.7325133E-1,1.4725736E-2,3.553743E-1,-2.547124E-1,4.734936E-1,-8.779299E-1,8.7205154E-1,3.9994815E-1,1.2039806E-1,-1.1130432E0,6.585062E-2,-6.1250627E-2,-5.084118E-2,-5.201077E-3,7.616764E-2,-1.2008979E-1,-9.302087E-2,-2.441184E-2,9.448727E-2,4.0831644E-2,-1.27333915E-2,5.386124E-2,6.5861264E-4,1.0077007E-1,-1.4602229E-1,6.679069E-2],"categories":[],"categories_nodes":[],"categories_segments":[],"categories_sizes":[],"default_left":[0,0,0,0,0,0,0,0,0,0,0,0,0,0,0,0,0,0,0,0,0,0,0,0,0,0,0,0,0,0,0],"id":16,"left_children":[1,3,5,7,9,11,13,15,17,19,21,23,25,27,29,-1,-1,-1,-1,-1,-1,-1,-1,-1,-1,-1,-1,-1,-1,-1,-1],"loss_changes":[5.316109E2,2.291948E2,1.3006522E2,1.030433E2,4.0987488E1,5.288446E1,5.1773655E1,1.0722932E2,5.9408554E1,1.2357948E1,1.9742065E1,1.873944E1,3.0369019E1,4.009398E1,2.3989235E1,0E0,0E0,0E0,0E0,0E0,0E0,0E0,0E0,0E0,0E0,0E0,0E0,0E0,0E0,0E0,0E0],"parents":[2147483647,0,0,1,1,2,2,3,3,4,4,5,5,6,6,7,7,8,8,9,9,10,10,11,11,12,12,13,13,14,14],"right_children":[2,4,6,8,10,12,14,16,18,20,22,24,26,28,30,-1,-1,-1,-1,-1,-1,-1,-1,-1,-1,-1,-1,-1,-1,-1,-1],"split_conditions":[3.8554683E-1,2.2588858E-1,-1.2653013E-1,-1.012345E0,-4.3649295E-1,-7.0990664E-1,9.358783E-1,7.288032E-1,-5.4271424E-1,-5.411542E-1,9.426424E-1,1.0328616E0,8.633197E-3,2.4639513E0,8.0396783E-1,6.585062E-2,-6.1250627E-2,-5.084118E-2,-5.201077E-3,7.616764E-2,-1.2008979E-1,-9.302087E-2,-2.441184E-2,9.448727E-2,4.0831644E-2,-1.27333915E-2,5.386124E-2,6.5861264E-4,1.0077007E-1,-1.4602229E-1,6.679069E-2],"split_indices":[19,27,13,9,13,11,13,29,39,60,44,30,39,19,53,0,0,0,0,0,0,0,0,0,0,0,0,0,0,0,0],"split_type":[0,0,0,0,0,0,0,0,0,0,0,0,0,0,0,0,0,0,0,0,0,0,0,0,0,0,0,0,0,0,0],"sum_hessian":[3.553312E3,2.1422349E3,1.411077E3,1.5178563E3,6.243786E2,9.7876385E2,4.3231314E2,3.631023E2,1.154754E3,2.2715069E1,6.016635E2,5.653434E2,4.1342047E2,3.960924E2,3.6220745E1,2.7674713E2,8.635519E1,5.1219165E2,6.425624E2,1.9844666E1,2.870402E0,5.553859E2,4.6277607E1,4.8771854E2,7.762485E1,8.6100006E1,3.2732047E2,3.5195544E2,4.4136963E1,3.0462461E1,5.7582855E0],"tree_param":{"num_deleted":"0","num_feature":"64","num_nodes":"31","size_leaf_vector":"1"}},{"base_weights":[1.0302529E-3,-3.2503432E-1,3.651935E-1,-3.273404E-2,-6.7155975E-1,7.294919E-1,1.0239943E-1,2.5818387E-1,-2.791189E-1,-4.0940186E-1,-8.953845E-1,9.171238E-1,5.6640375E-1,1.8461366E-1,-7.728768E-1,-9.386519E-3,5.1318385E-2,-5.946341E-2,3.1489849E-3,-5.289943E-2,6.773329E-2,1.8899389E-1,-9.118336E-2,1.0296358E-1,4.9620733E-2,3.6813967E-2,8.2641155E-2,7.18544E-3,6.976331E-2,-1.08067885E-1,4.5738515E-2],"categories":[],"categories_nodes":[],"categories_segments":[],"categories_sizes":[],"default_left":[0,0,0,0,0,0,0,0,0,0,0,0,0,0,0,0,0,0,0,0,0,0,0,0,0,0,0,0,0,0,0],"id":17,"left_children":[1,3,5,7,9,11,13,15,17,19,21,23,25,27,29,-1,-1,-1,-1,-1,-1,-1,-1,-1,-1,-1,-1,-1,-1,-1,-1],"loss_changes":[4.1258923E2,1.8566718E2,1.5707077E2,7.1426056E1,4.885025E1,2.0525024E1,6.884577E1,4.1074814E1,5.2888344E1,5.0803932E1,2.2414825E1,1.4557495E1,1.8797035E1,5.048371E1,3.161044E1,0E0,0E0,0E0,0E0,0E0,0E0,0E0,0E0,0E0,0E0,0E0,0E0,0E0,0E0,0E0,0E0],"parents":[2147483647,0,0,1,1,2,2,3,3,4,4,5,5,6,6,7,7,8,8,9,9,10,10,11,11,12,12,13,13,14,14],"right_children":[2,4,6,8,10,12,14,16,18,20,22,24,26,28,30,-1,-1,-1,-1,-1,-1,-1,-1,-1,-1,-1,-1,-1,-1,-1,-1],"split_conditions":[1.7092426E-1,-1.8312414E-1,-4.0210876E-1,-1.22569114E-1,-1.2852083E-2,-6.3018054E-1,1.2325891E0,-8.099729E-1,4.1069326E-1,8.8292736E-1,-1.341617E0,4.2841578E-1,1.0494488E0,1.6639041E0,2.0670118E0,-9.386519E-3,5.1318385E-2,-5.946341E-2,3.1489849E-3,-5.289943E-2,6.773329E-2,1.8899389E-1,-9.118336E-2,1.0296358E-1,4.9620733E-2,3.6813967E-2,8.2641155E-2,7.18544E-3,6.976331E-2,-1.08067885E-1,4.5738515E-2],"split_indices":[19,57,13,51,13,13,11,39,28,25,38,30,19,19,19,0,0,0,0,0,0,0,0,0,0,0,0,0,0,0,0],"split_type":[0,0,0,0,0,0,0,0,0,0,0,0,0,0,0,0,0,0,0,0,0,0,0,0,0,0,0,0,0,0,0],"sum_hessian":[3.4727073E3,1.8322523E3,1.640455E3,9.94483E2,8.377693E2,6.867171E2,9.5373785E2,4.5600687E2,5.3847614E2,3.87147E2,4.506223E2,3.1718E2,3.6953714E2,8.725672E2,8.117069E1,1.9181789E2,2.6418896E2,2.6667462E2,2.718015E2,3.4922852E2,3.7918495E1,1.976901E0,4.4864542E2,2.4913852E2,6.804146E1,2.110334E2,1.5850372E2,7.162736E2,1.5629353E2,6.502383E1,1.614687E1],"tree_param":{"num_deleted":"0","num_feature":"64","num_nodes":"31","size_leaf_vector":"1"}},{"base_weights":[-5.6835962E-3,2.582769E-1,-3.9806736E-1,-5.239141E-1,3.507345E-1,-6.0050315E-1,9.490644E-3,-7.73642E-1,1.08447015E-1,6.1948866E-1,1.1320241E-1,-2.9781246E-1,-8.77017E-1,1.9820705E-1,-5.3793967E-1,-8.407949E-2,8.6283706E-2,-2.2650681E-2,8.808644E-2,8.373957E-2,3.9646145E-2,-2.600974E-3,5.4336775E-2,-2.048623E-3,-6.494686E-2,-2.1550778E-2,-9.181226E-2,1.10783454E-4,6.6800535E-2,-1.3980258E-1,-2.8876005E-2],"categories":[],"categories_nodes":[],"categories_segments":[],"categories_sizes":[],"default_left":[0,0,0,0,0,0,0,0,0,0,0,0,0,0,0,0,0,0,0,0,0,0,0,0,0,0,0,0,0,0,0],"id":18,"left_children":[1,3,5,7,9,11,13,15,17,19,21,23,25,27,29,-1,-1,-1,-1,-1,-1,-1,-1,-1,-1,-1,-1,-1,-1,-1,-1],"loss_changes":[3.5442465E2,1.4813255E2,1.1354761E2,3.4297726E1,1.16760025E2,7.669913E1,4.73907E1,1.7807571E1,1.6295858E1,4.138565E1,5.82641E1,4.2944336E1,1.2854462E1,3.158337E1,2.480043E1,0E0,0E0,0E0,0E0,0E0,0E0,0E0,0E0,0E0,0E0,0E0,0E0,0E0,0E0,0E0,0E0],"parents":[2147483647,0,0,1,1,2,2,3,3,4,4,5,5,6,6,7,7,8,8,9,9,10,10,11,11,12,12,13,13,14,14],"right_children":[2,4,6,8,10,12,14,16,18,20,22,24,26,28,30,-1,-1,-1,-1,-1,-1,-1,-1,-1,-1,-1,-1,-1,-1,-1,-1],"split_conditions":[-1.1852447E-1,-7.0270014E-1,3.0887288E-1,1.2227326E-1,-8.244489E-1,4.366789E-2,3.5773778E-1,2.0908072E0,4.0790573E-2,-3.72735E-2,5.842941E-1,-5.8307314E-1,-7.1401256E-1,9.806849E-1,-7.7577764E-1,-8.407949E-2,8.6283706E-2,-2.2650681E-2,8.808644E-2,8.373957E-2,3.9646145E-2,-2.600974E-3,5.4336775E-2,-2.048623E-3,-6.494686E-2,-2.1550778E-2,-9.181226E-2,1.10783454E-4,6.6800535E-2,-1.3980258E-1,-2.8876005E-2],"split_indices":[13,19,19,25,27,11,13,6,44,30,28,56,20,5,35,0,0,0,0,0,0,0,0,0,0,0,0,0,0,0,0],"split_type":[0,0,0,0,0,0,0,0,0,0,0,0,0,0,0,0,0,0,0,0,0,0,0,0,0,0,0,0,0,0,0],"sum_hessian":[3.4199597E3,2.0447665E3,1.3751932E3,2.156554E2,1.829111E3,9.18498E2,4.5669522E2,1.5444112E2,6.1214283E1,8.574015E2,9.717095E2,4.3948514E2,4.7901285E2,3.400926E2,1.1660265E2,1.4882048E2,5.620628E0,4.3191376E1,1.8022907E1,4.322855E2,4.2511603E2,7.3483746E2,2.3687204E2,2.4630228E2,1.9318288E2,2.8389227E1,4.5062363E2,2.4028552E2,9.980705E1,2.5157331E1,9.144532E1],"tree_param":{"num_deleted":"0","num_feature":"64","num_nodes":"31","size_leaf_vector":"1"}},{"base_weights":[7.604448E-4,5.9251326E-1,-1.4832449E-1,7.575446E-1,8.748285E-2,-3.9635608E-1,1.1004042E-1,3.4845936E-1,8.610875E-1,-4.327748E-1,6.062154E-1,-6.061856E-1,8.383299E-2,-1.1324311E-1,3.8405433E-1,5.50551E-2,-6.859751E-2,9.847424E-2,6.664231E-2,-1.0860807E-1,3.257376E-2,-2.7152944E-2,8.585625E-2,-4.0842246E-2,-8.622477E-2,3.4192972E-2,-3.4723923E-2,2.1939129E-2,-3.436759E-2,5.0006818E-2,-4.6850864E-2],"categories":[],"categories_nodes":[],"categories_segments":[],"categories_sizes":[],"default_left":[0,0,0,0,0,0,0,0,0,0,0,0,0,0,0,0,0,0,0,0,0,0,0,0,0,0,0,0,0,0,0],"id":19,"left_children":[1,3,5,7,9,11,13,15,17,19,21,23,25,27,29,-1,-1,-1,-1,-1,-1,-1,-1,-1,-1,-1,-1,-1,-1,-1,-1],"loss_changes":[2.9306766E2,5.5650772E1,1.7008401E2,2.1036743E1,4.5001713E1,1.3647868E2,7.960788E1,2.199863E1,9.00354E0,4.1657562E1,1.8711987E1,4.737024E1,4.6026703E1,5.5057976E1,5.8008698E1,0E0,0E0,0E0,0E0,0E0,0E0,0E0,0E0,0E0,0E0,0E0,0E0,0E0,0E0,0E0,0E0],"parents":[2147483647,0,0,1,1,2,2,3,3,4,4,5,5,6,6,7,7,8,8,9,9,10,10,11,11,12,12,13,13,14,14],"right_children":[2,4,6,8,10,12,14,16,18,20,22,24,26,28,30,-1,-1,-1,-1,-1,-1,-1,-1,-1,-1,-1,-1,-1,-1,-1,-1],"split_conditions":[-5.3481096E-1,4.4416887E-1,1.3022478E-1,-7.304477E-1,3.4456366E-1,6.853758E-1,2.8467393E-1,-6.7048855E-2,-6.477138E-1,3.2222494E-2,2.0767863E-1,6.9958814E-3,2.8035566E-3,-7.2214055E-1,1.3448488E0,5.50551E-2,-6.859751E-2,9.847424E-2,6.664231E-2,-1.0860807E-1,3.257376E-2,-2.7152944E-2,8.585625E-2,-4.0842246E-2,-8.622477E-2,3.4192972E-2,-3.4723923E-2,2.1939129E-2,-3.436759E-2,5.0006818E-2,-4.6850864E-2],"split_indices":[13,30,10,39,39,44,39,1,13,44,10,13,13,11,58,0,0,0,0,0,0,0,0,0,0,0,0,0,0,0,0],"split_type":[0,0,0,0,0,0,0,0,0,0,0,0,0,0,0,0,0,0,0,0,0,0,0,0,0,0,0,0,0,0,0],"sum_hessian":[3.319959E3,6.675044E2,2.6524546E3,5.0272607E2,1.6477832E2,1.3530173E3,1.2994373E3,1.0242461E2,4.0030145E2,8.235096E1,8.242736E1,9.413922E2,4.116251E2,7.1632117E2,5.8311615E2,8.607617E1,1.6348438E1,2.4231764E2,1.5798381E2,4.401179E1,3.8339165E1,1.838888E1,6.403848E1,5.326265E2,4.0876566E2,2.575991E2,1.5402602E2,2.9317093E2,4.2315024E2,5.136358E2,6.948035E1],"tree_param":{"num_deleted":"0","num_feature":"64","num_nodes":"31","size_leaf_vector":"1"}},{"base_weights":[9.389806E-3,1.6506492E-1,-5.1900697E-1,5.87844E-1,3.0690467E-2,-7.594374E-1,-1.4312896E-1,8.17028E-1,3.1324026E-1,-1.8724218E-1,2.7294365E-1,3.6393964E-1,-8.1045854E-1,1.5572271E-1,-6.906091E-1,8.915769E-2,2.6448125E-2,-6.555037E-3,7.124584E-2,-7.131761E-2,-8.020847E-3,4.346545E-2,-1.1655266E-2,-8.999038E-3,1.266938E-1,-9.672837E-2,-5.524925E-2,7.588047E-2,-5.3358446E-3,6.0498215E-2,-8.004566E-2],"categories":[],"categories_nodes":[],"categories_segments":[],"categories_sizes":[],"default_left":[0,0,0,0,0,0,0,0,0,0,0,0,0,0,0,0,0,0,0,0,0,0,0,0,0,0,0,0,0,0,0],"id":20,"left_children":[1,3,5,7,9,11,13,15,17,19,21,23,25,27,29,-1,-1,-1,-1,-1,-1,-1,-1,-1,-1,-1,-1,-1,-1,-1,-1],"loss_changes":[2.6837283E2,1.4314798E2,6.6990234E1,3.7991547E1,1.0106467E2,2.6235626E1,4.770001E1,1.3383865E1,4.209984E1,5.6675243E1,5.7147835E1,8.456528E0,1.6992401E1,2.386985E1,1.5128437E1,0E0,0E0,0E0,0E0,0E0,0E0,0E0,0E0,0E0,0E0,0E0,0E0,0E0,0E0,0E0,0E0],"parents":[2147483647,0,0,1,1,2,2,3,3,4,4,5,5,6,6,7,7,8,8,9,9,10,10,11,11,12,12,13,13,14,14],"right_children":[2,4,6,8,10,12,14,16,18,20,22,24,26,28,30,-1,-1,-1,-1,-1,-1,-1,-1,-1,-1,-1,-1,-1,-1,-1,-1],"split_conditions":[2.2588858E-1,-5.478548E-1,3.6085117E-1,-1.0677193E-1,2.5073295E-2,-4.596731E-1,8.038972E-1,3.518262E-1,2.0646696E-1,-6.525362E-1,5.8053106E-1,6.4726293E-1,7.34199E-2,-5.4770505E-1,-5.636712E-1,8.915769E-2,2.6448125E-2,-6.555037E-3,7.124584E-2,-7.131761E-2,-8.020847E-3,4.346545E-2,-1.1655266E-2,-8.999038E-3,1.266938E-1,-9.672837E-2,-5.524925E-2,7.588047E-2,-5.3358446E-3,6.0498215E-2,-8.004566E-2],"split_indices":[27,13,39,30,39,13,58,59,39,63,60,27,4,60,40,0,0,0,0,0,0,0,0,0,0,0,0,0,0,0,0],"split_type":[0,0,0,0,0,0,0,0,0,0,0,0,0,0,0,0,0,0,0,0,0,0,0,0,0,0,0,0,0,0,0],"sum_hessian":[3.260524E3,2.5190535E3,7.4147046E2,6.067321E2,1.9123213E3,4.5159024E2,2.8988022E2,3.2963986E2,2.7709225E2,1.0068127E3,9.0550867E2,1.935266E1,4.3223758E2,1.8798232E2,1.0189789E2,2.899117E2,3.972815E1,1.426127E2,1.3447957E2,1.6929263E2,8.3752E2,6.3977234E2,2.657363E2,1.3477813E1,5.874846E0,2.6710623E2,1.6513136E2,4.7716812E1,1.402655E2,7.611925E0,9.428596E1],"tree_param":{"num_deleted":"0","num_feature":"64","num_nodes":"31","size_leaf_vector":"1"}},{"base_weights":[-1.4274951E-2,-4.8666805E-1,1.5683044E-1,-5.8209175E-1,3.6401287E-1,4.1620025E-1,-9.033424E-2,-7.735614E-1,-3.0448663E-1,9.785308E-2,1.1741365E0,2.8754783E-1,7.760883E-1,-1.919115E-1,3.3465844E-1,-1.682323E-2,-8.4158055E-2,3.1242227E-2,-4.875448E-2,4.3310277E-2,-1.0540537E-1,1.3823713E-1,-4.9174793E-2,6.710503E-2,9.203793E-3,8.431562E-2,-4.746011E-2,-4.7633247E-3,-5.7905722E-2,3.975155E-2,-6.868325E-2],"categories":[],"categories_nodes":[],"categories_segments":[],"categories_sizes":[],"default_left":[0,0,0,0,0,0,0,0,0,0,0,0,0,0,0,0,0,0,0,0,0,0,0,0,0,0,0,0,0,0,0],"id":21,"left_children":[1,3,5,7,9,11,13,15,17,19,21,23,25,27,29,-1,-1,-1,-1,-1,-1,-1,-1,-1,-1,-1,-1,-1,-1,-1,-1],"loss_changes":[2.5702167E2,6.884567E1,1.4968735E2,4.0193146E1,1.8405401E1,5.2524246E1,5.1700752E1,1.8365723E1,3.540002E1,2.5844685E1,8.016554E0,6.298179E1,2.5515808E1,5.3931625E1,1.5111637E1,0E0,0E0,0E0,0E0,0E0,0E0,0E0,0E0,0E0,0E0,0E0,0E0,0E0,0E0,0E0,0E0],"parents":[2147483647,0,0,1,1,2,2,3,3,4,4,5,5,6,6,7,7,8,8,9,9,10,10,11,11,12,12,13,13,14,14],"right_children":[2,4,6,8,10,12,14,16,18,20,22,24,26,28,30,-1,-1,-1,-1,-1,-1,-1,-1,-1,-1,-1,-1,-1,-1,-1,-1],"split_conditions":[-4.2902064E-1,1.1020308E0,-5.197004E-1,-1.1088474E-1,1.2607771E0,1.1036495E0,1.2400428E0,-1.0698085E0,-8.823E-1,4.4416887E-1,5.49037E-2,-4.1564974E-1,1.8576041E0,4.9241295E-1,1.8582783E0,-1.682323E-2,-8.4158055E-2,3.1242227E-2,-4.875448E-2,4.3310277E-2,-1.0540537E-1,1.3823713E-1,-4.9174793E-2,6.710503E-2,9.203793E-3,8.431562E-2,-4.746011E-2,-4.7633247E-3,-5.7905722E-2,3.975155E-2,-6.868325E-2],"split_indices":[19,10,11,28,37,19,19,55,42,30,42,51,60,11,42,0,0,0,0,0,0,0,0,0,0,0,0,0,0,0,0],"split_type":[0,0,0,0,0,0,0,0,0,0,0,0,0,0,0,0,0,0,0,0,0,0,0,0,0,0,0,0,0,0,0],"sum_hessian":[3.177875E3,8.445024E2,2.3333728E3,7.596101E2,8.4892265E1,1.138241E3,1.1951318E3,4.4849078E2,3.1111935E2,6.474243E1,2.0149832E1,8.398214E2,2.9841953E2,9.650291E2,2.3010265E2,4.5655693E1,4.0283508E2,7.103239E1,2.4008696E2,5.0630886E1,1.4111545E1,1.8062246E1,2.087585E0,2.8275366E2,5.5706775E2,2.835406E2,1.4878941E1,7.0384796E2,2.6118118E2,2.173396E2,1.2763056E1],"tree_param":{"num_deleted":"0","num_feature":"64","num_nodes":"31","size_leaf_vector":"1"}},{"base_weights":[-4.5922417E-3,-4.9614218E-1,1.2670204E-1,-2.2694059E-1,-7.8240794E-1,3.328138E-1,-1.5205243E-1,-3.2577798E-1,8.8132846E-1,-5.876524E-1,-1.0196431E0,2.2923832E-1,7.149155E-1,-8.418874E-2,-8.828465E-1,-1.9647589E-2,-1.0356491E-1,1.6829416E-1,-1.7000247E-2,-7.587746E-2,-9.946258E-3,-1.0395131E-1,1.3234811E-2,4.8424453E-2,3.5801902E-3,8.103748E-2,6.804473E-3,-3.604522E-2,1.4306701E-2,-1.01571955E-1,-9.0280445E-3],"categories":[],"categories_nodes":[],"categories_segments":[],"categories_sizes":[],"default_left":[0,0,0,0,0,0,0,0,0,0,0,0,0,0,0,0,0,0,0,0,0,0,0,0,0,0,0,0,0,0,0],"id":22,"left_children":[1,3,5,7,9,11,13,15,17,19,21,23,25,27,29,-1,-1,-1,-1,-1,-1,-1,-1,-1,-1,-1,-1,-1,-1,-1,-1],"loss_changes":[2.0070943E2,5.0342804E1,1.4106781E2,3.7449512E1,1.4061295E1,5.5693405E1,5.1703815E1,2.8454044E1,2.3924398E1,1.4678955E1,3.3809357E0,5.4827976E1,1.8501831E1,6.0098217E1,9.2397E0,0E0,0E0,0E0,0E0,0E0,0E0,0E0,0E0,0E0,0E0,0E0,0E0,0E0,0E0,0E0,0E0],"parents":[2147483647,0,0,1,1,2,2,3,3,4,4,5,5,6,6,7,7,8,8,9,9,10,10,11,11,12,12,13,13,14,14],"right_children":[2,4,6,8,10,12,14,16,18,20,22,24,26,28,30,-1,-1,-1,-1,-1,-1,-1,-1,-1,-1,-1,-1,-1,-1,-1,-1],"split_conditions":[-5.620401E-1,-1.8312414E-1,-3.390421E-1,1.642629E0,5.581367E-1,1.1594534E0,1.2417624E0,1.4689971E0,1.6048471E0,-3.71188E-1,1.8484575E0,-1.9960095E-1,1.0672395E0,2.3714197E-1,1.4588262E0,-1.9647589E-2,-1.0356491E-1,1.6829416E-1,-1.7000247E-2,-7.587746E-2,-9.946258E-3,-1.0395131E-1,1.3234811E-2,4.8424453E-2,3.5801902E-3,8.103748E-2,6.804473E-3,-3.604522E-2,1.4306701E-2,-1.01571955E-1,-9.0280445E-3],"split_indices":[19,57,11,62,27,19,27,30,60,39,37,30,60,39,44,0,0,0,0,0,0,0,0,0,0,0,0,0,0,0,0],"split_type":[0,0,0,0,0,0,0,0,0,0,0,0,0,0,0,0,0,0,0,0,0,0,0,0,0,0,0,0,0,0,0],"sum_hessian":[3.1079827E3,6.5457056E2,2.453412E3,3.3826352E2,3.1630704E2,1.4103798E3,1.0430323E3,3.1121487E2,2.7048645E1,1.7561494E2,1.406921E2,1.1108611E3,2.9951874E2,9.5542395E2,8.7608315E1,2.6434207E2,4.687279E1,1.5006103E1,1.2042543E1,1.2962428E2,4.5990673E1,1.384025E2,2.2895958E0,4.7852313E2,6.3233795E2,2.6078217E2,3.8736584E1,4.3095154E2,5.244724E2,7.478852E1,1.2819792E1],"tree_param":{"num_deleted":"0","num_feature":"64","num_nodes":"31","size_leaf_vector":"1"}},{"base_weights":[-2.6829776E-3,4.8924878E-1,-1.2081111E-1,1.6064271E-1,6.8654543E-1,-5.025425E-2,-7.808658E-1,6.1871344E-1,-1.1001109E-1,7.1765226E-1,-1.26517E0,-1.707846E-1,2.707781E-1,-9.038156E-1,8.06694E-2,-7.575311E-2,7.829865E-2,-5.1526245E-2,3.859142E-2,-1.5115066E-1,7.366423E-2,-3.155509E-1,7.3310058E-3,-2.3224492E-2,2.5844881E-2,3.3456314E-2,-6.9593154E-2,2.975275E-2,-9.415379E-2,7.903341E-2,-8.571764E-2],"categories":[],"categories_nodes":[],"categories_segments":[],"categories_sizes":[],"default_left":[0,0,0,0,0,0,0,0,0,0,0,0,0,0,0,0,0,0,0,0,0,0,0,0,0,0,0,0,0,0,0],"id":23,"left_children":[1,3,5,7,9,11,13,15,17,19,21,23,25,27,29,-1,-1,-1,-1,-1,-1,-1,-1,-1,-1,-1,-1,-1,-1,-1,-1],"loss_changes":[1.7795317E2,3.8333344E1,1.1496025E2,2.7809654E1,2.3383652E1,8.640836E1,2.5325424E1,1.9415995E1,2.8637444E1,1.6565979E1,1.5841922E1,4.2883984E1,3.782287E1,9.738235E0,2.1104086E1,0E0,0E0,0E0,0E0,0E0,0E0,0E0,0E0,0E0,0E0,0E0,0E0,0E0,0E0,0E0,0E0],"parents":[2147483647,0,0,1,1,2,2,3,3,4,4,5,5,6,6,7,7,8,8,9,9,10,10,11,11,12,12,13,13,14,14],"right_children":[2,4,6,8,10,12,14,16,18,20,22,24,26,28,30,-1,-1,-1,-1,-1,-1,-1,-1,-1,-1,-1,-1,-1,-1,-1,-1],"split_conditions":[-5.3481096E-1,1.24710664E-1,9.56443E-1,-3.0619308E-1,1.6452876E0,6.5974206E-1,1.019066E0,-1.3203526E0,7.605299E-1,-1.642735E0,-2.6204687E-1,1.164344E0,1.3448488E0,-1.6234714E0,4.5473254E-1,-7.575311E-2,7.829865E-2,-5.1526245E-2,3.859142E-2,-1.5115066E-1,7.366423E-2,-3.155509E-1,7.3310058E-3,-2.3224492E-2,2.5844881E-2,3.3456314E-2,-6.9593154E-2,2.975275E-2,-9.415379E-2,7.903341E-2,-8.571764E-2],"split_indices":[13,19,57,30,61,19,19,39,28,41,55,10,58,28,36,0,0,0,0,0,0,0,0,0,0,0,0,0,0,0,0],"split_type":[0,0,0,0,0,0,0,0,0,0,0,0,0,0,0,0,0,0,0,0,0,0,0,0,0,0,0,0,0,0,0],"sum_hessian":[3.0602812E3,5.9196515E2,2.4683162E3,2.2276115E2,3.69204E2,2.2309172E3,2.3739883E2,8.2257545E1,1.405036E2,3.6403424E2,5.169753E0,1.6222993E3,6.08618E2,2.0770776E2,2.9691078E1,8.38643E0,7.387112E1,7.72989E1,6.3204716E1,2.4110932E0,3.6162317E2,1.5803246E0,3.5894282E0,1.4195048E3,2.027946E2,5.7155945E2,3.7058495E1,6.1138153E0,2.0159395E2,1.699119E1,1.2699887E1],"tree_param":{"num_deleted":"0","num_feature":"64","num_nodes":"31","size_leaf_vector":"1"}},{"base_weights":[1.5516312E-2,3.3558425E-1,-1.7688093E-1,-3.175979E-1,4.3077242E-1,-3.4277898E-1,2.3935466E-1,-5.0103337E-1,1.0175346E0,5.262681E-1,2.189687E-2,-2.4062523E-1,-6.951423E-1,3.9121783E-1,-3.9469895E-1,2.4941472E-2,-7.393657E-2,1.3421069E-1,-1.124725E-1,4.0830676E-2,8.4855735E-2,-4.0335096E-2,5.3644057E-2,-3.7412513E-2,5.141469E-4,1.0977403E-1,-7.43753E-2,2.684317E-2,9.414548E-2,3.4553092E-2,-6.976563E-2],"categories":[],"categories_nodes":[],"categories_segments":[],"categories_sizes":[],"default_left":[0,0,0,0,0,0,0,0,0,0,0,0,0,0,0,0,0,0,0,0,0,0,0,0,0,0,0,0,0,0,0],"id":24,"left_children":[1,3,5,7,9,11,13,15,17,19,21,23,25,27,29,-1,-1,-1,-1,-1,-1,-1,-1,-1,-1,-1,-1,-1,-1,-1,-1],"loss_changes":[1.8630995E2,7.075886E1,1.3056851E2,3.6033993E1,3.8714386E1,4.848227E1,5.206508E1,2.3113453E1,1.3921762E1,3.0218903E1,4.1533585E1,3.44299E1,2.7244446E1,2.9166283E1,2.3714275E1,0E0,0E0,0E0,0E0,0E0,0E0,0E0,0E0,0E0,0E0,0E0,0E0,0E0,0E0,0E0,0E0],"parents":[2147483647,0,0,1,1,2,2,3,3,4,4,5,5,6,6,7,7,8,8,9,9,10,10,11,11,12,12,13,13,14,14],"right_children":[2,4,6,8,10,12,14,16,18,20,22,24,26,28,30,-1,-1,-1,-1,-1,-1,-1,-1,-1,-1,-1,-1,-1,-1,-1,-1],"split_conditions":[-6.201407E-1,-6.824857E-1,7.0291275E-1,8.665784E-1,8.366279E-1,6.0424036E-1,8.9932895E-1,-1.4876257E0,2.7753978E0,9.1086483E-1,1.0103685E0,2.7228287E-1,-4.136813E-1,9.234414E-1,-5.85535E-1,2.4941472E-2,-7.393657E-2,1.3421069E-1,-1.124725E-1,4.0830676E-2,8.4855735E-2,-4.0335096E-2,5.3644057E-2,-3.7412513E-2,5.141469E-4,1.0977403E-1,-7.43753E-2,2.684317E-2,9.414548E-2,3.4553092E-2,-6.976563E-2],"split_indices":[9,19,44,25,51,57,9,38,17,19,39,39,11,36,1,0,0,0,0,0,0,0,0,0,0,0,0,0,0,0,0],"split_type":[0,0,0,0,0,0,0,0,0,0,0,0,0,0,0,0,0,0,0,0,0,0,0,0,0,0,0,0,0,0,0],"sum_hessian":[3.0235212E3,1.1348555E3,1.8886656E3,1.4404951E2,9.9080597E2,1.3505547E3,5.38111E2,1.27198326E2,1.68512E1,8.0297784E2,1.878281E2,1.0483191E3,3.022356E2,4.3444052E2,1.0367053E2,3.0648249E1,9.655007E1,1.4958375E1,1.8928242E0,5.894863E2,2.134915E2,1.02955765E2,8.487233E1,6.789777E2,3.693413E2,7.4085283E0,2.9482706E2,3.5639774E2,7.8042786E1,3.0066679E1,7.360385E1],"tree_param":{"num_deleted":"0","num_feature":"64","num_nodes":"31","size_leaf_vector":"1"}},{"base_weights":[-1.1099136E-2,1.9814537E-1,-2.659644E-1,-2.7424434E-1,2.9027233E-1,-7.079158E-1,-1.4646646E-1,9.198139E-2,-6.3044727E-1,1.6256467E-1,6.012224E-1,-8.169295E-1,2.8665137E-1,-6.151402E-2,-7.261998E-1,2.6821068E-2,-6.083865E-2,-9.165682E-2,-2.139198E-3,6.670457E-2,6.305077E-3,6.3484415E-2,-6.073877E-2,-4.2264137E-2,-9.447581E-2,1.0248969E-1,-8.442812E-2,-1.5973298E-2,3.7248753E-2,-2.6337788E-3,-9.117725E-2],"categories":[],"categories_nodes":[],"categories_segments":[],"categories_sizes":[],"default_left":[0,0,0,0,0,0,0,0,0,0,0,0,0,0,0,0,0,0,0,0,0,0,0,0,0,0,0,0,0,0,0],"id":25,"left_children":[1,3,5,7,9,11,13,15,17,19,21,23,25,27,29,-1,-1,-1,-1,-1,-1,-1,-1,-1,-1,-1,-1,-1,-1,-1,-1],"loss_changes":[1.5747066E2,7.064961E1,7.020309E1,3.4646538E1,5.38061E1,3.092633E1,5.1627E1,1.6406776E1,2.3425781E1,4.833325E1,1.6429214E1,1.2472092E1,2.4830103E1,3.9113457E1,1.7379402E1,0E0,0E0,0E0,0E0,0E0,0E0,0E0,0E0,0E0,0E0,0E0,0E0,0E0,0E0,0E0,0E0],"parents":[2147483647,0,0,1,1,2,2,3,3,4,4,5,5,6,6,7,7,8,8,9,9,10,10,11,11,12,12,13,13,14,14],"right_children":[2,4,6,8,10,12,14,16,18,20,22,24,26,28,30,-1,-1,-1,-1,-1,-1,-1,-1,-1,-1,-1,-1,-1,-1,-1,-1],"split_conditions":[-2.6067302E-1,-8.585763E-1,-5.4621106E-1,-9.1855013E-1,1.3500112E-1,1.137152E0,1.3448488E0,-3.7768567E-1,-7.503164E-2,-8.64594E-1,1.5810728E0,-5.3452367E-1,3.8927084E-1,1.3034835E0,-7.2859335E-1,2.6821068E-2,-6.083865E-2,-9.165682E-2,-2.139198E-3,6.670457E-2,6.305077E-3,6.3484415E-2,-6.073877E-2,-4.2264137E-2,-9.447581E-2,1.0248969E-1,-8.442812E-2,-1.5973298E-2,3.7248753E-2,-2.6337788E-3,-9.117725E-2],"split_indices":[9,39,28,11,50,36,58,33,28,60,26,40,11,44,20,0,0,0,0,0,0,0,0,0,0,0,0,0,0,0,0],"split_type":[0,0,0,0,0,0,0,0,0,0,0,0,0,0,0,0,0,0,0,0,0,0,0,0,0,0,0,0,0,0,0],"sum_hessian":[2.9508179E3,1.6205599E3,1.330258E3,2.6414658E2,1.3564133E3,2.8208182E2,1.0481761E3,1.3060667E2,1.335399E2,9.625964E2,3.93817E2,2.5437823E2,2.7703598E1,9.151752E2,1.3300102E2,1.0484278E2,2.5763903E1,9.051366E1,4.302624E1,1.5765726E2,8.0493915E2,3.8362E2,1.0197003E1,6.3333103E1,1.9104514E2,1.6818588E1,1.088501E1,7.4679895E2,1.683762E2,2.8114168E1,1.0488685E2],"tree_param":{"num_deleted":"0","num_feature":"64","num_nodes":"31","size_leaf_vector":"1"}},{"base_weights":[1.1077358E-2,-4.7708508E-1,1.0347153E-1,-1.361402E-1,-7.5164956E-1,5.0423783E-1,1.2528074E-3,-5.8155274E-1,1.5911853E-1,-1.5266725E-1,-9.0473264E-1,6.796763E-1,-6.5442827E-3,3.6054146E-2,-8.393074E-1,-7.715935E-2,2.596499E-2,2.9101824E-2,-1.4098434E-1,-6.609279E-2,5.34075E-2,-9.805214E-2,-9.944878E-4,-7.359939E-2,7.186763E-2,-4.1935366E-2,3.450338E-2,5.570008E-4,7.865939E-2,-9.806424E-2,-3.2309375E-3],"categories":[],"categories_nodes":[],"categories_segments":[],"categories_sizes":[],"default_left":[0,0,0,0,0,0,0,0,0,0,0,0,0,0,0,0,0,0,0,0,0,0,0,0,0,0,0,0,0,0,0],"id":26,"left_children":[1,3,5,7,9,11,13,15,17,19,21,23,25,27,29,-1,-1,-1,-1,-1,-1,-1,-1,-1,-1,-1,-1,-1,-1,-1,-1],"loss_changes":[1.320759E2,4.3523827E1,1.0086394E2,2.7592804E1,2.3512192E1,4.4842926E1,5.7447166E1,1.3560581E1,2.659623E1,1.9098036E1,1.3907333E1,2.109256E1,1.8854626E1,4.3140057E1,8.873329E0,0E0,0E0,0E0,0E0,0E0,0E0,0E0,0E0,0E0,0E0,0E0,0E0,0E0,0E0,0E0,0E0],"parents":[2147483647,0,0,1,1,2,2,3,3,4,4,5,5,6,6,7,7,8,8,9,9,10,10,11,11,12,12,13,13,14,14],"right_children":[2,4,6,8,10,12,14,16,18,20,22,24,26,28,30,-1,-1,-1,-1,-1,-1,-1,-1,-1,-1,-1,-1,-1,-1,-1,-1],"split_conditions":[-6.7522615E-1,-3.9902315E-1,-1.1088465E0,-3.7725925E-1,-5.210848E-1,4.5069513E-1,1.2417624E0,8.118834E-1,9.208231E-1,-2.9834723E-1,1.795651E0,-7.536722E-1,3.4456366E-1,2.4639513E0,1.571057E0,-7.715935E-2,2.596499E-2,2.9101824E-2,-1.4098434E-1,-6.609279E-2,5.34075E-2,-9.805214E-2,-9.944878E-4,-7.359939E-2,7.186763E-2,-4.1935366E-2,3.450338E-2,5.570008E-4,7.865939E-2,-9.806424E-2,-3.2309375E-3],"split_indices":[19,42,11,54,20,60,27,34,51,62,6,34,39,19,4,0,0,0,0,0,0,0,0,0,0,0,0,0,0,0,0],"split_type":[0,0,0,0,0,0,0,0,0,0,0,0,0,0,0,0,0,0,0,0,0,0,0,0,0,0,0,0,0,0,0],"sum_hessian":[2.926199E3,4.6503482E2,2.461164E3,2.081085E2,2.569263E2,4.9936884E2,1.9617953E3,8.257315E1,1.2553536E2,5.2703968E1,2.0422234E2,3.7145456E2,1.2791426E2,1.8847201E3,7.707512E1,6.742381E1,1.5149338E1,1.165516E2,8.983761E0,3.0309431E1,2.2394537E1,1.8818706E2,1.6035286E1,9.479615E0,3.6197495E2,5.874517E1,6.916908E1,1.8121257E3,7.25944E1,6.540511E1,1.1670003E1],"tree_param":{"num_deleted":"0","num_feature":"64","num_nodes":"31","size_leaf_vector":"1"}},{"base_weights":[3.8758535E-3,2.1484886E-1,-1.6821618E-1,-2.711407E-4,4.5620534E-1,-1.1687257E-1,-8.6681587E-1,-1.338096E-1,5.780714E-1,5.22118E-1,-5.326992E-1,-2.71612E-1,1.5053464E-1,-9.7558534E-1,-8.725228E-2,2.4579527E-2,-3.793997E-2,7.356358E-2,-8.7303124E-2,8.750259E-2,3.864211E-2,-1.8150066E-1,-2.8928941E-2,-5.0168183E-2,-6.7372606E-3,3.7246965E-2,-2.2981372E-2,9.4156384E-2,-1.0062035E-1,1.1196543E-1,-9.969158E-2],"categories":[],"categories_nodes":[],"categories_segments":[],"categories_sizes":[],"default_left":[0,0,0,0,0,0,0,0,0,0,0,0,0,0,0,0,0,0,0,0,0,0,0,0,0,0,0,0,0,0,0],"id":27,"left_children":[1,3,5,7,9,11,13,15,17,19,21,23,25,27,29,-1,-1,-1,-1,-1,-1,-1,-1,-1,-1,-1,-1,-1,-1,-1,-1],"loss_changes":[1.0456272E2,6.717621E1,5.6792095E1,5.298773E1,4.002111E1,6.1228104E1,9.109627E0,5.2057293E1,3.0068775E1,2.7060532E1,1.152155E1,4.3997437E1,4.589417E1,6.5275345E0,1.6898867E1,0E0,0E0,0E0,0E0,0E0,0E0,0E0,0E0,0E0,0E0,0E0,0E0,0E0,0E0,0E0,0E0],"parents":[2147483647,0,0,1,1,2,2,3,3,4,4,5,5,6,6,7,7,8,8,9,9,10,10,11,11,12,12,13,13,14,14],"right_children":[2,4,6,8,10,12,14,16,18,20,22,24,26,28,30,-1,-1,-1,-1,-1,-1,-1,-1,-1,-1,-1,-1,-1,-1,-1,-1],"split_conditions":[-5.6171036E-1,-3.0786323E-3,1.2417624E0,1.6561836E0,8.690473E-1,2.7228287E-1,1.0883224E0,-6.777092E-2,1.610611E0,-3.414813E-1,-4.0180743E-1,1.3500112E-1,-1.3493294E-2,-9.074018E-1,1.2288536E0,2.4579527E-2,-3.793997E-2,7.356358E-2,-8.7303124E-2,8.750259E-2,3.864211E-2,-1.8150066E-1,-2.8928941E-2,-5.0168183E-2,-6.7372606E-3,3.7246965E-2,-2.2981372E-2,9.4156384E-2,-1.0062035E-1,1.1196543E-1,-9.969158E-2],"split_indices":[57,63,27,39,9,39,37,51,58,30,8,50,30,45,58,0,0,0,0,0,0,0,0,0,0,0,0,0,0,0,0],"split_type":[0,0,0,0,0,0,0,0,0,0,0,0,0,0,0,0,0,0,0,0,0,0,0,0,0,0,0,0,0,0,0],"sum_hessian":[2.8779832E3,1.2928229E3,1.5851604E3,6.840928E2,6.0873004E2,1.4777224E3,1.0743795E2,5.563914E2,1.2770133E2,5.711347E2,3.7595333E1,9.360479E2,5.4167456E2,9.4062355E1,1.3375598E1,2.1856226E2,3.3782916E2,1.1563811E2,1.2063227E1,1.5710423E2,4.140305E2,4.9678125E0,3.262752E1,4.3950345E2,4.9654443E2,3.4208636E2,1.9958821E2,1.0109376E0,9.3051414E1,5.649377E0,7.7262216E0],"tree_param":{"num_deleted":"0","num_feature":"64","num_nodes":"31","size_leaf_vector":"1"}},{"base_weights":[-3.2652086E-3,1.2111862E-1,-3.163378E-1,5.303698E-1,4.437564E-2,-5.343007E-1,1.5809754E-2,7.083307E-1,5.5708043E-2,-6.0317684E-2,3.3648893E-1,4.1515207E-1,-6.069251E-1,3.6877525E-1,-3.6404166E-1,-1.2967314E-2,7.977366E-2,3.309619E-2,-6.893308E-2,2.9226452E-2,-1.35475835E-2,5.5387255E-2,1.4316102E-2,1.00491025E-1,-6.0269255E-2,-8.854599E-2,-4.178023E-2,-5.7848897E-2,5.0673064E-2,-5.6292903E-2,6.273918E-2],"categories":[],"categories_nodes":[],"categories_segments":[],"categories_sizes":[],"default_left":[0,0,0,0,0,0,0,0,0,0,0,0,0,0,0,0,0,0,0,0,0,0,0,0,0,0,0,0,0,0,0],"id":28,"left_children":[1,3,5,7,9,11,13,15,17,19,21,23,25,27,29,-1,-1,-1,-1,-1,-1,-1,-1,-1,-1,-1,-1,-1,-1,-1,-1],"loss_changes":[1.0942479E2,6.3137573E1,5.785105E1,2.677768E1,5.1844193E1,3.3517715E1,4.2708145E1,1.739672E1,1.8203993E1,3.3119465E1,1.871685E1,2.1539757E1,2.3259201E1,2.1867315E1,3.0610582E1,0E0,0E0,0E0,0E0,0E0,0E0,0E0,0E0,0E0,0E0,0E0,0E0,0E0,0E0,0E0,0E0],"parents":[2147483647,0,0,1,1,2,2,3,3,4,4,5,5,6,6,7,7,8,8,9,9,10,10,11,11,12,12,13,13,14,14],"right_children":[2,4,6,8,10,12,14,16,18,20,22,24,26,28,30,-1,-1,-1,-1,-1,-1,-1,-1,-1,-1,-1,-1,-1,-1,-1,-1],"split_conditions":[6.9958814E-3,-6.3018054E-1,2.2265157E-1,4.4416887E-1,7.0291275E-1,-1.2337533E0,-1.1925578E-1,-1.2641903E0,1.6385409E-1,-8.0317754E-1,-6.991714E-1,-6.0399935E-2,-3.3493632E-1,-9.597554E-1,2.236187E0,-1.2967314E-2,7.977366E-2,3.309619E-2,-6.893308E-2,2.9226452E-2,-1.35475835E-2,5.5387255E-2,1.4316102E-2,1.00491025E-1,-6.0269255E-2,-8.854599E-2,-4.178023E-2,-5.7848897E-2,5.0673064E-2,-5.6292903E-2,6.273918E-2],"split_indices":[13,13,24,30,44,9,26,43,20,30,11,22,5,33,24,0,0,0,0,0,0,0,0,0,0,0,0,0,0,0,0],"split_type":[0,0,0,0,0,0,0,0,0,0,0,0,0,0,0,0,0,0,0,0,0,0,0,0,0,0,0,0,0,0,0],"sum_hessian":[2.8080188E3,2.0100417E3,7.9797705E2,3.164708E2,1.693571E3,4.814378E2,3.1653928E2,2.2981569E2,8.66551E1,1.247324E3,4.4624704E2,3.3873775E1,4.4756406E2,1.6409142E2,1.5244785E2,2.21117E1,2.07704E2,6.3683186E1,2.297191E1,2.1865938E2,1.0286646E3,2.0917717E2,2.3706985E2,2.1455034E1,1.2418739E1,1.7950789E2,2.6805615E2,2.0453707E1,1.4363771E2,1.2733575E2,2.5112099E1],"tree_param":{"num_deleted":"0","num_feature":"64","num_nodes":"31","size_leaf_vector":"1"}},{"base_weights":[1.7675273E-2,1.01625964E-1,-3.8073182E-1,-4.1494302E-2,3.2713625E-1,-7.310061E-1,-1.775138E-1,-1.1730818E-1,3.0955154E-1,3.660844E-1,-6.6951007E-1,2.8145292E-1,-8.449926E-1,-2.182562E-2,-7.109552E-1,1.075284E-2,-2.7922813E-2,7.5256303E-3,1.257704E-1,6.4375244E-2,2.4674242E-2,8.27597E-3,-1.3894977E-1,1.8946771E-1,-4.3083496E-2,1.729151E-2,-8.9694485E-2,-1.5626334E-2,8.325907E-2,-1.0303559E-1,1.915004E-2],"categories":[],"categories_nodes":[],"categories_segments":[],"categories_sizes":[],"default_left":[0,0,0,0,0,0,0,0,0,0,0,0,0,0,0,0,0,0,0,0,0,0,0,0,0,0,0,0,0,0,0],"id":29,"left_children":[1,3,5,7,9,11,13,15,17,19,21,23,25,27,29,-1,-1,-1,-1,-1,-1,-1,-1,-1,-1,-1,-1,-1,-1,-1,-1],"loss_changes":[9.4456245E1,7.5292534E1,3.4857742E1,3.8034573E1,3.5400955E1,2.102768E1,2.5927574E1,4.280259E1,5.6298565E1,2.8745468E1,1.8755154E1,2.262489E1,8.730812E0,2.8023718E1,2.0530281E1,0E0,0E0,0E0,0E0,0E0,0E0,0E0,0E0,0E0,0E0,0E0,0E0,0E0,0E0,0E0,0E0],"parents":[2147483647,0,0,1,1,2,2,3,3,4,4,5,5,6,6,7,7,8,8,9,9,10,10,11,11,12,12,13,13,14,14],"right_children":[2,4,6,8,10,12,14,16,18,20,22,24,26,28,30,-1,-1,-1,-1,-1,-1,-1,-1,-1,-1,-1,-1,-1,-1,-1,-1],"split_conditions":[3.8927084E-1,3.45447E-1,1.2530147E-1,7.152052E-1,5.776408E-1,-6.658813E-1,1.4153643E0,-7.339008E-1,4.7770378E-1,-1.042667E0,-2.9865938E-1,5.2501714E-1,-4.3649295E-1,1.4588825E0,1.022097E0,1.075284E-2,-2.7922813E-2,7.5256303E-3,1.257704E-1,6.4375244E-2,2.4674242E-2,8.27597E-3,-1.3894977E-1,1.8946771E-1,-4.3083496E-2,1.729151E-2,-8.9694485E-2,-1.5626334E-2,8.325907E-2,-1.0303559E-1,1.915004E-2],"split_indices":[11,19,39,36,13,33,11,57,25,11,41,16,13,28,44,0,0,0,0,0,0,0,0,0,0,0,0,0,0,0,0],"split_type":[0,0,0,0,0,0,0,0,0,0,0,0,0,0,0,0,0,0,0,0,0,0,0,0,0,0,0,0,0,0,0],"sum_hessian":[2.8219385E3,2.3314167E3,4.9052158E2,1.4267468E3,9.0467E2,1.7914436E2,3.113772E2,1.1738922E3,2.5285468E2,8.712547E2,3.341526E1,1.797918E1,1.6116519E2,2.4183661E2,6.9540596E1,4.916037E2,6.8228845E2,2.0361847E2,4.9236202E1,2.605799E2,6.106748E2,1.6774105E1,1.6641155E1,4.9984527E0,1.2980727E1,7.7130938E0,1.5345209E2,2.0966422E2,3.21724E1,5.1257584E1,1.8283012E1],"tree_param":{"num_deleted":"0","num_feature":"64","num_nodes":"31","size_leaf_vector":"1"}},{"base_weights":[9.816931E-3,-3.7367493E-1,8.973673E-2,-2.3541075E-1,-8.702798E-1,2.6044056E-1,-9.930225E-2,-3.3011588E-1,8.714537E-1,-9.3858635E-1,9.313594E-1,6.341048E-2,4.3201774E-1,-1.8917522E-1,2.6615593E-1,-4.576654E-2,3.0222466E-2,1.5863362E-1,2.144182E-2,-5.230981E-2,-1.0186537E-1,1.9024456E-1,-6.859975E-2,-1.0607557E-2,5.6133825E-2,7.032043E-2,2.5021315E-2,-3.3968817E-2,1.1148653E-2,4.4332106E-2,-1.9263484E-2],"categories":[],"categories_nodes":[],"categories_segments":[],"categories_sizes":[],"default_left":[0,0,0,0,0,0,0,0,0,0,0,0,0,0,0,0,0,0,0,0,0,0,0,0,0,0,0,0,0,0,0],"id":30,"left_children":[1,3,5,7,9,11,13,15,17,19,21,23,25,27,29,-1,-1,-1,-1,-1,-1,-1,-1,-1,-1,-1,-1,-1,-1,-1,-1],"loss_changes":[8.513003E1,3.2686714E1,7.419741E1,3.971025E1,1.3667206E1,4.0813316E1,3.5897026E1,2.8138477E1,1.37116585E1,2.8156433E0,8.057446E0,4.761512E1,3.1653343E1,3.9705315E1,1.7628788E1,0E0,0E0,0E0,0E0,0E0,0E0,0E0,0E0,0E0,0E0,0E0,0E0,0E0,0E0,0E0,0E0],"parents":[2147483647,0,0,1,1,2,2,3,3,4,4,5,5,6,6,7,7,8,8,9,9,10,10,11,11,12,12,13,13,14,14],"right_children":[2,4,6,8,10,12,14,16,18,20,22,24,26,28,30,-1,-1,-1,-1,-1,-1,-1,-1,-1,-1,-1,-1,-1,-1,-1,-1],"split_conditions":[-6.224941E-1,4.2174542E-1,-3.4276024E-1,1.795651E0,1.5788388E0,-3.0786323E-3,1.3925738E0,1.0045959E0,5.882296E-1,-1.1553371E-1,6.23141E-2,1.1984797E0,-8.200333E-1,6.527229E-1,2.2588858E-1,-4.576654E-2,3.0222466E-2,1.5863362E-1,2.144182E-2,-5.230981E-2,-1.0186537E-1,1.9024456E-1,-6.859975E-2,-1.0607557E-2,5.6133825E-2,7.032043E-2,2.5021315E-2,-3.3968817E-2,1.1148653E-2,4.4332106E-2,-1.9263484E-2],"split_indices":[19,27,9,6,28,63,63,10,23,40,45,39,57,5,27,0,0,0,0,0,0,0,0,0,0,0,0,0,0,0,0],"split_type":[0,0,0,0,0,0,0,0,0,0,0,0,0,0,0,0,0,0,0,0,0,0,0,0,0,0,0,0,0,0,0],"sum_hessian":[2.7755225E3,4.7803165E2,2.2974907E3,3.7507715E2,1.0295451E2,1.2070955E3,1.0903954E3,3.461608E2,2.891633E1,9.9655266E1,3.2992506E0,5.6250934E2,6.445861E2,8.75561E2,2.148344E2,2.8828668E2,5.7874115E1,1.3171164E1,1.5745167E1,1.7318537E1,8.233673E1,1.9513572E0,1.3478932E0,4.202503E2,1.4225902E2,2.575488E2,3.8703732E2,5.833852E2,2.9217572E2,1.5500998E2,5.9824413E1],"tree_param":{"num_deleted":"0","num_feature":"64","num_nodes":"31","size_leaf_vector":"1"}},{"base_weights":[1.0692347E-3,2.3584628E-1,-1.3870046E-1,2.8945068E-1,-7.044567E-1,-2.5631157E-1,1.6018435E-1,3.4044352E-1,-5.1606447E-1,-9.544407E-2,-1.1942028E0,-2.1084903E-1,-8.9915824E-1,3.8505366E-1,-5.1732156E-2,5.1228803E-2,9.663566E-3,-2.4526034E-2,-1.8003333E-1,-1.0036381E-1,3.9651327E-2,-1.4350937E-1,1.6515464E-2,-1.5488403E-2,-8.0286615E-2,-9.6117504E-2,5.0668616E-2,-5.2915223E-2,4.9498398E-2,-6.2123667E-2,1.289116E-2],"categories":[],"categories_nodes":[],"categories_segments":[],"categories_sizes":[],"default_left":[0,0,0,0,0,0,0,0,0,0,0,0,0,0,0,0,0,0,0,0,0,0,0,0,0,0,0,0,0,0,0],"id":31,"left_children":[1,3,5,7,9,11,13,15,17,19,21,23,25,27,29,-1,-1,-1,-1,-1,-1,-1,-1,-1,-1,-1,-1,-1,-1,-1,-1],"loss_changes":[8.953466E1,5.1525135E1,6.0161953E1,3.977186E1,1.6351622E1,3.5691338E1,2.306398E1,3.7959312E1,1.9656628E1,1.18775425E1,1.0228355E1,3.7909622E1,7.5302887E0,2.385262E1,2.5782913E1,0E0,0E0,0E0,0E0,0E0,0E0,0E0,0E0,0E0,0E0,0E0,0E0,0E0,0E0,0E0,0E0],"parents":[2147483647,0,0,1,1,2,2,3,3,4,4,5,5,6,6,7,7,8,8,9,9,10,10,11,11,12,12,13,13,14,14],"right_children":[2,4,6,8,10,12,14,16,18,20,22,24,26,28,30,-1,-1,-1,-1,-1,-1,-1,-1,-1,-1,-1,-1,-1,-1,-1,-1],"split_conditions":[-6.201407E-1,1.7662416E0,7.2357166E-1,3.4072873E-1,-6.790677E-1,1.1406946E0,2.2947216E-1,-3.039676E-1,7.3446E-2,-8.5005784E-1,-2.015103E-1,9.2706424E-1,1.1229845E0,-1.5722656E-1,-2.1377878E-1,5.1228803E-2,9.663566E-3,-2.4526034E-2,-1.8003333E-1,-1.0036381E-1,3.9651327E-2,-1.4350937E-1,1.6515464E-2,-1.5488403E-2,-8.0286615E-2,-9.6117504E-2,5.0668616E-2,-5.2915223E-2,4.9498398E-2,-6.2123667E-2,1.289116E-2],"split_indices":[9,60,44,59,61,27,30,26,30,54,63,17,54,63,5,0,0,0,0,0,0,0,0,0,0,0,0,0,0,0,0],"split_type":[0,0,0,0,0,0,0,0,0,0,0,0,0,0,0,0,0,0,0,0,0,0,0,0,0,0,0,0,0,0,0],"sum_hessian":[2.7264941E3,1.01718994E3,1.7093042E3,9.629847E2,5.420525E1,1.2267291E3,4.8257513E2,9.061957E2,5.6789036E1,2.4693317E1,2.951193E1,1.1469445E3,7.978464E1,2.3373584E2,2.4883931E2,5.308983E2,3.7529733E2,4.7883232E1,8.905807E0,8.310801E0,1.6382519E1,2.502207E1,4.48986E0,1.0490376E3,9.790681E1,7.67167E1,3.067943E0,2.4679752E1,2.0905608E2,5.9335835E1,1.8950346E2],"tree_param":{"num_deleted":"0","num_feature":"64","num_nodes":"31","size_leaf_vector":"1"}},{"base_weights":[1.1364056E-2,1.7113625E-1,-1.6869785E-1,-6.461671E-2,3.2664338E-1,1.3612376E-1,-3.4552878E-1,3.5507843E-1,-1.6015486E-1,5.5671275E-1,9.391869E-2,-2.0930366E-1,3.8163584E-1,-7.329326E-1,-1.7897893E-1,-1.8003605E-2,7.241532E-2,-2.5298873E-2,4.034299E-2,6.6024885E-2,1.1216333E-2,3.538036E-2,-2.6287844E-2,-4.3797415E-2,4.12386E-2,2.7643729E-2,1.0792189E-1,-9.6076824E-2,-4.0481113E-2,-2.1393947E-1,-1.4697968E-2],"categories":[],"categories_nodes":[],"categories_segments":[],"categories_sizes":[],"default_left":[0,0,0,0,0,0,0,0,0,0,0,0,0,0,0,0,0,0,0,0,0,0,0,0,0,0,0,0,0,0,0],"id":32,"left_children":[1,3,5,7,9,11,13,15,17,19,21,23,25,27,29,-1,-1,-1,-1,-1,-1,-1,-1,-1,-1,-1,-1,-1,-1,-1,-1],"loss_changes":[7.750785E1,5.2353928E1,6.832361E1,2.2839344E1,4.6009743E1,3.957934E1,5.1610535E1,2.0999464E1,2.4353195E1,1.9828293E1,3.986112E1,2.7781445E1,1.9706997E1,1.7611267E1,3.49498E1,0E0,0E0,0E0,0E0,0E0,0E0,0E0,0E0,0E0,0E0,0E0,0E0,0E0,0E0,0E0,0E0],"parents":[2147483647,0,0,1,1,2,2,3,3,4,4,5,5,6,6,7,7,8,8,9,9,10,10,11,11,12,12,13,13,14,14],"right_children":[2,4,6,8,10,12,14,16,18,20,22,24,26,28,30,-1,-1,-1,-1,-1,-1,-1,-1,-1,-1,-1,-1,-1,-1,-1,-1],"split_conditions":[-3.1518525E-1,-6.9327915E-1,-4.8534614E-1,-9.494164E-1,-1.1519768E-1,8.142014E-2,-1.8838505E-1,-9.449628E-1,-5.3518134E-1,-9.478521E-2,-8.4396183E-1,1.0659122E0,1.0311198E-1,1.9142108E-1,-1.0678567E0,-1.8003605E-2,7.241532E-2,-2.5298873E-2,4.034299E-2,6.6024885E-2,1.1216333E-2,3.538036E-2,-2.6287844E-2,-4.3797415E-2,4.12386E-2,2.7643729E-2,1.0792189E-1,-9.6076824E-2,-4.0481113E-2,-2.1393947E-1,-1.4697968E-2],"split_indices":[26,2,60,58,30,33,5,43,35,11,57,63,4,63,31,0,0,0,0,0,0,0,0,0,0,0,0,0,0,0,0],"split_type":[0,0,0,0,0,0,0,0,0,0,0,0,0,0,0,0,0,0,0,0,0,0,0,0,0,0,0,0,0,0,0],"sum_hessian":[2.6921516E3,1.4264692E3,1.2656825E3,5.671854E2,8.592838E2,4.647593E2,8.009231E2,1.0466775E2,4.6251767E2,4.3140695E2,4.2787686E2,1.9315045E2,2.7160886E2,2.3978041E2,5.611427E2,4.293268E1,6.173507E1,3.9757938E2,6.493829E1,3.4951846E2,8.188848E1,2.4756395E2,1.8031293E2,1.4142638E2,5.172408E1,2.3722984E2,3.4379017E1,1.4037857E2,9.940185E1,7.954542E0,5.531882E2],"tree_param":{"num_deleted":"0","num_feature":"64","num_nodes":"31","size_leaf_vector":"1"}},{"base_weights":[3.910941E-3,8.132581E-2,-3.177813E-1,-1.1418501E-1,2.066847E-1,-5.888447E-1,7.2339915E-2,3.180877E-1,-2.1037373E-1,4.3338478E-1,7.947504E-3,-7.08009E-1,-3.225708E-3,1.7702551E-1,-9.5981705E-1,-3.824038E-2,5.0283846E-2,3.4927826E-2,-2.9335676E-2,5.2613605E-2,3.8694143E-3,-8.873231E-3,5.6054074E-2,-3.313101E-2,-8.996196E-2,7.190067E-2,-5.444419E-2,6.3277516E-3,9.663137E-2,7.678801E-2,-1.1143929E-1],"categories":[],"categories_nodes":[],"categories_segments":[],"categories_sizes":[],"default_left":[0,0,0,0,0,0,0,0,0,0,0,0,0,0,0,0,0,0,0,0,0,0,0,0,0,0,0,0,0,0,0],"id":33,"left_children":[1,3,5,7,9,11,13,15,17,19,21,23,25,27,29,-1,-1,-1,-1,-1,-1,-1,-1,-1,-1,-1,-1,-1,-1,-1,-1],"loss_changes":[6.638204E1,5.268042E1,5.4718163E1,3.499463E1,5.899215E1,2.1294617E1,2.3169733E1,2.0031178E1,3.204139E1,2.2371796E1,3.738162E1,1.8004868E1,2.095355E1,1.7365335E1,6.131954E0,0E0,0E0,0E0,0E0,0E0,0E0,0E0,0E0,0E0,0E0,0E0,0E0,0E0,0E0,0E0,0E0],"parents":[2147483647,0,0,1,1,2,2,3,3,4,4,5,5,6,6,7,7,8,8,9,9,10,10,11,11,12,12,13,13,14,14],"right_children":[2,4,6,8,10,12,14,16,18,20,22,24,26,28,30,-1,-1,-1,-1,-1,-1,-1,-1,-1,-1,-1,-1,-1,-1,-1,-1],"split_conditions":[2.694777E-1,-3.5732567E-1,6.527229E-1,-1.189093E0,-3.72735E-2,1.3781823E0,1.9942093E0,-4.1223395E-1,-8.320661E-1,7.997521E-1,1.8342918E0,-1.1749337E-1,-7.151351E-2,1.1939106E0,-4.1876858E-1,-3.824038E-2,5.0283846E-2,3.4927826E-2,-2.9335676E-2,5.2613605E-2,3.8694143E-3,-8.873231E-3,5.6054074E-2,-3.313101E-2,-8.996196E-2,7.190067E-2,-5.444419E-2,6.3277516E-3,9.663137E-2,7.678801E-2,-1.1143929E-1],"split_indices":[11,39,5,11,30,50,40,63,17,17,39,56,24,49,13,0,0,0,0,0,0,0,0,0,0,0,0,0,0,0,0],"split_type":[0,0,0,0,0,0,0,0,0,0,0,0,0,0,0,0,0,0,0,0,0,0,0,0,0,0,0,0,0,0,0],"sum_hessian":[2.6635054E3,2.147467E3,5.1603827E2,8.3901733E2,1.3084497E3,3.0417938E2,2.1185886E2,1.5229512E2,6.867222E2,6.106728E2,6.977769E2,2.525753E2,5.1604095E1,1.9310214E2,1.8756721E1,3.1560839E1,1.2073429E2,8.826159E1,5.9846063E2,4.9420328E2,1.16469505E2,5.945891E2,1.0318783E2,8.6078125E1,1.6649718E2,2.196463E1,2.9639467E1,1.6972276E2,2.3379368E1,1.214506E0,1.7542215E1],"tree_param":{"num_deleted":"0","num_feature":"64","num_nodes":"31","size_leaf_vector":"1"}},{"base_weights":[-1.331344E-3,5.136484E-1,-4.5512643E-2,6.328392E-1,-1.1986504E-1,-3.671173E-1,1.969212E-2,2.3695695E-1,7.969891E-1,-1.2805859E0,4.647204E-1,-4.288527E-1,7.6503575E-1,-1.3283037E-2,6.2554765E-1,-1.2555987E-1,4.081154E-2,9.244174E-2,3.2667335E-2,-3.3179298E-3,-2.3373047E-1,-1.6488591E-1,6.81985E-2,-3.27222E-2,-1.0552181E-1,1.3438633E-1,-5.4920573E-2,2.52122E-3,-6.993988E-2,6.822726E-2,-7.7339344E-2],"categories":[],"categories_nodes":[],"categories_segments":[],"categories_sizes":[],"default_left":[0,0,0,0,0,0,0,0,0,0,0,0,0,0,0,0,0,0,0,0,0,0,0,0,0,0,0,0,0,0,0],"id":34,"left_children":[1,3,5,7,9,11,13,15,17,19,21,23,25,27,29,-1,-1,-1,-1,-1,-1,-1,-1,-1,-1,-1,-1,-1,-1,-1,-1],"loss_changes":[5.9877487E1,1.5777149E1,5.0833107E1,1.1194496E1,2.3508068E1,2.8888145E1,4.028641E1,1.3992537E1,7.0938263E0,1.5182455E1,1.1774054E1,2.4362343E1,1.7084965E1,5.054458E1,8.787556E0,0E0,0E0,0E0,0E0,0E0,0E0,0E0,0E0,0E0,0E0,0E0,0E0,0E0,0E0,0E0,0E0],"parents":[2147483647,0,0,1,1,2,2,3,3,4,4,5,5,6,6,7,7,8,8,9,9,10,10,11,11,12,12,13,13,14,14],"right_children":[2,4,6,8,10,12,14,16,18,20,22,24,26,28,30,-1,-1,-1,-1,-1,-1,-1,-1,-1,-1,-1,-1,-1,-1,-1,-1],"split_conditions":[-6.8359697E-1,5.25356E-1,-6.847735E-1,-5.949606E-1,-2.5989017E-1,1.283861E0,2.0670118E0,-9.633358E-1,2.117298E-1,3.883707E-2,-9.494806E-1,5.804356E-1,5.4717726E-1,1.0657315E0,8.5097677E-1,-1.2555987E-1,4.081154E-2,9.244174E-2,3.2667335E-2,-3.3179298E-3,-2.3373047E-1,-1.6488591E-1,6.81985E-2,-3.27222E-2,-1.0552181E-1,1.3438633E-1,-5.4920573E-2,2.52122E-3,-6.993988E-2,6.822726E-2,-7.7339344E-2],"split_indices":[13,51,28,44,54,50,19,2,8,60,23,16,59,11,59,0,0,0,0,0,0,0,0,0,0,0,0,0,0,0,0],"split_type":[0,0,0,0,0,0,0,0,0,0,0,0,0,0,0,0,0,0,0,0,0,0,0,0,0,0,0,0,0,0,0],"sum_hessian":[2.6296638E3,2.0693948E2,2.4227244E3,1.741715E2,3.2768E1,4.0762E2,2.0151044E3,5.1767265E1,1.2240422E2,1.0576766E1,2.2191236E1,3.8713126E2,2.0488756E1,1.9120164E3,1.0308804E2,4.673858E0,4.7093407E1,9.555014E1,2.685408E1,5.3237405E0,5.2530255E0,1.4543126E0,2.0736923E1,3.343963E2,5.273494E1,1.4208436E1,6.280319E0,1.8113518E3,1.0066451E2,9.95632E1,3.5248454E0],"tree_param":{"num_deleted":"0","num_feature":"64","num_nodes":"31","size_leaf_vector":"1"}},{"base_weights":[2.1756519E-2,5.5024903E-2,-6.1017233E-1,6.173216E-3,4.7901562E-1,-7.570147E-1,3.616614E-1,-1.4780158E-1,1.5224248E-1,3.9966635E-2,6.394687E-1,-8.6619455E-1,5.1184964E-1,9.970025E-1,-1.0173947E0,-5.799187E-2,-3.9296164E-3,4.006499E-2,-5.716076E-3,-8.9483194E-2,2.3830779E-2,9.4691314E-2,3.9235037E-2,-6.509951E-2,-1.2487306E-1,1.3208139E-1,-4.506288E-2,-4.7696885E-2,1.3665704E-1,3.8189147E-2,-1.3855363E-1],"categories":[],"categories_nodes":[],"categories_segments":[],"categories_sizes":[],"default_left":[0,0,0,0,0,0,0,0,0,0,0,0,0,0,0,0,0,0,0,0,0,0,0,0,0,0,0,0,0,0,0],"id":35,"left_children":[1,3,5,7,9,11,13,15,17,19,21,23,25,27,29,-1,-1,-1,-1,-1,-1,-1,-1,-1,-1,-1,-1,-1,-1,-1,-1],"loss_changes":[5.548751E1,5.191829E1,1.9111546E1,5.059952E1,1.8218082E1,1.6374763E1,1.678901E1,5.1331024E1,6.0077003E1,1.3262065E1,1.4032761E1,7.934555E0,8.178684E0,7.6410904E0,3.7092776E0,0E0,0E0,0E0,0E0,0E0,0E0,0E0,0E0,0E0,0E0,0E0,0E0,0E0,0E0,0E0,0E0],"parents":[2147483647,0,0,1,1,2,2,3,3,4,4,5,5,6,6,7,7,8,8,9,9,10,10,11,11,12,12,13,13,14,14],"right_children":[2,4,6,8,10,12,14,16,18,20,22,24,26,28,30,-1,-1,-1,-1,-1,-1,-1,-1,-1,-1,-1,-1,-1,-1,-1,-1],"split_conditions":[7.119179E-1,1.5342273E0,1.1344706E0,1.1013744E-1,1.9920424E-1,2.3331034E0,1.7530476E0,-5.5427575E-1,2.8838515E-2,-9.3937063E-1,8.333543E-1,6.0423E-1,-6.625152E-1,6.1997037E-2,7.576456E-1,-5.799187E-2,-3.9296164E-3,4.006499E-2,-5.716076E-3,-8.9483194E-2,2.3830779E-2,9.4691314E-2,3.9235037E-2,-6.509951E-2,-1.2487306E-1,1.3208139E-1,-4.506288E-2,-4.7696885E-2,1.3665704E-1,3.8189147E-2,-1.3855363E-1],"split_indices":[13,28,53,63,24,19,17,10,59,33,29,17,1,37,54,0,0,0,0,0,0,0,0,0,0,0,0,0,0,0,0],"split_type":[0,0,0,0,0,0,0,0,0,0,0,0,0,0,0,0,0,0,0,0,0,0,0,0,0,0,0,0,0,0,0],"sum_hessian":[2.6367427E3,2.505739E3,1.3100366E2,2.2477686E3,2.5797055E2,1.1399957E2,1.7004093E1,1.0942666E3,1.153502E3,6.937856E1,1.88592E2,1.052598E2,8.739767E0,1.1830662E1,5.1734314E0,2.1875232E2,8.755142E2,5.271957E2,6.263063E2,1.1529146E1,5.7849415E1,8.277647E1,1.0581553E2,6.9092766E1,3.6167038E1,4.5462956E0,4.1934714E0,2.313394E0,9.517268E0,1.0698063E0,4.103625E0],"tree_param":{"num_deleted":"0","num_feature":"64","num_nodes":"31","size_leaf_vector":"1"}},{"base_weights":[4.8326552E-4,-7.079996E-2,2.9899892E-1,-3.9493936E-1,3.0414693E-2,7.9581314E-1,1.8890831E-1,-2.780282E-1,-9.6910954E-1,-6.0710367E-2,3.633174E-1,8.9184153E-1,-5.575626E-1,1.0620156E-1,8.025784E-1,-5.541752E-2,8.882894E-3,-1.1295587E-1,3.6476433E-2,1.7245008E-2,-2.6696732E-2,5.2598637E-2,-2.1074375E-2,-1.0968796E-1,9.5091745E-2,-1.2268031E-1,5.353977E-2,-1.4466782E-2,3.705305E-2,1.1190833E-1,-4.1408807E-2],"categories":[],"categories_nodes":[],"categories_segments":[],"categories_sizes":[],"default_left":[0,0,0,0,0,0,0,0,0,0,0,0,0,0,0,0,0,0,0,0,0,0,0,0,0,0,0,0,0,0,0],"id":36,"left_children":[1,3,5,7,9,11,13,15,17,19,21,23,25,27,29,-1,-1,-1,-1,-1,-1,-1,-1,-1,-1,-1,-1,-1,-1,-1,-1],"loss_changes":[5.5390247E1,6.89497E1,2.7293488E1,3.329914E1,4.8625793E1,1.2285801E1,2.0828606E1,4.2281883E1,1.8431625E1,6.0579662E1,3.227716E1,1.1038979E1,5.5027122E0,2.4209167E1,1.9250124E1,0E0,0E0,0E0,0E0,0E0,0E0,0E0,0E0,0E0,0E0,0E0,0E0,0E0,0E0,0E0,0E0],"parents":[2147483647,0,0,1,1,2,2,3,3,4,4,5,5,6,6,7,7,8,8,9,9,10,10,11,11,12,12,13,13,14,14],"right_children":[2,4,6,8,10,12,14,16,18,20,22,24,26,28,30,-1,-1,-1,-1,-1,-1,-1,-1,-1,-1,-1,-1,-1,-1,-1,-1],"split_conditions":[1.1020308E0,-5.5317116E-1,-5.4934186E-1,2.9370004E-1,7.152052E-1,1.5407357E-1,-8.499868E-2,2.5073295E-2,1.7336735E0,-5.38661E-1,5.1928604E-1,-1.3203526E0,3.8765514E-1,5.303329E-1,9.677588E-1,-5.541752E-2,8.882894E-3,-1.1295587E-1,3.6476433E-2,1.7245008E-2,-2.6696732E-2,5.2598637E-2,-2.1074375E-2,-1.0968796E-1,9.5091745E-2,-1.2268031E-1,5.353977E-2,-1.4466782E-2,3.705305E-2,1.1190833E-1,-4.1408807E-2],"split_indices":[10,44,29,13,36,42,32,39,28,11,9,39,12,39,41,0,0,0,0,0,0,0,0,0,0,0,0,0,0,0,0],"split_type":[0,0,0,0,0,0,0,0,0,0,0,0,0,0,0,0,0,0,0,0,0,0,0,0,0,0,0,0,0,0,0],"sum_hessian":[2.601033E3,2.100268E3,5.0076492E2,4.9907645E2,1.6011917E3,8.9707306E1,4.1105762E2,4.1588013E2,8.31963E1,1.2577318E3,3.4345978E2,8.408229E1,5.62501E0,3.6327118E2,4.778644E1,2.3698337E2,1.7889677E2,7.440003E1,8.796267E0,5.904403E2,6.6729156E2,2.676896E2,7.577018E1,1.9188578E0,8.216344E1,3.4128177E0,2.2121923E0,1.8661308E2,1.766581E2,3.798515E1,9.801291E0],"tree_param":{"num_deleted":"0","num_feature":"64","num_nodes":"31","size_leaf_vector":"1"}},{"base_weights":[-6.640557E-3,-7.1414754E-2,3.2119188E-1,-2.722295E-1,3.23591E-2,4.0615952E-1,-3.7949154E-1,-2.0763613E-1,-8.9258564E-1,-2.8831917E-1,1.038849E-1,8.884898E-1,3.0851886E-1,-8.3340764E-1,6.3242626E-1,3.5017736E-2,-2.7201427E-2,-1.3241827E-1,-2.50729E-2,-3.7564296E-2,4.6105906E-2,3.744636E-2,1.7559646E-3,-2.6568351E-2,9.480319E-2,4.116136E-2,-1.4146581E-2,4.8459124E-2,-1.15782216E-1,-1.15757756E-1,9.551733E-2],"categories":[],"categories_nodes":[],"categories_segments":[],"categories_sizes":[],"default_left":[0,0,0,0,0,0,0,0,0,0,0,0,0,0,0,0,0,0,0,0,0,0,0,0,0,0,0,0,0,0,0],"id":37,"left_children":[1,3,5,7,9,11,13,15,17,19,21,23,25,27,29,-1,-1,-1,-1,-1,-1,-1,-1,-1,-1,-1,-1,-1,-1,-1,-1],"loss_changes":[5.4727627E1,4.485376E1,2.5469044E1,2.9197681E1,3.259245E1,1.760809E1,2.1887043E1,2.3991432E1,1.874039E1,1.7132727E1,2.712339E1,4.608368E0,1.4778646E1,1.4471918E1,9.753456E0,0E0,0E0,0E0,0E0,0E0,0E0,0E0,0E0,0E0,0E0,0E0,0E0,0E0,0E0,0E0,0E0],"parents":[2147483647,0,0,1,1,2,2,3,3,4,4,5,5,6,6,7,7,8,8,9,9,10,10,11,11,12,12,13,13,14,14],"right_children":[2,4,6,8,10,12,14,16,18,20,22,24,26,28,30,-1,-1,-1,-1,-1,-1,-1,-1,-1,-1,-1,-1,-1,-1,-1,-1],"split_conditions":[1.2338147E0,-3.271516E-1,1.2288536E0,1.2662039E0,-8.485982E-1,-8.64594E-1,1.018143E0,-1.0071094E0,5.233571E-1,1.2168211E0,-6.164836E-1,-1.2174171E0,-3.6544043E-1,-7.108436E-1,-1.3055251E0,3.5017736E-2,-2.7201427E-2,-1.3241827E-1,-2.50729E-2,-3.7564296E-2,4.6105906E-2,3.744636E-2,1.7559646E-3,-2.6568351E-2,9.480319E-2,4.116136E-2,-1.4146581E-2,4.8459124E-2,-1.15782216E-1,-1.15757756E-1,9.551733E-2],"split_indices":[10,63,58,22,39,60,2,55,24,50,3,2,26,30,25,0,0,0,0,0,0,0,0,0,0,0,0,0,0,0,0],"split_type":[0,0,0,0,0,0,0,0,0,0,0,0,0,0,0,0,0,0,0,0,0,0,0,0,0,0,0,0,0,0,0],"sum_hessian":[2.575147E3,2.1509395E3,4.2420746E2,7.322757E2,1.4186638E3,3.7870456E2,4.5502888E1,6.644281E2,6.784758E1,2.581673E2,1.1604965E3,6.239299E1,3.1631158E2,3.1534058E1,1.3968828E1,6.828899E1,5.961391E2,3.9932873E1,2.7914703E1,2.3166992E2,2.6497383E1,2.798849E2,8.806116E2,2.8910143E0,5.9501976E1,2.5742007E2,5.8891518E1,6.1311784E0,2.540288E1,1.7387605E0,1.2230067E1],"tree_param":{"num_deleted":"0","num_feature":"64","num_nodes":"31","size_leaf_vector":"1"}},{"base_weights":[-1.1381133E-3,3.495614E-1,-5.887471E-2,6.0400474E-1,-1.6335742E-1,-1.9533996E-1,7.582526E-2,6.3294894E-1,-1.216592E-1,-6.870727E-1,2.92771E-1,-3.285681E-1,4.0230848E-2,1.1055958E-1,-7.8478724E-1,8.605366E-2,4.0182818E-2,1.3910408E-2,-1.076284E-1,6.77336E-2,-6.0198195E-2,-5.914206E-2,-1.8282862E-2,3.872078E-2,-2.6735116E-2,3.5628192E-2,-1.2998049E-3,-1.7221595E-1,-2.5259702E-2],"categories":[],"categories_nodes":[],"categories_segments":[],"categories_sizes":[],"default_left":[0,0,0,0,0,0,0,0,0,0,0,0,0,0,0,0,0,0,0,0,0,0,0,0,0,0,0,0,0],"id":38,"left_children":[1,3,5,7,9,11,13,15,-1,17,19,21,23,25,27,-1,-1,-1,-1,-1,-1,-1,-1,-1,-1,-1,-1,-1,-1],"loss_changes":[5.1821278E1,4.7314655E1,4.0409008E1,1.3524315E1,2.9045637E1,3.428145E1,3.316687E1,1.2220718E1,0E0,1.832041E1,2.285611E1,2.6613525E1,4.2294712E1,3.2325912E1,2.1043013E1,0E0,0E0,0E0,0E0,0E0,0E0,0E0,0E0,0E0,0E0,0E0,0E0,0E0,0E0],"parents":[2147483647,0,0,1,1,2,2,3,3,4,4,5,5,6,6,7,7,9,9,10,10,11,11,12,12,13,13,14,14],"right_children":[2,4,6,8,10,12,14,16,-1,18,20,22,24,26,28,-1,-1,-1,-1,-1,-1,-1,-1,-1,-1,-1,-1,-1,-1],"split_conditions":[-1.1863309E0,-5.1119734E-2,4.0790573E-2,1.0948912E0,8.1083095E-1,2.969767E-1,1.79831E0,-1.1601243E0,-1.216592E-1,1.996118E-2,1.4993567E0,-4.2111734E-1,-2.3395203E-1,-6.625362E-1,9.211913E-2,8.605366E-2,4.0182818E-2,1.3910408E-2,-1.076284E-1,6.77336E-2,-6.0198195E-2,-5.914206E-2,-1.8282862E-2,3.872078E-2,-2.6735116E-2,3.5628192E-2,-1.2998049E-3,-1.7221595E-1,-2.5259702E-2],"split_indices":[9,26,44,22,2,39,51,11,0,29,29,63,55,57,31,0,0,0,0,0,0,0,0,0,0,0,0,0,0],"split_type":[0,0,0,0,0,0,0,0,0,0,0,0,0,0,0,0,0,0,0,0,0,0,0,0,0,0,0,0,0],"sum_hessian":[2.5572869E3,3.60784E2,2.196503E3,2.410359E2,1.1974811E2,1.0908782E3,1.1056246E3,2.3790596E2,3.1299386E0,5.5508415E1,6.423969E1,6.965477E2,3.9433047E2,1.0635704E3,4.2054176E1,1.1849703E2,1.1940893E2,1.7981588E1,3.752683E1,4.5099087E1,1.9140604E1,2.4735876E2,4.4918893E2,1.8517711E2,2.0915335E2,3.5523056E2,7.083399E2,1.4419837E1,2.7634338E1],"tree_param":{"num_deleted":"0","num_feature":"64","num_nodes":"29","size_leaf_vector":"1"}},{"base_weights":[7.267846E-3,1.9034113E-1,-8.058117E-2,-7.148083E-2,4.1215628E-1,-1.9894487E-1,1.5623772E-1,6.536429E-1,-2.1618149E-1,5.3873885E-1,-1.2260387E-1,-2.6979256E-1,3.0907023E-1,4.4065478E-1,8.198612E-3,8.208594E-2,-7.979078E-2,-5.681299E-2,1.1685765E-2,4.859266E-2,1.3161159E-1,-5.4653686E-2,4.11393E-2,-2.310573E-2,-9.830755E-2,4.0158615E-2,-1.08193636E-1,-1.6309981E-1,4.7554374E-2,7.1800905E-3,-1.2257655E-1],"categories":[],"categories_nodes":[],"categories_segments":[],"categories_sizes":[],"default_left":[0,0,0,0,0,0,0,0,0,0,0,0,0,0,0,0,0,0,0,0,0,0,0,0,0,0,0,0,0,0,0],"id":39,"left_children":[1,3,5,7,9,11,13,15,17,19,21,23,25,27,29,-1,-1,-1,-1,-1,-1,-1,-1,-1,-1,-1,-1,-1,-1,-1,-1],"loss_changes":[4.0517647E1,4.7471733E1,4.7752384E1,3.954248E1,3.0011627E1,4.095413E1,2.3907782E1,1.5878004E1,3.6847313E1,1.4053909E1,1.9577524E1,2.7322258E1,1.8380173E1,1.4825394E1,2.9481073E1,0E0,0E0,0E0,0E0,0E0,0E0,0E0,0E0,0E0,0E0,0E0,0E0,0E0,0E0,0E0,0E0],"parents":[2147483647,0,0,1,1,2,2,3,3,4,4,5,5,6,6,7,7,8,8,9,9,10,10,11,11,12,12,13,13,14,14],"right_children":[2,4,6,8,10,12,14,16,18,20,22,24,26,28,30,-1,-1,-1,-1,-1,-1,-1,-1,-1,-1,-1,-1,-1,-1,-1,-1],"split_conditions":[-4.1564974E-1,-3.5732567E-1,7.0291275E-1,-1.119812E0,3.7368745E-1,1.8089101E0,-4.823775E-1,-4.7807863E-1,-4.4749063E-1,1.3107847E0,4.2244074E-1,1.6666943E0,7.828322E-1,-1.0593201E0,2.0179598E0,8.208594E-2,-7.979078E-2,-5.681299E-2,1.1685765E-2,4.859266E-2,1.3161159E-1,-5.4653686E-2,4.11393E-2,-2.310573E-2,-9.830755E-2,4.0158615E-2,-1.08193636E-1,-1.6309981E-1,4.7554374E-2,7.1800905E-3,-1.2257655E-1],"split_indices":[51,39,44,9,1,5,16,11,35,36,5,46,52,31,51,0,0,0,0,0,0,0,0,0,0,0,0,0,0,0,0],"split_type":[0,0,0,0,0,0,0,0,0,0,0,0,0,0,0,0,0,0,0,0,0,0,0,0,0,0,0,0,0,0,0],"sum_hessian":[2.5173606E3,8.158987E2,1.7014618E3,3.7451434E2,4.4138437E2,1.1345605E3,5.669012E2,6.1717667E1,3.1279666E2,3.5689636E2,8.448802E1,9.9611194E2,1.3844864E2,1.9338591E2,3.735153E2,5.5731926E1,5.985741E0,1.5173772E2,1.6105896E2,3.357142E2,2.1182146E1,4.7084656E1,3.7403362E1,9.460596E2,5.0052387E1,1.304816E2,7.9670405E0,2.4452028E0,1.909407E2,3.5610248E2,1.7412802E1],"tree_param":{"num_deleted":"0","num_feature":"64","num_nodes":"31","size_leaf_vector":"1"}},{"base_weights":[-3.2603927E-3,8.5055985E-2,-1.7999212E-1,3.1359114E-2,5.2695495E-1,-2.9507864E-1,2.764574E-1,2.4486761E-1,-7.82428E-2,9.4004774E-1,2.9676116E-1,-4.3246317E-1,-1.160438E-2,7.138264E-1,-2.4313991E-1,6.2259782E-2,1.4679976E-2,1.4903498E-2,-2.5642117E-2,-8.474646E-2,1.00788645E-1,-4.163867E-2,5.015504E-2,2.5383009E-2,-5.2926082E-2,6.601934E-2,-1.4833122E-2,-3.4570392E-2,9.716984E-2,3.1365816E-2,-6.76246E-2],"categories":[],"categories_nodes":[],"categories_segments":[],"categories_sizes":[],"default_left":[0,0,0,0,0,0,0,0,0,0,0,0,0,0,0,0,0,0,0,0,0,0,0,0,0,0,0,0,0,0,0],"id":40,"left_children":[1,3,5,7,9,11,13,15,17,19,21,23,25,27,29,-1,-1,-1,-1,-1,-1,-1,-1,-1,-1,-1,-1,-1,-1,-1,-1],"loss_changes":[3.9433205E1,3.9957188E1,4.430342E1,3.5194508E1,1.7071629E1,2.6196884E1,3.8813477E1,1.880535E1,4.029254E1,8.7157135E0,1.7534351E1,3.0237106E1,2.0365522E1,2.5629047E1,1.9131779E1,0E0,0E0,0E0,0E0,0E0,0E0,0E0,0E0,0E0,0E0,0E0,0E0,0E0,0E0,0E0,0E0],"parents":[2147483647,0,0,1,1,2,2,3,3,4,4,5,5,6,6,7,7,8,8,9,9,10,10,11,11,12,12,13,13,14,14],"right_children":[2,4,6,8,10,12,14,16,18,20,22,24,26,28,30,-1,-1,-1,-1,-1,-1,-1,-1,-1,-1,-1,-1,-1,-1,-1,-1],"split_conditions":[-1.2608202E-1,1.1548775E0,9.7364956E-1,-3.7053826E-1,-1.6201921E-1,5.73434E-1,7.4118125E-1,-1.0577186E0,-7.407838E-1,-1.3248551E0,-2.8457245E-1,-8.729324E-1,-5.3700036E-1,-4.7840047E-1,-1.8666248E-1,6.2259782E-2,1.4679976E-2,1.4903498E-2,-2.5642117E-2,-8.474646E-2,1.00788645E-1,-4.163867E-2,5.015504E-2,2.5383009E-2,-5.2926082E-2,6.601934E-2,-1.4833122E-2,-3.4570392E-2,9.716984E-2,3.1365816E-2,-6.76246E-2],"split_indices":[11,50,36,30,30,24,22,11,56,29,35,4,3,55,13,0,0,0,0,0,0,0,0,0,0,0,0,0,0,0,0],"split_type":[0,0,0,0,0,0,0,0,0,0,0,0,0,0,0,0,0,0,0,0,0,0,0,0,0,0,0,0,0,0,0],"sum_hessian":[2.524443E3,1.6836222E3,8.408209E2,1.5021598E3,1.8146237E2,6.717926E2,1.690283E2,5.091273E2,9.9303253E2,6.3831043E1,1.17631325E2,4.521396E2,2.1965302E2,9.157315E1,7.7455154E1,1.03835E2,4.052923E2,4.3646164E2,5.5657086E2,1.9137E0,6.1917343E1,2.601271E1,9.1618614E1,5.5688313E1,3.964513E2,3.6497334E1,1.8315569E2,1.7858107E1,7.371504E1,3.4009098E1,4.3446056E1],"tree_param":{"num_deleted":"0","num_feature":"64","num_nodes":"31","size_leaf_vector":"1"}},{"base_weights":[-6.9893687E-3,1.8375948E-1,-9.6954696E-2,2.833417E-1,-2.061869E-1,-1.3797641E-1,5.002325E-1,-1.2180422E-1,3.8486037E-1,-7.0732117E-1,7.867981E-2,-1.05343096E-1,-8.030377E-1,5.7944167E-1,-4.731109E-1,6.536244E-2,-4.3657474E-2,6.358328E-2,2.48451E-2,1.2656383E-1,-7.838277E-2,1.0730746E-1,-1.5892107E-2,-1.5617042E-2,3.2074615E-2,-1.14334874E-1,-2.5603596E-2,-5.6459587E-3,6.5366626E-2,8.825577E-2,-1.0984268E-1],"categories":[],"categories_nodes":[],"categories_segments":[],"categories_sizes":[],"default_left":[0,0,0,0,0,0,0,0,0,0,0,0,0,0,0,0,0,0,0,0,0,0,0,0,0,0,0,0,0,0,0],"id":41,"left_children":[1,3,5,7,9,11,13,15,17,19,21,23,25,27,29,-1,-1,-1,-1,-1,-1,-1,-1,-1,-1,-1,-1,-1,-1,-1,-1],"loss_changes":[4.2947655E1,3.120474E1,4.172825E1,2.6342926E1,2.3430965E1,3.4467247E1,8.717928E0,3.173834E1,1.7352509E1,9.964861E0,2.5049198E1,3.2940697E1,1.3540619E1,4.8384285E0,8.422942E0,0E0,0E0,0E0,0E0,0E0,0E0,0E0,0E0,0E0,0E0,0E0,0E0,0E0,0E0,0E0,0E0],"parents":[2147483647,0,0,1,1,2,2,3,3,4,4,5,5,6,6,7,7,8,8,9,9,10,10,11,11,12,12,13,13,14,14],"right_children":[2,4,6,8,10,12,14,16,18,20,22,24,26,28,30,-1,-1,-1,-1,-1,-1,-1,-1,-1,-1,-1,-1,-1,-1,-1,-1],"split_conditions":[-4.1564974E-1,2.3693235E-1,2.0670118E0,-9.477178E-1,-2.9199454E-1,1.610611E0,1.8775796E0,-8.316196E-1,-5.940833E-1,-1.3211681E0,-7.333994E-1,1.6844944E0,1.2238353E0,-1.6429051E0,1.6561836E0,6.536244E-2,-4.3657474E-2,6.358328E-2,2.48451E-2,1.2656383E-1,-7.838277E-2,1.0730746E-1,-1.5892107E-2,-1.5617042E-2,3.2074615E-2,-1.14334874E-1,-2.5603596E-2,-5.6459587E-3,6.5366626E-2,8.825577E-2,-1.0984268E-1],"split_indices":[51,27,19,39,39,58,11,57,17,43,31,28,5,32,39,0,0,0,0,0,0,0,0,0,0,0,0,0,0,0,0],"split_type":[0,0,0,0,0,0,0,0,0,0,0,0,0,0,0,0,0,0,0,0,0,0,0,0,0,0,0,0,0,0,0],"sum_hessian":[2.5006248E3,8.010843E2,1.6995404E3,6.3834174E2,1.6274258E2,1.5910198E3,1.0852065E2,1.2786234E2,5.104794E2,5.8444572E1,1.0429801E2,1.517707E3,7.331265E1,1.0072824E2,7.7924166E0,3.660656E1,9.125578E1,1.7846674E2,3.3201266E2,1.6015189E0,5.6843052E1,1.9436615E1,8.48614E1,1.3565236E3,1.6118347E2,4.4522972E1,2.8789679E1,1.0553452E1,9.017479E1,2.3298922E0,5.4625244E0],"tree_param":{"num_deleted":"0","num_feature":"64","num_nodes":"31","size_leaf_vector":"1"}},{"base_weights":[6.532757E-4,5.8976695E-2,-2.4482328E-1,2.9452443E-1,-3.0538457E-2,-7.15185E-1,-1.2476889E-1,1.1809387E-2,4.3688533E-1,-5.290519E-1,1.48713505E-2,8.758268E-2,-1.0898464E0,-5.0584126E-1,7.1280845E-2,-2.6923189E-2,5.5267513E-2,5.3940576E-2,-1.3815382E-3,-1.1543956E-1,-3.1074783E-2,-2.249424E-3,6.65284E-2,-3.244209E-2,1.4579098E-1,-4.713376E-2,-1.6374804E-1,3.4605432E-3,-7.699937E-2,1.9694738E-2,-4.5180123E-2],"categories":[],"categories_nodes":[],"categories_segments":[],"categories_sizes":[],"default_left":[0,0,0,0,0,0,0,0,0,0,0,0,0,0,0,0,0,0,0,0,0,0,0,0,0,0,0,0,0,0,0],"id":42,"left_children":[1,3,5,7,9,11,13,15,17,19,21,23,25,27,29,-1,-1,-1,-1,-1,-1,-1,-1,-1,-1,-1,-1,-1,-1,-1,-1],"loss_changes":[3.53364E1,4.2058907E1,2.6667616E1,2.2101978E1,3.2741924E1,2.9010239E1,2.8328074E1,2.8267578E1,1.6886238E1,1.6125343E1,3.2247322E1,1.8266685E1,2.1454903E1,1.8409504E1,1.6583477E1,0E0,0E0,0E0,0E0,0E0,0E0,0E0,0E0,0E0,0E0,0E0,0E0,0E0,0E0,0E0,0E0],"parents":[2147483647,0,0,1,1,2,2,3,3,4,4,5,5,6,6,7,7,8,8,9,9,10,10,11,11,12,12,13,13,14,14],"right_children":[2,4,6,8,10,12,14,16,18,20,22,24,26,28,30,-1,-1,-1,-1,-1,-1,-1,-1,-1,-1,-1,-1,-1,-1,-1,-1],"split_conditions":[5.446946E-1,-8.1235117E-1,-2.9559028E-1,-1.2861509E0,-7.6960814E-1,-1.4237808E0,6.1997037E-2,8.1476074E-1,3.2031643E-1,-2.5894636E-1,1.1851407E0,-1.1039923E0,-3.9395413E-1,-7.583639E-1,2.1147093E-1,-2.6923189E-2,5.5267513E-2,5.3940576E-2,-1.3815382E-3,-1.1543956E-1,-3.1074783E-2,-2.249424E-3,6.65284E-2,-3.244209E-2,1.4579098E-1,-4.713376E-2,-1.6374804E-1,3.4605432E-3,-7.699937E-2,1.9694738E-2,-4.5180123E-2],"split_indices":[60,18,4,52,52,18,37,39,49,5,4,52,28,57,40,0,0,0,0,0,0,0,0,0,0,0,0,0,0,0,0],"split_type":[0,0,0,0,0,0,0,0,0,0,0,0,0,0,0,0,0,0,0,0,0,0,0,0,0,0,0,0,0,0,0],"sum_hessian":[2.4661287E3,1.9932959E3,4.728327E2,5.4827905E2,1.4450168E3,9.513715E1,3.7769553E2,1.8398518E2,3.642939E2,1.19749054E2,1.3252678E3,3.0516743E1,6.4620415E1,1.2776727E2,2.4992827E2,1.21404144E2,6.2581036E1,2.9662427E2,6.766964E1,2.9876936E1,8.9872116E1,1.2541816E3,7.108613E1,2.404931E1,6.4674306E0,3.1220282E1,3.340013E1,4.2231686E1,8.553558E1,2.0201836E2,4.7909904E1],"tree_param":{"num_deleted":"0","num_feature":"64","num_nodes":"31","size_leaf_vector":"1"}},{"base_weights":[1.087964E-2,3.131251E-2,-7.491603E-1,-9.022838E-2,1.7016134E-1,-9.6406746E-1,-2.7262455E-1,-2.1718037E-1,1.449853E-1,2.5368425E-1,-1.8520036E-1,5.2743997E-2,-1.03156045E-1,2.0596097E-1,-5.178925E-1,-3.5600185E-2,1.1103743E-3,5.0322276E-2,-6.9451593E-3,9.580176E-3,4.4948887E-2,1.3853055E-1,-2.5949437E-2,-1.0652994E-1,2.168805E-2],"categories":[],"categories_nodes":[],"categories_segments":[],"categories_sizes":[],"default_left":[0,0,0,0,0,0,0,0,0,0,0,0,0,0,0,0,0,0,0,0,0,0,0,0,0],"id":43,"left_children":[1,3,5,7,9,11,13,15,17,19,21,-1,-1,-1,23,-1,-1,-1,-1,-1,-1,-1,-1,-1,-1],"loss_changes":[3.828408E1,4.0519844E1,6.34676E0,3.826822E1,3.3308937E1,4.982052E0,1.3338762E1,2.6371826E1,3.4562138E1,2.8021004E1,2.5310915E1,0E0,0E0,0E0,8.360497E0,0E0,0E0,0E0,0E0,0E0,0E0,0E0,0E0,0E0,0E0],"parents":[2147483647,0,0,1,1,2,2,3,3,4,4,5,5,6,6,7,7,8,8,9,9,10,10,14,14],"right_children":[2,4,6,8,10,12,14,16,18,20,22,-1,-1,-1,24,-1,-1,-1,-1,-1,-1,-1,-1,-1,-1],"split_conditions":[1.2417624E0,1.0118399E-1,1.1253676E0,3.4456366E-1,7.456475E-1,-1.0183504E0,-6.898577E-1,2.787743E-2,7.71706E-2,1.948325E-1,-8.4885985E-1,5.2743997E-2,-1.03156045E-1,2.0596097E-1,1.738022E0,-3.5600185E-2,1.1103743E-3,5.0322276E-2,-6.9451593E-3,9.580176E-3,4.4948887E-2,1.3853055E-1,-2.5949437E-2,-1.0652994E-1,2.168805E-2],"split_indices":[27,44,35,39,16,30,17,25,29,10,55,0,0,0,5,0,0,0,0,0,0,0,0,0,0],"split_type":[0,0,0,0,0,0,0,0,0,0,0,0,0,0,0,0,0,0,0,0,0,0,0,0,0],"sum_hessian":[2.462691E3,2.3991511E3,6.3539845E1,1.2794972E3,1.1196538E3,4.3085953E1,2.0453892E1,8.3103754E2,4.4845966E2,9.0680725E2,2.1284657E2,1.5702685E0,4.1515682E1,1.242421E0,1.9211472E1,5.164317E2,3.1460587E2,1.6742064E2,2.81039E2,5.0284174E2,4.0396548E2,8.817007E0,2.0402957E2,1.0751646E1,8.4598255E0],"tree_param":{"num_deleted":"0","num_feature":"64","num_nodes":"25","size_leaf_vector":"1"}},{"base_weights":[1.4227744E-2,3.1271785E-1,-3.033985E-2,6.236919E-1,-3.8741373E-2,-1.623324E-1,7.826815E-2,6.866559E-1,-5.77952E-1,-5.138746E-1,3.3117688E-1,-8.22943E-2,-4.8987028E-1,4.4259462E-1,-1.20279575E-2,-4.808139E-2,7.3332556E-2,6.358601E-2,-1.4203496E-1,-1.0260075E-1,6.992124E-4,-6.4032555E-2,4.9718004E-2,9.0448465E-3,-2.159605E-2,3.0990964E-2,-6.214708E-2,2.4414862E-2,1.0025312E-1,-1.0480441E-2,3.3844832E-2],"categories":[],"categories_nodes":[],"categories_segments":[],"categories_sizes":[],"default_left":[0,0,0,0,0,0,0,0,0,0,0,0,0,0,0,0,0,0,0,0,0,0,0,0,0,0,0,0,0,0,0],"id":44,"left_children":[1,3,5,7,9,11,13,15,17,19,21,23,25,27,29,-1,-1,-1,-1,-1,-1,-1,-1,-1,-1,-1,-1,-1,-1,-1,-1],"loss_changes":[3.2729816E1,3.495748E1,3.0704865E1,1.323172E1,2.6707716E1,2.5304312E1,3.866677E1,9.160088E0,1.0094656E1,1.7742483E1,1.4107323E1,1.7986443E1,2.0153572E1,2.5695045E1,3.0690609E1,0E0,0E0,0E0,0E0,0E0,0E0,0E0,0E0,0E0,0E0,0E0,0E0,0E0,0E0,0E0,0E0],"parents":[2147483647,0,0,1,1,2,2,3,3,4,4,5,5,6,6,7,7,8,8,9,9,10,10,11,11,12,12,13,13,14,14],"right_children":[2,4,6,8,10,12,14,16,18,20,22,24,26,28,30,-1,-1,-1,-1,-1,-1,-1,-1,-1,-1,-1,-1,-1,-1,-1,-1],"split_conditions":[-1.200889E0,3.986887E-1,-2.6713658E-2,1.3937703E0,-6.73315E-2,3.4326684E-1,-5.579316E-1,-1.2674266E0,-1.8605517E-1,-1.4493509E-1,-1.0713046E0,-4.578687E-1,-8.5838497E-1,2.8777447E-1,9.335669E-1,-4.808139E-2,